date,CC_MAIN1,CC_MAIN2,CL_MAIN1,CL_MAIN2,CO_MAIN1,CO_MAIN2,CT_MAIN1,CT_MAIN2,C_MAIN1,C_MAIN2,FC_MAIN1,FC_MAIN2,GC_MAIN1,GC_MAIN2,HG_MAIN1,HG_MAIN2,HO_MAIN1,HO_MAIN2,KC_MAIN1,KC_MAIN2,KO_MAIN1,KO_MAIN2,LA_MAIN1,LA_MAIN2,LC_MAIN1,LC_MAIN2,LH_MAIN1,LH_MAIN2,LL_MAIN1,LL_MAIN2,LN_MAIN1,LN_MAIN2,LT_MAIN1,LT_MAIN2,LX_MAIN1,LX_MAIN2,NG_MAIN1,NG_MAIN2,PL_MAIN1,PL_MAIN2,QS_MAIN1,QS_MAIN2,SAI_MAIN1,SAI_MAIN2,SB_MAIN1,SB_MAIN2,S_MAIN1,S_MAIN2,W_MAIN1,W_MAIN2,XB_MAIN1,XB_MAIN2
1/2/2012,-0.273605668,-0.111968054,-0.381394117,-0.349849284,-0.191141312,0.257503696,0.347576383,-0.217184209,0.010397202,0.3954797,0.019062216,0.258292383,-0.00230818,0.353944168,-0.131104245,0.21981944,0.343235916,-0.069876913,-0.356479393,-0.130770796,-0.051278677,-0.133371544,0.354257106,-0.300731305,0.295067813,0.035598964,-0.069488818,-0.382005744,-0.341357762,0.181758399,0.418095348,0.071824815,0.228180183,0.274818954,0.041680251,-0.438302582,0.236035516,-0.158362219,0.158107637,0.459868751,0.105246142,-0.113812439,0.20295477,0.111026029,-0.423215925,0.388597565,0.042833945,-0.171777611,-0.008860267,0.299948541,-0.448135474,-0.447397732
1/3/2012,-0.148845188,0.355651631,-0.127681873,-0.013462122,0.193169918,-0.046946782,0.152523815,-0.419276927,-0.409298332,-0.316681307,-0.136318147,-0.322250426,-0.310611602,-0.136868986,0.11415973,0.356473335,-0.111284281,0.137880191,-0.33507274,0.211388189,0.336848437,-0.029119063,0.373415134,0.219009189,-0.318681022,0.079541777,0.117785337,-0.361365649,0.197838848,-0.482853014,-0.355135423,0.390488884,-0.170556403,0.390418135,0.093293499,0.436959169,0.351981317,0.055084084,0.252665152,0.273045764,0.359169455,0.185216181,-0.218791705,0.331646985,0.253178199,-0.48407658,-0.045439629,-0.416664219,0.200594592,0.344887399,-0.006186669,-0.092785154
1/4/2012,0.331276915,0.063373349,0.277181168,0.299142123,-0.137336397,0.436443598,0.123220204,-0.44818068,0.249747149,0.155044278,0.053924695,0.007135886,-0.357810379,0.147685597,0.020753547,-0.08478677,0.36018637,-0.247374508,-0.136168608,0.38119704,0.420788784,-0.481166075,-0.442477676,-0.058242077,-0.211625297,0.142350735,-0.265158735,-0.116540883,0.399160809,0.09957211,-0.023509429,0.307514184,0.419088222,-0.279124219,-0.284829844,-0.172164005,-0.17937015,-0.402780102,0.201885197,0.040877658,-0.337161934,-0.019545132,0.312023141,0.374274562,0.408000136,0.076889506,-0.079166178,-0.31964255,0.284330269,-0.273484885,-0.23049719,0.103228422
1/5/2012,0.445306562,-0.150140149,0.44548974,-0.09083925,-0.047046863,0.199372645,-0.356228041,-0.327053084,0.250598377,0.147985509,-0.042433179,-0.264277562,-0.445770031,-0.168240578,0.228829169,-0.344587642,0.1523424,0.356308296,-0.178306514,0.190618712,-0.370194835,0.119828352,-0.462958825,0.156789313,0.401450759,0.080748398,-0.022448336,0.306656553,-0.100264587,0.494380787,-0.182255762,-0.466194212,-0.302118995,-0.465741629,-0.316187426,-0.394195896,-0.296823165,-0.475563563,-0.133620898,0.469570325,0.387729453,0.270355496,-0.121371875,0.478942418,0.122682582,0.339777078,-0.211854988,0.29739079,0.006137219,0.437707131,-0.387107886,-0.190525445
1/6/2012,-0.264456461,0.020942016,-0.006997401,-0.03897933,0.121058781,0.115344659,-0.252454864,0.377658609,0.256516652,0.296168848,0.114492825,0.319475157,-0.022989922,0.463568621,-0.253039904,0.397974689,0.496412127,0.161131232,0.310968552,-0.391786627,-0.418354102,0.053801716,0.395009504,-0.214962001,0.019259454,0.110238808,-0.490384796,0.159434483,-0.420159747,0.11044551,0.359167646,0.060141103,-0.042875142,-0.282955345,-0.111902861,0.135654877,0.319288856,0.144601651,-0.367775319,0.252063293,-0.037620866,0.258237421,-0.006309631,0.459762663,-0.005399765,-0.465574489,-0.47819506,-0.380255609,-0.492435067,0.021039136,-0.052407667,-0.319557388
1/9/2012,0.434884104,0.421069976,0.128202317,0.143360601,-0.140669105,0.154171425,0.36691364,0.093837887,0.258437775,0.187599719,-0.016601201,-0.065844679,0.298272189,0.400464131,-0.330855765,-0.083676807,0.434809132,-0.375973872,0.131507473,0.100711557,0.196229204,-0.143452932,0.455622834,0.160820546,0.03686701,0.212984655,0.105142655,0.103276697,-0.39976911,-0.132547166,0.287224121,0.155195435,-0.083423642,0.488306,0.470826482,-0.307200338,-0.258550224,0.125065087,0.086224181,-0.100563426,0.397238584,0.214839143,0.299530951,0.358073925,0.275773698,-0.253005053,-0.142120573,0.078691916,-0.278750762,0.454448739,-0.364112546,0.113732753
1/10/2012,-0.137142837,-0.373952612,-0.331610557,-0.375308309,0.372751621,-0.042493481,-0.456779026,-0.066100227,-0.236080378,-0.071605235,-0.347543485,0.468596266,-0.250153087,0.423731315,-0.305192857,0.225668961,-0.415887225,-0.30917928,-0.439572643,-0.429885071,-0.012914269,-0.410061766,-0.077824125,-0.190147415,-0.185599725,0.404864553,-0.388008124,-0.074084802,-0.13752536,-0.050870575,0.154094686,-0.328018367,-0.280940228,0.451079879,-0.085377775,-0.239770414,0.450865043,-0.369701488,-0.27879182,-0.050897152,-0.052222547,0.177870142,-0.149695907,0.209628176,0.188120233,-0.373825027,0.319731028,-0.400361346,-0.060499488,-0.338327467,-0.399657385,-0.287634488
1/11/2012,-0.316112547,-0.421786393,0.3004442,0.11369299,-0.22903066,-0.446033001,-0.094617048,-0.058851991,0.338632657,-0.375781982,0.236952645,-0.236768988,-0.495016691,-0.377507248,0.036952809,-0.266397,-0.157634815,-0.448212522,-0.442201233,0.187684209,0.4884774,0.058812104,0.2040248,0.294050287,-0.23857459,0.132574213,-0.179906383,0.236206257,0.357953487,-0.261651909,0.204350919,-0.426134691,-0.346851834,0.311523943,-0.123304167,0.313511387,0.420636143,0.244075207,-0.039751223,0.482559391,-0.352091605,-0.181621296,0.352277362,0.093844931,-0.099626736,0.404035164,0.467668007,0.203741532,0.082731135,-0.424753421,0.403841122,-0.333823107
1/12/2012,-0.005459552,0.262226628,-0.419000241,0.130060641,-0.223303194,-0.237008252,0.308278139,-0.407440555,-0.319422502,0.152012798,0.442322803,-0.293734864,0.174153549,-0.033243585,-0.080271294,0.173434235,-0.402589517,0.117838694,0.27207969,0.198752255,0.101297076,-0.461262706,-0.403878225,-0.226790142,-0.107516297,-0.267199742,0.02085626,0.435952736,0.198192059,0.397125937,0.187279442,0.225643885,-0.109409719,0.292126263,0.29812819,0.212069857,-0.213519728,0.347583903,-0.331239382,0.142558927,-0.365430476,0.296718843,-0.108471709,-0.244806755,0.45332418,-0.142768095,-0.209115407,-0.192892356,-0.37882224,-0.415995396,-0.47539224,-0.075626463
1/13/2012,-0.296652584,0.174144703,-0.498967191,0.044612581,-0.050792349,0.175343531,-0.3458963,0.098696694,0.155222403,-0.398073357,-0.266264331,0.247014203,-0.012652635,0.25070373,0.280765251,-0.498797223,-0.001707661,-0.015906262,-0.084831402,0.439735787,-0.134993818,0.038597383,0.052890418,0.293438421,-0.044550314,-0.315606367,-0.176507921,0.214147967,0.170103348,0.440513671,0.239098665,0.25776828,0.04897035,0.047220059,0.20001941,0.307287716,-0.426493199,-0.226402397,0.372694369,-0.491008378,0.320629426,0.216074253,0.122824536,0.002663204,0.287983746,-0.26580389,0.018874018,-0.040349013,0.17964876,-0.10923901,0.024031545,-0.473470293
1/16/2012,-0.268565481,-0.010799269,0.393543486,0.146580518,0.488009645,-0.423368859,0.335321111,0.363869196,-0.207803504,-0.122844039,0.005076233,-0.119803989,0.289682768,-0.387512874,0.305232663,-0.189543838,0.055638206,-0.347457821,-0.168807674,0.182968563,0.053931814,0.330090696,0.285728512,-0.15330951,-0.009545087,0.132453532,0.269430243,0.205925015,-0.16434173,-0.392705465,-0.405812045,0.27577653,0.496590209,0.147401147,0.076789443,0.06587364,-0.056898545,0.260688568,-0.412276754,-0.062856658,-0.362692837,0.235094076,-0.169504308,-0.236886457,0.478815739,0.227094498,0.260428324,0.397615937,0.284421225,-0.468008607,-0.262362849,-0.474156543
1/17/2012,-0.118307277,0.175284459,-0.212304296,0.462902635,0.064443721,0.092040784,0.417557822,0.122440461,0.033227409,-0.449276125,0.195127074,0.430446486,0.151286883,0.119838807,-0.013214738,0.011966359,-0.211778847,-0.260191241,0.410388169,0.42601434,-0.250309686,-0.262178132,-0.322670013,0.222659159,0.089075539,-0.451864907,0.00679083,-0.445652504,-0.265100796,-0.203685782,0.194719579,-0.08694024,0.420254753,-0.222101753,0.321269405,-0.267199528,-0.45199082,-0.319028614,-0.06636684,0.459848354,-0.294049014,0.098454755,0.26373124,0.201515362,0.435142009,0.405915909,-0.082228098,-0.400516905,0.123446665,-0.250291726,-0.137407411,-0.411288725
1/18/2012,-0.254619614,0.181721247,0.318318869,-0.019709333,-0.300666722,0.395451305,-0.006051883,0.243337969,0.427415784,-0.378219146,0.467778724,0.0460534,-0.059069118,-0.476934628,-0.26714848,0.287582474,-0.484569764,-0.373835142,-0.147987006,-0.406684812,-0.294644374,0.003946717,-0.168728821,0.175933843,-0.444956646,-0.355442916,0.116052455,0.013555548,-0.278559028,0.288082912,0.043888325,0.324046956,-0.393944821,-0.375806784,-0.459716078,-0.242231509,-0.20164783,0.232737331,0.150236886,-0.437009057,0.336969385,0.009347832,0.073255783,-0.319692089,0.145718846,0.408473236,-0.072166277,0.497663746,0.308330575,0.178912615,-0.189688738,0.389941176
1/19/2012,0.419847685,-0.473866888,-0.499684223,0.172280088,-0.000194341,-0.450568858,-0.389515635,0.46992901,0.268988511,-0.365375958,0.377418953,0.052631886,-0.223404133,-0.158007075,-0.316359847,-0.471598598,0.290104146,0.174395287,0.371617545,-0.240397929,0.060451657,-0.307661769,-0.291490668,-0.297582559,-0.224715339,0.481215976,0.230523258,-0.226901359,0.346190016,0.434478434,0.260843537,0.305542428,-0.006522321,0.016545784,-0.09850757,-0.052387468,-0.08734284,-0.260901922,-0.34460222,-0.475857265,-0.23671553,0.356963185,0.405832733,-0.244603284,-0.269523397,0.491594966,-0.395856991,0.214251427,0.36584924,-0.346206006,0.096741149,-0.00291068
1/20/2012,0.467996429,0.298640774,-0.496044419,-0.31033292,-0.284270656,-0.230580146,0.234520487,0.342638971,-0.440598958,0.2307329,0.2855988,-0.377392579,0.358906545,-0.355900574,0.159941244,0.449000636,0.409644107,-0.005155768,-0.309050469,0.472180647,0.123924185,-0.036256453,-0.081044925,0.330051022,0.46868188,0.308844572,-0.079228092,0.208851306,0.461703922,0.448003571,0.225784034,0.034554237,0.057821963,-0.324601566,0.067506738,0.453101694,-0.426910801,-0.355385061,-0.345268975,0.354784586,-0.475705666,0.364368783,0.369845246,-0.101714437,-0.200269355,-0.061886185,0.06022612,-0.029995594,-0.207306396,-0.188683487,-0.37897785,0.254334559
1/23/2012,-0.244922968,-0.423084472,-0.289729649,0.417753752,0.001531459,-0.002142324,-0.33989483,-0.482250531,-0.388733203,-0.097193232,0.47137012,-0.044296681,0.479967678,-0.472003018,-0.2171462,0.48643717,0.157314722,-0.311836967,-0.454145261,0.263109567,-0.268536664,0.138908527,-0.052590618,0.431118039,0.088222445,-0.387754747,-0.211454064,0.252214757,-0.479366923,-0.097990621,0.132553661,-0.439995666,0.47142362,-0.349815274,-0.318006964,0.274774963,-0.482266139,-0.079764536,-0.433134352,0.270575262,-0.423496285,0.296857921,0.231996204,0.166580599,0.288776251,-0.360794278,-0.321693206,0.451979115,-0.41365573,-0.162755812,0.295386379,-0.079487741
1/24/2012,-0.26136126,-0.202996422,0.059484646,0.021208877,0.280746755,0.143461393,0.482574046,-0.339725853,0.420585273,0.295579719,-0.106561386,0.238579683,-0.110032895,-0.380352566,0.1905691,-0.489131758,-0.356884126,-0.175692982,0.388424846,-0.408951359,0.119769204,0.099763594,0.159179403,0.251388749,-0.464355523,0.303623848,0.244232994,-0.134952833,0.489840043,-0.188576026,0.292793762,-0.422201016,0.162699532,0.121471254,0.153189574,0.374853578,0.488655819,-0.41195951,0.228770024,0.332285008,0.203397918,0.148609424,0.321906213,-0.190176574,0.125122005,-0.37731575,-0.245164523,0.362620166,-0.318722873,0.077871681,0.4847673,0.330080995
1/25/2012,0.378239743,-0.156839303,-0.167278364,0.474457379,-0.269318904,-0.434649803,0.228726064,0.110479925,0.331249936,0.288390094,-0.090566869,0.161213384,0.315778543,-0.402260149,-0.425106043,-0.145219772,-0.061655683,0.272517988,-0.140078856,-0.202534249,-0.113165129,-0.169776208,-0.392167171,0.484000668,-0.253542462,-0.233439188,0.196314511,0.18184519,-0.066842583,0.146632389,0.110192052,-0.322422035,-0.101490809,0.230063,0.446275064,-0.180373412,-0.407620264,-0.18576525,0.071174108,0.340177256,-0.153044662,-0.375241761,0.16684151,0.137505177,0.303048754,0.014341694,0.340633887,-0.292616155,-0.201533664,0.145185302,-0.122086037,0.440146625
1/26/2012,-0.019322557,0.255234697,0.151870151,0.150351531,0.230166913,0.223187958,-0.445084511,0.381542915,-0.070227628,0.349556295,0.416210597,0.175752025,-0.491920614,0.433463003,-0.368058068,0.294706638,0.342219409,0.082725021,-0.116715026,-0.319369844,-0.04050527,-0.083068569,0.187969244,0.177216398,0.053032611,0.244717882,-0.352072431,0.477684831,-0.478428185,-0.06293053,-0.111785171,0.335208408,0.387826716,0.241112504,-0.398462497,0.442384761,0.432422423,0.062381909,-0.226769003,0.048797463,-0.263133188,-0.117319577,-0.110204206,-0.335459469,0.157513688,0.241422736,-0.267420414,0.074298713,-0.328974041,0.220105537,0.285174056,0.044668037
1/27/2012,-0.495246415,0.098524039,0.102226826,-0.278971191,0.132495553,-0.297629485,0.135018297,-0.264320277,0.29203324,0.176034684,-0.373695502,0.209770436,0.093332203,-0.014131479,0.11432231,0.273452872,-0.478136896,-0.063380164,-0.051085167,-0.272649841,0.457567255,-0.233575714,0.436968401,-0.46201544,0.441438782,-0.23791017,-0.015496489,-0.335554903,-0.499917424,0.172157225,0.040967848,0.195014061,0.274105284,0.217569838,-0.467779511,0.028390392,0.463225796,0.218013375,-0.385535826,-0.05683626,-0.496329924,-0.138190078,0.495912324,0.006635392,0.39701283,-0.416807354,-0.433475287,-0.091825182,-0.198999696,0.044340864,-0.45070429,0.278127181
1/30/2012,-0.461543765,0.282213988,0.062292937,-0.225767287,0.143176726,0.199890517,0.409079472,-0.386302152,-0.444072665,-0.01619027,0.193109728,-0.036542134,-0.075676014,-0.220994497,0.420786866,0.418744185,0.323270343,0.388085489,0.258982618,-0.285375237,-0.089025118,0.221168637,0.056835544,-0.33166238,-0.202434078,-0.036728923,-0.203662659,0.464792754,0.166052618,-0.469882516,0.353236099,-0.422731663,-0.418361899,-0.111907655,0.126857738,-0.340642234,0.494358444,0.303412156,-0.158295897,-0.278252823,-0.256709581,-0.052329364,0.094017266,-0.055556951,-0.311669466,0.321113983,0.178039503,0.288701488,0.033809078,-0.01619887,0.426446718,0.03343036
1/31/2012,-0.27525964,0.430189946,0.322933982,-0.270971712,-0.362672094,0.090950511,-0.249973779,0.218345574,-0.431135239,0.261372178,0.453758418,-0.420669635,0.469260275,0.145708335,-0.489449041,-0.451104055,0.080821816,0.155060674,0.248735208,0.407990146,-0.341278488,-0.193993515,0.020608487,0.227597273,-0.351933163,-0.377057769,0.00377218,0.111307459,0.418465964,-0.341208358,0.440590706,0.004292626,0.310905829,0.405970407,-0.098999442,0.311285218,-0.311095973,-0.102466525,-0.084785804,0.219354369,0.019910609,-0.063480306,0.110552012,0.070860613,0.32936401,-0.460626724,-0.459483438,-0.059297653,0.36533149,-0.266525827,0.196268036,0.097105425
2/1/2012,0.049029808,0.219969547,0.26798785,-0.037953007,0.093034641,-0.488828015,-0.000545042,0.006237119,0.408582732,0.072274701,-0.059924432,-0.400571536,0.053344559,0.230622537,0.473328889,-0.434193851,0.133165127,-0.179603642,0.071409459,0.399945103,0.107646149,-0.446916281,-0.395168433,0.37455502,-0.027830858,0.409767011,0.265317416,-0.268648765,0.259124615,-0.064460941,-0.353099784,0.435862168,0.427271882,-0.125594747,0.025175293,0.184704594,0.306522903,-0.405880889,0.247122742,-0.153834548,-0.027044013,0.293784,0.409455294,0.300416322,-0.1539203,0.270819917,-0.43900553,0.324949138,0.096052247,-0.369036064,0.140214265,-0.198607449
2/2/2012,0.352454307,-0.028703127,0.289111357,-0.359803021,-0.323365844,-0.424836324,0.146315611,-0.444250562,0.343834225,-0.429548002,-0.433259988,-0.280489859,-0.492311281,0.49810323,0.27554521,-0.299193839,-0.409206275,0.225137478,-0.172365881,0.457789124,-0.036355779,0.076051604,-0.403862134,0.364353523,0.378551687,-0.46354027,-0.196442996,0.087680612,-0.392567892,0.471577478,0.113390745,-0.208491719,0.083273989,-0.429936079,-0.394447866,-0.142957361,0.126323199,-0.019200441,-0.201657408,0.30621073,-0.028422318,0.147860471,-0.126159067,-0.157562772,0.298577791,0.131541146,0.106727348,0.237084451,-0.216617608,0.165736797,0.406545713,-0.131630447
2/3/2012,0.21894727,0.188289108,-0.463772302,0.216313428,-0.056069632,0.081141315,0.158850271,-0.018563492,-0.03698669,0.072746535,-0.115565784,0.291616992,0.100654601,0.317391077,0.474083684,-0.185633572,0.431649048,-0.245391904,-0.350473415,0.192174063,-0.199972513,0.411815048,0.276296051,-0.309664809,-0.186374261,-0.024238409,-0.316703921,-0.315671387,0.282407002,0.317044823,0.010545269,0.043944164,0.248279766,0.265235237,-0.42140897,0.22844758,0.491731045,-0.479333907,0.353125803,-0.170689546,0.348154237,-0.208518608,0.225749413,-0.420844868,-0.07286205,0.208579239,-0.174385468,-0.178822643,-0.347268403,0.111382188,-0.160527239,0.002440914
2/6/2012,-0.070122118,-0.005737009,0.317354726,0.37303124,-0.365614737,0.263792056,0.343101117,0.15686345,0.479954467,-0.198578704,0.017080449,-0.101056003,0.134936815,-0.035228113,-0.113176216,0.203535989,-0.226929487,0.252867008,-0.232617207,-0.262817147,-0.463479489,0.233219663,-0.171079865,-0.152337081,0.158297699,0.075729852,0.442005256,-0.449805802,-0.266934233,-0.312474529,0.462088795,0.004857975,-0.078606809,0.029414283,0.052156382,-0.069179158,0.272347793,0.009038536,0.376158482,-0.448287596,-0.032589662,0.250542182,0.12480149,-0.425870518,-0.121871227,0.355967755,0.231617385,-0.005008232,-0.005249383,-0.416718396,-0.327768833,0.464790874
2/7/2012,0.155664275,0.014878917,-0.426388132,0.476001034,-0.131390834,0.429229412,-0.140923998,-0.039082698,0.001727765,-0.081255446,0.000888404,-0.093793956,0.451889136,-0.466506652,-0.080787366,-0.139521667,-0.498144208,-0.391240283,0.310604901,0.074281749,-0.469649097,-0.175742867,0.088871047,-0.016310337,0.457234155,0.289175395,0.009878606,0.213868685,-0.134295968,0.224720531,0.104390183,-0.359906994,-0.416067626,0.184288177,0.067692042,-0.242424576,0.345009527,-0.197204992,-0.131035585,0.302417162,0.128047517,-0.209979409,-0.224328101,0.230731353,-0.22709264,0.294153021,-0.268270382,-0.17734053,0.183751444,0.413123528,0.095559878,0.129222469
2/8/2012,0.484164851,0.022746807,0.225337365,-0.009498181,-0.372493325,0.408594939,0.220686434,0.15635945,-0.133197336,0.135019759,-0.252970873,0.095340783,0.045176125,-0.253645408,0.469536858,-0.277678424,-0.102457487,-0.42582289,-0.404672165,-0.444314704,-0.259069104,-0.366941525,0.043239369,-0.110752726,-0.40067545,-0.227715206,0.196009952,-0.068077451,-0.2632068,0.483816976,0.423833902,0.289847637,0.183383629,0.161691934,0.135882985,-0.076399397,0.203756304,-0.100262884,-0.438096601,-0.152291601,-0.198684513,0.057373116,0.029784086,0.33730491,-0.357133353,0.180125076,0.220125359,-0.160864501,0.06764902,0.417954904,-0.490328916,0.061908189
2/9/2012,-0.18241188,-0.499775247,0.149402519,-0.086986417,0.1960033,0.026242965,0.049095987,-0.439986283,0.058309873,-0.389239478,-0.294767104,-0.031251575,0.481471407,-0.467475871,0.450762889,-0.428719515,0.281040056,0.295197071,-0.452522228,0.132492778,0.198048983,-0.233018214,0.094854899,-0.178357225,0.286729082,0.316976852,-0.402467111,-0.296288336,0.089347802,0.207252109,0.18352651,0.032055552,0.47291836,-0.384886472,0.465336793,-0.419114979,-0.49015379,0.345597425,-0.4059042,0.330860924,0.134220632,-0.365595985,-0.052959569,0.118827135,0.225545873,-0.352100586,-0.134616839,0.355693572,-0.486624364,0.128167876,-0.403603951,0.050115129
2/10/2012,0.160897083,0.105151755,0.227845452,0.000162837,-0.074459003,-0.01105838,-0.321780428,-0.084848383,0.356925675,-0.273783257,0.018560479,-0.184770541,0.219589603,0.315630683,0.227803726,0.062556486,-0.297579967,-0.09064777,-0.096942873,0.07180061,0.28706227,-0.486229381,-0.050782788,0.312739584,-0.397083178,-0.231906635,0.154379502,-0.216892125,0.147490924,-0.100740584,-0.239325805,-0.086962174,0.462945968,0.27327809,0.06810261,-0.167024928,0.384533977,0.416894964,-0.41282598,0.253389308,0.412413368,0.051079363,0.039584076,-0.120185006,0.038865777,-0.245468463,-0.30066997,-0.211437669,-0.304676325,0.201353305,0.01657483,0.205686153
2/13/2012,-0.051137154,-0.305056972,-0.31774493,0.252933726,-0.272663972,-0.071277004,0.127638393,0.15067945,-0.184829884,-0.125979768,-0.370812212,0.271603623,-0.216056493,0.347446619,-0.001428179,-0.471286639,0.148341368,0.066528471,0.232345651,-0.160910864,-0.272394472,-0.235510668,-0.118396257,0.141046886,0.037751838,0.368582397,0.010344378,0.429844239,-0.026490395,-0.268143269,0.343370512,-0.363788994,-0.416583494,0.28508768,0.378249613,0.128105129,0.472668511,-0.474707779,-0.099284535,0.40392393,0.328252735,-0.384022966,0.387297736,-0.261800186,-0.226563869,0.486056502,-0.173580206,-0.161274633,0.255963287,0.054051518,-0.496202707,-0.342635275
2/14/2012,-0.351087576,-0.11520195,-0.226840708,0.356899736,-0.238927688,0.442651785,0.251201001,0.422847973,-0.279102271,0.175066701,0.138187692,0.205784208,-0.360763011,-0.26351115,-0.154494307,-0.388135285,0.394326949,-0.311525344,0.116180262,-0.408119867,0.299365949,-0.040169664,0.115912442,-0.252574525,-0.09116472,-0.354727655,-0.012118601,-0.042321136,0.105997349,-0.121457795,0.315247877,0.074589516,-0.020738042,-0.016696149,-0.252190323,-0.343539197,-0.256408949,-0.470067401,-0.215046585,-0.497720473,0.308465067,0.254815996,-0.295997544,0.045832385,0.374032732,-0.125416414,-0.253683817,-0.398615798,-0.213306724,0.172503756,-0.118765291,-0.275223046
2/15/2012,-0.117952772,0.145942355,0.265268336,0.334560661,0.124712193,-0.272638387,-0.208013762,0.304574098,0.451614319,0.027729519,0.261131871,0.316633718,-0.385743581,0.136385319,0.14663688,-0.141531025,-0.081926371,-0.231003354,-0.411729774,0.407520711,-0.288977824,-0.046472657,0.287544482,0.262537099,0.420059174,-0.350111235,-0.062262045,0.429225512,-0.44050497,0.318820593,-0.38193624,0.216927608,0.226732113,0.215058834,-0.32665696,-0.491981598,0.324767616,-0.196230835,-0.165596114,-0.13495444,-0.091848949,0.312785037,0.140309275,0.357793072,0.192722466,-0.149218465,0.405782324,-0.142093272,0.305113224,-0.322332425,-0.486546984,0.200817341
2/16/2012,-0.1419613,0.240221714,0.187317833,0.062974229,-0.086667376,0.384527753,0.037617188,0.434609557,-0.497383585,-0.467599962,-0.142365025,0.357861722,-0.318209526,-0.448942694,0.487444795,0.323165959,-0.318645427,-0.287779587,0.303051045,-0.1260278,0.406113954,-0.429596647,-0.169035795,0.294314806,0.096547741,-0.400255917,0.025115945,-0.171646528,0.264033912,0.147355259,-0.41987622,-0.28326331,0.315023372,-0.095986938,-0.34001781,0.398067686,-0.097979546,-0.405626002,-0.160297945,0.322039857,-0.166318557,-0.425721193,-0.436713968,-0.297445286,-0.429061042,0.150816098,0.003577387,-0.307588912,-0.191408831,-0.048659163,0.429648905,0.082182724
2/17/2012,-0.401116365,-0.38148181,-0.023744112,0.246533559,-0.18952541,0.441578427,0.358185532,0.026380045,-0.392258857,0.312059283,0.08111879,-0.448549566,-0.151343941,0.489998863,0.108636622,0.30233189,-0.027905651,0.298602507,0.367176511,0.39329432,0.00076613,0.396020123,-0.497127828,0.205890664,0.198992662,-0.400828538,0.067975778,0.303722287,0.287573605,-0.498993633,-0.242723755,-0.029123156,0.237702212,0.14320175,-0.489787077,0.37411131,0.165243271,0.353131081,0.307718784,-0.419092291,-0.001349794,0.076228079,-0.34900464,-0.070046025,-0.169488138,0.440685998,-0.4936348,0.290503832,0.485546464,-0.221011758,-0.446572944,0.469749671
2/20/2012,0.060652963,-0.039288235,0.059754513,0.338992856,0.07391233,0.031238216,-0.118208429,0.426441886,0.361890155,-0.094355828,-0.420621928,-0.192287381,-0.159016343,-0.130954863,-0.023573262,-0.175163729,0.097915847,-0.188912255,0.191242737,-0.256092345,-0.246487952,0.436523659,0.025646769,0.208302909,-0.20140559,0.213349843,-0.377267105,0.245779576,0.017227837,0.009602202,0.001367041,0.219667945,0.128264025,-0.459587669,-0.223069911,0.053930053,-0.40933421,0.346771783,-0.298216695,0.285697213,-0.045044623,-0.231486134,0.214533404,-0.339553661,0.007113474,-0.003593178,-0.462917616,-0.439429993,-0.276467748,0.388615889,-0.485350783,0.164070727
2/21/2012,0.190765096,-0.422381026,0.421754349,0.494097791,-0.460858321,0.250939191,0.153028302,-0.4992617,-0.018207405,-0.38163659,0.371180223,-0.475365951,0.115288382,0.072486302,0.06088195,0.304617367,-0.02610538,0.36973549,0.391604503,0.48761072,0.261912643,-0.425899309,0.304551026,0.128144637,0.035750756,-0.250411165,-0.119501743,-0.119506744,0.15007781,0.11519837,-0.497098347,-0.342503059,0.21866682,-0.365016745,0.411211158,-0.344359045,-0.320320315,-0.450033244,0.345891765,0.053442563,0.450318392,-0.496283688,0.438480491,-0.146391171,-0.363314831,-0.478896522,0.32785843,-0.025817251,0.246660752,0.01823069,0.374885973,0.113870511
2/22/2012,0.296214731,-0.379612883,-0.255188953,-0.413584273,-0.268658309,0.031475193,-0.004700961,0.310062749,-0.496769455,-0.044479835,0.392504643,-0.216093854,0.240648653,-0.340224731,-0.026963788,-0.228184693,0.129986883,-0.42740581,-0.338311919,-0.327121647,-0.11976292,-0.259679436,-0.386315215,-0.302462247,0.022199001,0.106935208,-0.303371623,0.021275851,-0.093952856,0.090883521,-0.121567754,0.002590575,0.215641926,-0.259720185,0.380451827,-0.321120139,0.139065897,0.148323578,-0.448526324,-0.073986477,0.243906496,-0.017637078,0.036927191,-0.259997032,-0.395071197,-0.195111462,0.494594635,-0.118389572,-0.120792977,0.318536045,0.302387629,0.192589218
2/23/2012,-0.22322203,0.0890847,-0.185410071,-0.056994087,0.405206604,-0.348117844,-0.131417486,0.480858166,-0.048465005,0.181946869,-0.297417505,-0.456853547,-0.472395003,0.003122769,0.448785728,0.444716971,-0.462411352,0.109629028,-0.255109604,-0.413365594,0.13957729,0.451914506,0.209423414,-0.32955717,-0.375579412,0.34086643,0.074410706,0.158241096,0.460473528,0.204275852,0.131323451,-0.158337267,0.262670421,0.337848601,0.029809,-0.045607673,0.415414898,-0.180318641,-0.079479922,0.065042832,-0.371164539,-0.300611242,0.309957622,-0.470079955,0.298660156,0.415268339,0.09033225,0.462473413,0.279514374,0.079609643,0.231521732,0.446189433
2/24/2012,-0.250589509,0.416671471,0.490144516,-0.49068775,-0.351095822,0.063019909,0.304658415,0.184684051,-0.157211657,0.337005685,-0.322155538,0.268277984,-0.027096147,0.068196833,0.130389521,-0.241479049,-0.373653945,0.007380066,0.336270185,-0.127275666,0.368910385,0.417269607,-0.488623587,0.460789649,0.390652626,0.420324356,-0.072730115,0.280859149,0.483803826,-0.278606975,-0.23452294,-0.283487319,0.344588706,0.188907846,-0.394789232,-0.028640566,0.273101965,-0.186619685,-0.014641553,-0.345966248,0.034443385,0.164996551,-0.05436065,0.322046039,-0.330420934,-0.285630006,-0.293604935,0.456436732,0.113126487,0.409092024,-0.268839374,-0.481572202
2/27/2012,-0.015924812,0.378085901,0.341380112,0.204740488,-0.475067014,-0.314241784,0.365038515,0.410464294,0.364892374,-0.367418919,-0.352307865,-0.290162796,-0.223817291,-0.26375957,-0.332940415,0.211195927,0.138291687,0.403995871,-0.375633372,-0.096672204,0.404622801,0.444100032,-0.120714951,0.463528442,-0.475938306,-0.440646043,-0.306353072,0.258997499,0.416421552,0.292054595,-0.383607156,0.448017843,0.080065067,0.228933603,0.274548531,-0.198967992,-0.186141987,-0.470702957,-0.05482364,-0.120111323,-0.165720618,0.425787039,-0.476453222,-0.120027607,0.401618451,-0.077896087,-0.027663186,0.186033244,-0.09069699,0.21806933,-0.311094331,-0.458826865
2/28/2012,-0.089419581,-0.174461718,0.345278795,-0.436788095,-0.323179763,0.412619165,-0.28583188,0.34808366,-0.474794993,-0.105961408,0.494411006,0.017027244,0.302963505,-0.261549664,0.005618952,0.317395796,0.493260012,0.033500074,-0.343743251,0.294518862,-0.259676319,-0.151981861,-0.242397246,0.299007629,0.075127581,0.199820966,-0.250964679,-0.269125062,0.075958042,0.156894095,-0.290240447,-0.072716257,-0.14093824,0.132680063,-0.342690877,0.076384077,0.200721565,0.13175451,0.377723958,-0.338665634,-0.135121961,-0.323803876,-0.385410959,-0.411749903,0.081233995,-0.034376696,0.395653647,0.18874884,0.061272185,-0.398935425,0.162047664,0.487750484
2/29/2012,-0.469441777,-0.338251789,-0.0182536,-0.35095838,-0.209705464,-0.47454484,-0.331884547,-0.010163804,0.174845253,0.012306664,-0.377096504,-0.096143077,-0.037361934,-0.310335651,0.123476838,-0.124632682,0.346650574,0.427923595,0.185765955,0.163535968,0.105110066,-0.332470232,-0.01369987,-0.227479273,-0.320908063,0.383301333,-0.065064599,0.220493222,-0.0407958,0.417274148,-0.037245279,0.163157283,-0.015340276,0.105966907,0.307340708,0.25300878,0.342813667,0.001178952,0.363765144,-0.158162067,0.192982095,0.097067119,0.138717415,0.454959637,-0.44981427,0.339954499,-0.042160633,-0.115024037,0.292114432,0.102061131,0.211832879,0.375468222
3/1/2012,0.420020715,0.474306177,0.170886633,-0.48222789,-0.079992212,-0.395650507,0.32782654,0.023962488,0.064978178,-0.309458322,0.015231847,-0.420888205,0.137632244,0.074943154,0.44843688,-0.215969217,-0.050424577,-0.153723198,0.18794594,-0.10747554,-0.222857443,-0.474769745,0.494680633,-0.136123506,-0.468357648,0.002836704,0.194759656,-0.350901326,0.271584657,-0.228804989,0.003120394,0.380750619,0.244144718,-0.420207637,-0.182755467,0.144368334,0.085327565,0.252175162,-0.011196778,-0.107487784,-0.459500252,-0.267275832,-0.415969341,-0.407551237,-0.159180014,0.092695138,-0.352239235,0.03159588,0.094645127,0.110421964,-0.134406508,0.242219956
3/2/2012,-0.432100027,0.255801955,0.257222363,0.060163291,-0.261804253,0.339461881,0.210546885,-0.054420761,0.384960009,-0.114829396,0.129470903,0.332093484,-0.315679998,0.423951604,0.076039868,0.40263253,0.191257823,0.207601307,-0.005542169,0.472659385,-0.301498327,0.291375628,0.01262205,0.199150097,0.470941489,0.418661,-0.229248153,0.079372157,0.313738249,-0.024815616,-0.037950262,0.277765979,0.253342933,0.264081567,0.140186948,0.105615879,-0.080224843,0.472785307,-0.380902198,-0.433006147,-0.328531953,0.03775018,-0.270921126,-0.00094976,0.448066362,-0.192545837,0.034738971,-0.351555992,0.411818489,0.378197196,-0.189407052,-0.325760259
3/5/2012,0.236116216,-0.401351568,0.099324388,-0.065697996,-0.2853079,0.411602661,-0.33643999,0.18047983,0.197780045,0.193209857,-0.269962134,-0.300665636,-0.05069582,-0.093998895,-0.423892798,0.312049012,-0.358127439,-0.009447862,-0.356788607,-0.304447213,0.48874865,-0.460629048,0.476404085,0.300563699,0.214277871,0.219021732,-0.303718755,0.176985855,-0.225130782,-0.061578457,-0.32758489,-0.143238486,-0.252383571,-0.273999422,-0.174070489,0.208627538,0.486087593,-0.343793665,0.300441517,0.253608046,-0.247944921,0.087423453,-0.317917004,0.051426233,0.074502081,-0.32436973,-0.240770976,0.344287017,-0.122408617,0.177254425,-0.243170299,0.487550644
3/6/2012,0.172954117,0.020752652,-0.069160304,0.11688239,0.070941225,0.483523496,-0.480525392,0.16225174,-0.312346043,-0.182284089,0.481991635,0.418810945,-0.244266043,0.213689459,0.039038806,0.230795848,0.257628409,0.255526829,-0.149251898,0.355048219,-0.338432065,0.115243843,-0.22748591,-0.052119071,-0.299109285,-0.023431063,-0.347499187,0.010561161,0.351182888,-0.071183059,0.392485178,-0.483246585,-0.133377709,0.490002949,-0.141355441,-0.452083555,-0.257593922,-0.366562377,-0.153065438,-0.241071875,0.048856712,-0.155387958,-0.289719906,0.239172173,-0.035476676,-0.255783636,-0.254333752,-0.459621676,0.385257024,-0.276804385,0.489307602,-0.262258077
3/7/2012,-0.459409731,0.349907579,-0.35242743,0.141401213,-0.422748477,0.136979174,-0.369453096,0.309470141,-0.352289558,0.381394964,-0.123675907,-0.11818791,-0.326993683,0.441373071,0.148945924,-0.126630852,-0.226228166,0.229275755,-0.366371811,-0.288824727,0.08543137,0.383837051,0.361188366,-0.442502797,-0.258923241,-0.377318415,-0.213559893,-0.446060575,-0.475107636,-0.148000102,0.392363981,0.038894847,0.278250947,-0.374428856,0.435330121,0.186499162,0.025541585,0.104573419,-0.084107458,-0.487269359,0.343055524,0.491183476,0.434812116,-0.472575532,0.296368925,0.203790703,0.127052248,0.124091014,0.21690359,-0.233745493,-0.39286441,-0.450393394
3/8/2012,0.490133251,-0.4725677,-0.254099015,-0.252763084,0.120037207,-0.007105414,0.418092533,-0.020566123,0.058478187,0.464280479,-0.384085976,-0.284082704,0.073059989,0.048561966,0.002566321,-0.372779425,-0.08346542,-0.011657104,-0.331677337,-0.413107845,-0.009217266,-0.426286024,-0.123250506,0.490198162,0.414835461,-0.01372445,0.134115964,-0.185095237,-0.48515137,-0.207034101,0.264393645,-0.070386264,0.331387206,0.122871894,0.4861202,-0.184446691,-0.365324115,-0.414021274,-0.460409442,0.058207272,-0.037955005,-0.160818433,0.382924661,-0.202155598,-0.057967709,0.221885599,-0.068091302,0.072602093,0.263358304,0.326490081,0.267755578,0.400095843
3/9/2012,-0.148294549,0.312118445,0.124045295,-0.227755481,-0.358447009,0.443972365,0.388155469,0.360543017,0.124814548,0.091351234,0.452083449,-0.165833705,-0.460312187,0.238346041,0.292731013,-0.197069951,0.02821561,0.028264837,0.199250427,0.299981754,-0.332917705,-0.406637626,0.305881323,-0.463132314,-0.022526306,-0.310158902,0.204241722,-0.461063214,-0.179508557,0.222640196,0.269174233,-0.158959755,-0.490327283,0.469573203,0.447423874,-0.024598759,0.305867371,0.12145655,-0.392319967,-0.353838326,0.186923727,0.116212699,0.167968819,-0.270593725,-0.480970005,0.18329258,0.068084943,-0.225462795,-0.446629357,-0.194254297,-0.272500148,0.040710765
3/12/2012,0.391950355,0.125485635,0.034054957,-0.204313071,-0.15504265,0.240246669,-0.434119062,0.024999777,0.05565851,0.110165527,0.164569106,0.316147862,-0.274291173,0.385521342,-0.005513321,0.292889091,0.354047071,0.235824663,0.264715493,-0.364457739,-0.3604253,-0.149822698,-0.18767351,-0.356118837,0.011534709,-0.05398836,-0.32884309,0.041711329,0.161862037,-0.397922508,0.292317399,-0.288192993,0.167879874,-0.401045663,-0.356712344,0.004004765,0.491834704,0.282745655,0.37941653,0.349020767,-0.196811735,-0.309856964,0.013849021,-0.473001394,-0.082455378,0.374412392,0.062210509,-0.233038045,0.408377626,0.172410503,-0.153287432,0.378984482
3/13/2012,0.315183873,-0.31297252,0.367032775,-0.370204531,0.003327828,-0.178792507,-0.391094544,0.488661612,-0.45013411,0.416996034,0.269698383,-0.160331529,0.113833023,0.432546685,0.383087442,0.461680175,-0.377984773,0.438167401,-0.452022741,-0.091859343,0.433699234,0.118634219,-0.49812679,-0.234450582,0.393350806,-0.048738721,-0.034521946,-0.276672229,0.396307459,-0.158874101,0.11931207,0.443468872,-0.126384862,-0.239805645,-0.119603693,0.211969771,0.387744947,0.458181914,-0.437380541,-0.103215094,0.434709892,-0.130991299,-0.477744553,0.157507413,-0.472373776,-0.402488154,-0.135225959,-0.338600182,0.13801141,-0.11044175,-0.151677306,0.131709349
3/14/2012,0.323147318,-0.30205397,-0.47215532,-0.344939143,-0.372045681,-0.41361792,0.454076622,0.338401934,-0.023028326,0.463196205,0.363423975,-0.498569954,-0.396292634,-0.317175315,0.395532155,0.334144967,-0.486745212,-0.473746637,-0.13180422,-0.055559721,-0.138135328,-0.011109237,-0.35881728,-0.074189847,-0.248242917,-0.332974193,-0.308620721,0.344543154,-0.194387885,0.137096177,0.209646493,-0.330789509,-0.371955064,0.364511518,-0.29541191,-0.164726752,-0.252591743,-0.389864728,0.011089867,-0.160119276,-0.258681227,-0.154869943,0.229718393,-0.279594646,0.401277213,-0.387688995,-0.241705472,-0.419170407,-0.064433213,-0.407756782,-0.495755685,0.122176393
3/15/2012,-0.149954458,0.285345817,-0.351955198,0.089117222,0.289471761,0.119104718,0.182897104,-0.258258847,0.372021676,0.113150984,0.491799884,0.061854261,-0.010933631,0.168201696,-0.10926906,0.229165715,-0.008566974,9.02E-05,-0.477353514,0.065301519,-0.494373858,0.306454198,0.210994738,0.434103385,-0.33211176,0.23323488,-0.339499872,0.434265869,-0.480316497,0.173361849,-0.097104849,0.077280105,0.167381654,-0.291864821,0.033203818,0.216517801,0.187593642,0.065634934,0.200669665,-0.424618451,0.085723774,0.425153619,-0.389750906,-0.305719231,0.441330992,-0.065464328,0.45632985,0.467403432,-0.115870181,0.195204165,-0.360846783,0.103367485
3/16/2012,-0.211279916,0.288779271,-0.050349716,0.060854536,-0.485862249,0.167404237,-0.02568255,-0.298829628,-0.216461638,0.033677436,0.104337589,-0.405921754,0.3841097,-0.206193633,0.067883215,-0.142074881,0.257366247,-0.014443493,0.05245282,0.015261654,0.458331392,-0.320152174,0.482423881,-0.072097183,-0.40234878,-0.257583348,0.253810043,-0.383506877,0.35221345,0.069564788,0.24864098,-0.211154772,0.106299119,0.049344841,-0.06697521,-0.233234476,-0.450834962,0.327589034,0.048983054,-0.010267621,0.099047208,0.340734416,0.412648399,0.461090977,0.453818251,0.423782515,-0.292529406,-0.380443149,0.442280487,0.473770109,-0.378075633,-0.16853661
3/19/2012,-0.225984729,0.013913261,-0.177280347,-0.039665573,-0.076923356,0.468434151,-0.076508777,0.199619622,0.287526973,0.36099953,-0.477067535,0.424623082,-0.085616533,-0.047362475,0.316217031,0.43129215,0.486332497,0.274178537,-0.247668667,0.210675294,-0.002165243,-0.352906161,-0.312440683,0.350004476,0.407640599,0.470549526,0.354076022,-0.125491804,-0.404563635,-0.20683845,-0.037639792,0.269640897,0.187698309,0.009614931,0.063512819,0.115867137,0.276513794,0.307799217,-0.223683288,0.05843387,-0.132246091,0.26729895,0.237344274,-0.036183185,-0.110215187,-0.166347789,0.48835671,0.215404466,-0.295870996,0.23953363,-0.198525295,0.053038379
3/20/2012,0.105695887,0.133793205,-0.221801684,-0.458899528,0.499463527,0.245543237,-0.179334749,-0.259734651,0.043350892,-0.352737642,0.423225396,0.228651849,-0.321023513,-0.280886812,0.201895396,0.357280768,-0.047206464,0.070516022,0.231115868,-0.207868376,0.003713672,0.256446738,0.28849377,-0.413035408,-0.140548025,-0.439099387,-0.314211162,-0.127300831,0.190984193,0.491043353,-0.373927612,-0.091239855,-0.071278561,0.422669052,-0.100235472,-0.496743347,-0.260560433,0.193069795,0.46213185,0.236708794,-0.235154556,0.481338391,0.324766377,-0.111696271,0.159853337,-0.255756078,0.276980562,-0.220575909,0.144692375,0.423170414,0.055941757,-0.372970246
3/21/2012,-0.426852748,-0.469022148,0.160715749,-0.341646959,0.096531214,0.064861043,-0.396848903,-0.034446453,0.364768262,0.161415668,0.102932458,-0.374814199,-0.408733097,-0.458121049,0.418794924,0.324877656,0.408944776,-0.008657359,-0.457689525,0.428362899,-0.46730984,-0.214388056,-0.235762556,0.460520625,0.492464976,0.271886168,0.431235808,0.056056225,-0.048505761,-0.426705974,0.251589264,-0.433569394,-0.38805978,0.27026044,-0.153859435,-0.084401785,0.383973789,0.37404135,-0.459567523,0.355986028,-0.466659892,0.235123528,-0.429136506,-0.21614377,0.181715829,0.274463449,-0.133165027,-0.361937612,0.181334038,0.139086926,0.402596877,-0.158134578
3/22/2012,-0.329481402,-0.429287637,0.174595081,-0.259902851,-0.498001692,0.091382338,-0.298906677,0.017920048,-0.106677749,-0.445251215,-0.004542257,-0.334249584,0.140170319,0.232078225,0.412347244,-0.112457674,0.408781106,-0.256845852,0.360839695,-0.18785005,-0.172298175,0.30655398,0.497020527,0.24476918,0.320559465,-0.247886715,0.493974568,-0.330443003,-0.048173743,0.14845592,0.219824661,-0.474772595,-0.220038023,0.171695905,-0.151884666,0.496827164,0.004485675,0.400442569,0.178838163,-0.437590021,-0.298401519,-0.124603128,0.457461084,0.255881414,-0.319101247,-0.350561944,-0.076564416,-0.007713775,-0.396138494,0.187530829,-0.035252273,-0.119253812
3/23/2012,-0.042436109,0.120900263,0.253658497,0.049422666,0.013432375,0.073719446,-0.319879991,0.106121205,0.340722197,-0.461009658,0.3092892,-0.361210481,-0.269300097,0.30171416,-0.472115906,0.47001307,0.19414843,-0.235445225,-0.182223952,-0.394823804,-0.455389996,-0.075950265,0.373417456,0.483783152,0.050057423,-0.213177968,0.358360098,-0.070484964,0.478851908,-0.299008238,0.340865062,0.26674028,-0.453728114,0.01739859,-0.238705901,0.177250578,-0.341594914,-0.35240512,-0.095328295,0.493807682,-0.396455038,0.352581025,-0.18293925,0.044177895,-0.298792109,0.477634759,0.173094189,0.270819686,0.420636701,-0.423805302,-0.251558324,-0.146191466
3/26/2012,-0.021791647,0.100226002,-0.015723122,0.15817036,-0.261557679,0.451368638,0.012171241,0.197043102,-0.275840011,0.031370914,-0.415070494,-0.30703943,0.214098347,-0.108598863,0.35325649,0.494962342,0.111910543,-0.113208737,0.284870831,0.282473247,-0.389316378,-0.450748543,-0.083828042,-0.035615143,0.471046283,-0.368756508,-0.360466517,-0.132389516,0.06510937,0.05851435,-0.432310187,0.251501832,0.339103204,-0.088759027,0.109548916,-0.340083045,-0.195775216,-0.393685975,-0.228991262,0.162317911,-0.210387689,0.244736389,0.197564225,-0.053330777,0.219144626,0.188688893,-0.3194646,-0.205041779,-0.487382419,-0.446484466,-0.123242496,0.310059701
3/27/2012,0.45173214,0.259102516,0.395208662,0.257897151,-0.306361081,0.359877161,-0.200180964,-0.407142662,-0.180324448,0.346007118,-0.094546412,0.332084624,0.043866729,0.172600656,0.123582004,0.256311577,-0.406756042,-0.183726015,-0.258594212,0.417942731,-0.359246138,-0.090090884,-0.055979212,-0.322938564,0.347068054,0.274072638,-0.234806595,0.229893501,0.381205142,0.166300342,0.018600747,0.356898997,-0.104838605,-0.358724754,-0.244107469,0.421588796,-0.426152864,-0.352558801,0.113113758,-0.307423105,-0.039351556,-0.091087261,0.23445171,-0.181209898,0.090627067,-0.128763537,0.085661107,0.299644529,0.36748922,-0.130168559,0.457319869,0.016429455
3/28/2012,0.206900299,-0.216918085,0.408209176,0.372591313,0.184288998,0.386402621,-0.339449132,-0.051174612,0.400502215,-0.204664879,-0.468506847,-0.011329315,-0.007700022,-0.411434386,-0.357196143,-0.052398757,-0.042600264,0.007478471,0.060846837,0.345606495,-0.011153914,-0.043665102,0.010091125,0.276157159,-0.464460346,0.009826302,0.061474079,-0.246942463,-0.494366639,0.225955372,0.254081905,-0.236508754,0.091857307,0.341281132,0.084062956,-0.119132344,-0.447524439,0.10497809,0.034065141,0.222098602,-0.387804572,0.291061863,-0.102619108,-0.113274297,0.052087043,-0.186602673,0.064041253,-0.278232198,-0.44570023,0.010807676,0.439564783,0.147539583
3/29/2012,-0.075442955,0.473409393,-0.318670503,0.250795301,-0.102121241,0.34415312,0.058052182,-0.430990427,0.321914198,-0.467949777,0.410627931,-0.105142284,-0.053466811,-0.224700465,0.380022433,0.311734382,0.064394997,-0.391371672,0.136118072,0.13088177,0.303577688,0.002639089,0.038668466,0.488624909,0.46260458,0.109148761,-0.169232021,0.248548445,0.456070398,0.425020655,0.026887088,-0.08247647,0.123724295,-0.361858115,-0.071823778,-0.354178577,0.199314521,-0.182397109,-0.418064726,0.328355013,-0.339095866,0.141107779,-0.394013774,-0.159203747,0.463511814,-0.111292691,0.262339621,0.138892849,-0.077862136,-0.182280552,0.07968215,0.206817826
3/30/2012,0.349574747,0.224817165,0.269171705,0.058878347,-0.106920936,0.113777542,-0.048293874,-0.002549153,-0.076928045,-0.270528836,-0.135663795,-0.157261821,-0.190577945,-0.061840008,0.428143993,0.097091303,0.407176878,0.01538032,-0.333502823,0.234194285,0.275597389,0.045874497,-0.245271781,0.429013316,0.174002741,0.167566588,0.221180178,0.110482787,-0.383505166,-0.480374376,0.108689999,-0.167717249,0.375103488,-0.119246854,-0.418245117,-0.220255776,-0.383289763,0.109119997,-0.32534055,-0.24697148,0.295546935,0.058301553,0.034720936,-0.255209849,0.089633827,-0.299983703,0.129027214,-0.171101559,-0.211064356,-0.257696582,-0.189764359,-0.406424977
4/2/2012,0.276956202,-0.267950961,0.303591973,0.046464771,-0.347256166,0.422014839,-0.058273749,0.346357611,-0.297833461,0.138230164,-0.031824287,0.355426587,-0.49760116,0.129602589,0.303044794,-0.389938164,0.194301788,0.330204759,-0.325314364,0.487254747,-0.345228154,0.499363863,0.171221894,0.015141059,0.49131796,-0.154652256,0.383967656,-0.131831925,0.280947101,0.121358823,-0.26110129,0.333178456,-0.202390883,-0.224362642,-0.173532992,-0.316796383,-0.019196891,0.355846645,-0.036274226,-0.328394412,0.172728263,-0.448436293,0.044027961,-0.212528071,0.435799183,0.180432844,-0.203109114,0.175126257,0.098345501,0.136767961,-0.021547196,-0.101309168
4/3/2012,-0.148093164,0.021899832,-0.229747636,0.236153833,0.25751138,-0.328464999,-0.037307911,-0.421767728,0.303482692,0.298363361,0.28206725,0.081636597,0.365597069,-0.449293054,-0.467032795,0.119844237,-0.231000581,0.426524377,-0.245639527,0.045640278,-0.453402524,-0.391352905,-0.178016017,-0.38700426,0.01304091,-0.350254296,0.154197305,0.261237045,0.388340744,-0.468628838,0.23256956,0.492673709,-0.48612028,-0.141112824,0.06023031,0.440600999,-0.030452724,-0.122323135,-0.01071281,0.385117904,-0.032304161,-0.423393898,-0.310245284,0.207714273,-0.287741181,-0.217157017,0.042866802,0.334160297,0.178583,0.362040489,0.494236146,0.14634715
4/4/2012,0.036922839,-0.3086671,-0.380619582,0.117671189,0.398725401,0.111407383,-0.225549346,-0.412045301,0.250046231,0.487117416,0.184632357,0.312283467,0.064349922,-0.251408873,0.183764133,-0.322707842,0.240814861,-0.17360895,0.387954853,-0.299030232,0.311725829,-0.032975722,-0.02600642,0.455012892,-0.08526995,0.494722022,0.057416724,-0.102720885,-0.050951013,-0.487652822,0.490362807,0.276713369,-0.119730457,0.176242089,0.108475017,0.347922373,-0.169792725,-0.1775054,0.095130365,0.040542819,0.255934372,-0.026546642,0.33452877,-0.086530077,-0.436683384,0.210222727,0.448949266,0.004357531,-0.304088874,0.039210669,0.178605878,0.110981821
4/5/2012,0.064647427,-0.045814106,-0.020172511,0.236304244,0.345056526,-0.499746331,0.014238809,0.008610085,-0.018745072,0.329347818,0.416757639,-0.305439287,0.028374059,-0.03132523,-0.314937467,0.300699912,0.108523786,-0.368779417,-0.303381027,-0.404327379,-0.039517748,0.186125917,0.262320827,0.030673237,-0.146101341,0.245334585,-0.331031537,-0.267702901,-0.041445695,0.061157964,0.104319459,-0.383545958,-0.326518727,-0.447404805,0.336004505,0.309932547,-0.275337282,-0.110701669,0.330604147,0.490103139,0.321861148,-0.446068185,-0.349559365,0.319944183,0.249870772,0.483606124,-0.231399888,0.361943737,-0.182971138,-0.489019123,0.045735012,0.299526374
4/6/2012,-0.367546589,-0.170549743,-0.029273102,-0.283485489,-0.057401122,-0.456823026,-0.119490438,-0.288004866,0.443029891,-0.038219994,0.259414434,-0.228108381,0.304807719,-0.270907241,0.014041471,-0.47979933,0.109508529,0.155938252,-0.191942424,-0.098572838,-0.314201096,-0.45627967,0.128684156,-0.244603461,-0.115573416,-0.33854221,-0.127150029,-0.383088902,0.185111226,0.491371213,0.291428027,-0.163453411,0.404391527,0.1886849,0.41988987,0.345945135,-0.279612241,-0.475186139,0.331160079,-0.135250789,-0.27363891,-0.244662165,0.115190119,-0.299911802,0.089336091,0.223420863,0.421509381,-0.01301574,-0.372249336,0.347035334,0.335553139,0.429481886
4/9/2012,-0.096523732,0.472835478,-0.378029806,0.31530655,-0.193551057,0.219564153,-0.392775247,-0.159329939,-0.127738097,0.09030368,0.178617091,0.496986086,-0.001503897,-0.093216605,0.278483941,-0.175224346,-0.085494931,0.031866117,-0.297479482,0.02271962,-0.314844456,0.481153601,0.446710726,-0.466662234,0.398254447,-0.269321322,-0.153324923,0.326900717,0.006573941,0.269794297,-0.406242537,0.039888849,-0.495188487,0.117309393,-0.169975699,0.028040009,0.078966786,0.29057906,-0.109712332,-0.36062902,-0.15830449,-0.318134541,-0.173819238,-0.367676505,0.400453943,0.325584661,-0.356492993,-0.412959713,-0.004133374,-0.236316408,-0.488363987,0.495287195
4/10/2012,-0.171129182,-0.157255228,0.345669819,-0.143023925,-0.458131739,0.382321982,0.478785595,0.081400434,0.067493206,0.133114459,0.178686353,-0.456351776,0.023842043,-0.112939841,0.454156193,0.148644007,-0.13895156,-0.150830001,0.306401803,0.017913669,-0.081655556,0.359841366,-0.250965701,0.316240309,0.276641639,-0.444892005,-0.024018087,0.093879954,0.449436395,0.485981364,0.27199179,0.097885996,0.165484461,0.00192154,0.489897475,-0.438874395,0.425967402,0.392545877,0.116710141,-0.285412839,0.341539805,0.284544095,-0.40845182,-0.320105031,0.347003618,-0.427446934,0.423418716,0.283921055,0.194215691,0.294832664,0.162316328,-0.383127866
4/11/2012,-0.272699075,0.079671593,-0.273145122,0.428353055,0.3751815,-0.289938013,0.271532315,0.231113909,0.229218135,0.047953101,-0.20456768,-0.383676033,0.081150462,0.081036142,-0.017747102,-0.078338523,0.058107937,-0.146519498,-0.426070534,-0.184948014,-0.271274331,0.375729522,0.160134912,0.061837997,0.109905034,-0.064499355,0.096246949,0.245320492,-0.0208266,0.42831739,-0.015096185,-0.083619924,0.391602575,0.102644675,-0.343768587,-0.134374457,0.480630458,0.204744468,0.25142074,0.075003297,-0.242675874,0.392441708,0.256133076,-0.348734082,0.024860823,0.142227805,0.2404056,-0.174923358,0.315871233,0.250416892,-0.178368474,0.474409765
4/12/2012,-0.248129658,-0.307338074,0.119861256,-0.059496228,0.216641938,-0.173419511,-0.104047049,0.313816842,0.184827383,0.1746075,-0.27182738,0.342769641,-0.025680605,-0.186084197,0.082281496,-0.365191036,0.122037283,0.043843116,0.091185942,0.38893284,-0.321664127,-0.482446085,0.324208519,0.365005548,-0.47161077,-0.423494735,0.282829417,0.456942321,0.269408601,0.081170338,0.024697772,0.485377789,0.380709787,0.159258085,-0.405034152,0.353155842,-0.130147221,-0.27302498,0.343485839,0.258927353,0.147879289,0.215131827,-0.154103096,-0.165171669,0.262727428,0.291652132,0.329938823,-0.050866536,0.063167496,0.095143113,-0.327024157,-0.324966607
4/13/2012,0.379276381,0.087528391,-0.008663071,0.109799639,0.034647856,0.354403101,-0.269014213,-0.018646528,0.143476003,0.191379349,0.347931597,-0.487611342,0.286815552,-0.28341938,0.012503528,-0.47807371,0.473128423,0.011743907,0.099806834,-0.347044534,0.38007529,-0.216908142,-0.396842033,0.403570823,0.081798723,0.380592067,-0.44716053,-0.114364464,-0.083612507,0.193001702,0.269009597,0.497318897,-0.477267272,-0.247695336,0.367962221,-0.467082639,0.212279924,0.341274921,-0.394546509,0.074337919,0.37219011,0.304636346,0.133284348,0.02506461,-0.499928848,-0.106005396,-0.155642931,0.293126629,0.4871502,-0.234003284,-0.279601921,0.039670954
4/16/2012,0.380900162,-0.238224617,-0.114345728,0.115888943,-0.157768534,-0.437151859,0.405010242,-0.118942182,-0.45996168,0.132316648,-0.047320923,-0.437263275,-0.061816319,-0.207147438,-0.090613048,-0.338928032,-0.437724616,0.076998439,0.36193745,-0.375761059,-0.184403509,0.420968867,-0.239752884,-0.480194813,-0.331024035,-0.478484927,-0.218288507,0.371871732,-0.233790816,0.385506588,-0.197082735,0.155593496,-0.175683685,0.062814006,0.479432383,0.123014314,-0.074610627,-0.05965808,-0.17291906,-0.422211888,-0.465067898,-0.253373585,0.227708868,-0.139584187,0.359329035,0.033452502,0.178042196,0.16812375,-0.334614659,0.080889984,-0.131410483,0.341134718
4/17/2012,-0.464468445,0.287009619,-0.093017771,-0.192783421,-0.252247394,-0.496928842,0.142652697,-0.339986554,-0.054194086,-0.173589921,0.493620594,-0.475446353,-0.397836101,0.140442557,-0.131585766,0.092243684,-0.449488813,-0.411393728,0.326889221,0.333719499,0.418839499,0.438005592,-0.318271104,0.161221476,-0.218142581,0.142803977,0.284636539,0.236530786,0.025038435,-0.012330744,-0.215802113,0.327391362,0.070160343,0.219497776,0.485947348,-0.151321392,0.078519159,-0.376338299,-0.265337307,-0.260505453,0.146423672,-0.24471342,0.270675079,-0.484710489,-0.43860067,-0.093911631,0.265128284,-0.191429126,-0.036711743,0.182858194,-0.019479824,0.349404714
4/18/2012,-0.130558188,0.435171837,-0.313619229,-0.361597856,0.103291281,0.134366174,-0.386794359,-0.22105614,0.007832807,-0.134854063,-0.097331491,-0.040176384,-0.030934361,0.169939368,-0.317232803,-0.043818177,0.130010408,0.262896373,0.046060572,0.146409201,0.254107802,-0.280594354,-0.349819669,0.101574587,-0.292722716,0.330111531,0.133288761,0.264749192,-0.477559537,0.396160556,-0.301505586,0.174331588,-0.46156493,0.463111826,-0.201644707,0.219887194,0.112037334,0.028006715,0.497156359,0.300180516,-0.113870683,0.017689139,0.460787333,0.290718278,0.463105671,0.066597859,-0.14786537,0.24342064,-0.467070862,-0.373976972,0.006556391,-0.296113862
4/19/2012,-0.087154766,0.192944388,0.336998255,-0.115207499,0.030289193,0.26812597,-0.416525185,-0.410777987,0.220842294,-0.268380118,-0.214397845,0.310177762,-0.223394955,0.310610119,-0.388224789,-0.357244729,-0.119007705,0.475529685,0.037314021,0.224625334,0.439106194,0.432346861,0.005374954,-0.422647174,0.178737819,-0.081022714,0.269297245,-0.160518585,-0.168618555,0.253090143,0.445797379,0.275278927,-0.258368619,-0.031999354,-0.366829981,-0.301173575,-0.034322397,0.192704141,-0.069353079,0.153201967,0.244200911,0.355091746,0.123664418,0.021470312,-0.167662659,0.173189142,-0.213442639,0.32911847,-0.083584986,0.325889005,0.233730346,0.172659784
4/20/2012,0.426868633,0.377210212,-0.022243081,-0.314268635,0.172094903,0.321171223,0.351971571,0.25171783,0.188027964,-0.233347426,-0.091326266,-0.296635308,0.390000376,0.484715455,0.310424629,0.003683952,0.285731533,0.265641986,-0.361669128,-0.338079428,-0.026628718,0.268559487,-0.229281556,0.34282757,0.327681259,0.051005733,-0.434219517,-0.472181595,-0.434208482,-0.031066338,0.105021224,-0.155069181,0.429000691,0.158274507,0.381751212,-0.153311691,-0.308012951,0.48973849,0.415719108,-0.424844854,-0.045019411,-0.39423613,0.041635845,0.060691825,-0.007879988,-0.043281278,0.102711622,-0.202243379,0.139972406,-0.029541384,-0.408884859,-0.092572554
4/23/2012,0.020721254,-0.297900377,0.089605622,-0.394300551,0.002196777,0.062751074,0.014990177,-0.049361935,0.252073694,0.290089959,-0.363411544,0.187897901,0.471414071,-0.206980428,0.149034355,-0.175337826,0.381991604,0.46122996,0.429066434,0.474904698,-0.086363204,-0.392781698,0.064623396,0.234158159,0.309119957,0.061547399,0.447877929,0.030976937,-0.281537764,0.450811396,0.159259483,-0.476647727,0.213614324,-0.167588336,-0.311262812,-0.402868257,-0.300011568,0.397088585,-0.129454326,0.059243839,-0.085355462,0.353596076,-0.216026251,-0.278629281,-0.330249276,-0.220474201,-0.321759423,-0.186108241,0.248344549,-0.299523379,0.496349649,0.072593604
4/24/2012,0.4725514,-0.458807057,-0.213642627,-0.152728171,0.213266915,0.211217269,-0.290671223,0.013529946,-0.217961294,-0.472448811,-0.451043873,-0.075860627,-0.129364188,-0.010168561,0.463008154,0.345922959,0.252260188,-0.453546854,-0.066411732,-0.224230047,-0.249041168,-0.135425882,0.152289525,0.286892179,0.477487275,0.48172602,0.222536623,-0.180731638,-0.130503746,0.427827293,-0.417768653,-0.341619582,-0.110492763,-0.454976706,0.20762334,-0.083387734,0.201181618,-0.118455774,0.302992579,0.220306682,-0.281995146,-0.208879962,0.189172424,0.194150265,-0.440746872,-0.090088383,0.287022009,-0.352605105,-0.286628938,-0.448402868,0.397371627,-0.03958555
4/25/2012,-0.235357861,-0.350816671,-0.032343278,0.461122187,0.199846673,-0.389929952,-0.281790962,-0.42557833,-0.029400535,-0.030815006,0.153092857,-0.428776259,-0.160634862,-0.354818668,-0.16258117,-0.28818733,-0.490045765,-0.170652575,0.11868631,0.075779568,0.161293049,-0.26423422,0.369150457,-0.151598781,-0.454669193,-0.297384486,-0.087569665,-0.393016521,-0.250716644,0.380113109,-0.205437418,-0.181638304,-0.025416779,0.264857194,0.122417707,0.356226222,0.112464371,0.035982705,0.121023466,0.333603216,0.469549245,-0.49873071,0.082178539,0.173991564,0.056995486,0.301665812,0.071763749,-0.235834623,0.382378081,-0.105624928,0.453937663,-0.434308912
4/26/2012,-0.414886915,-0.013908124,0.041012467,0.169395188,0.026422128,0.055383783,-0.414709002,-0.087178478,-0.132164589,-0.156457213,-0.366317222,0.259274502,0.487086166,-0.061008566,-0.130472763,0.19313376,-0.025201423,-0.374539276,-0.435986195,0.057306517,-0.201578087,0.261315809,0.071858342,-0.421185087,0.464422267,-0.148605388,0.401513182,0.273441635,0.083538459,0.32443851,0.134455055,0.168282267,0.391204071,-0.377038702,-0.124679597,0.161410247,-0.377581794,0.282157399,-0.000789751,-0.297284332,-0.106448989,0.162490639,-0.1022252,-0.241556117,0.274061993,0.39438522,0.094674264,0.186606842,-0.393680524,0.461576763,0.448255953,-0.118199894
4/27/2012,-0.488355686,-0.329344366,-0.388709158,-0.259033365,0.364008132,0.183166703,0.403557643,0.488284109,-0.166554643,0.098662411,0.35022304,0.204235799,-0.456834852,-0.052809161,0.368602056,-0.045794682,0.377794506,0.081780099,-0.092566572,-0.473943403,0.169873106,0.253580135,0.24446001,0.109989885,0.227672527,0.216528489,-0.147261315,0.03302141,0.238570099,-0.413298531,-0.189203403,-0.218422366,0.470779632,-0.299466236,0.320737406,-0.00416647,-0.007906733,0.457694749,0.136933982,-0.416118358,-0.095110048,-0.060203432,0.125726086,-0.033744975,-0.189669606,0.436862292,0.224880463,-0.174110857,0.326057002,0.332781909,0.391196116,0.163412092
4/30/2012,0.26358663,0.044314596,-0.396244753,-0.443166461,0.493816592,-0.154550872,-0.44766406,-0.322041315,0.159847939,-0.27890444,0.126324823,-0.228103095,-0.226967062,-0.190267972,0.139795614,-0.214418732,0.458084411,0.150871346,-0.000786635,-0.157973723,0.179367722,0.253543115,-0.485699747,-0.268534291,-0.224122526,-0.338335033,-0.368054628,0.346332357,-0.052263704,0.336026761,0.404480529,0.392974411,0.172754946,-0.298795635,0.33976188,0.062845008,0.441015256,0.434524346,0.058439051,-0.460696071,-0.414467967,0.360139649,0.315533293,-0.121796187,-0.098772502,0.352182591,0.493362995,-0.234152324,-0.052352472,-0.314112301,0.404891791,-0.111353546
5/1/2012,-0.061234373,0.453573692,-0.149510529,-0.416973403,0.0169671,0.266333734,-0.490518566,0.130541833,0.045878957,-0.286770483,-0.309294634,0.178694805,0.381570592,0.315070694,-0.059753581,0.447013865,-0.115845223,0.260292535,-0.413051412,-0.153228263,0.369678024,-0.37319868,-0.356603506,-0.359667012,-0.051290409,0.444673651,-0.401746836,-0.134524185,0.417745813,0.272542838,0.376568395,0.282257509,0.189254271,0.159213703,-0.478886814,0.219150617,-0.039498784,0.461243971,0.005482697,0.482800003,-0.021444812,-0.323236331,-0.321174421,-0.196819509,-0.016195505,-0.027711045,0.106381131,-0.000896475,0.252710999,-0.487854278,-0.151868719,0.443331281
5/2/2012,-0.158144109,-0.003449473,0.150828545,0.058090019,0.124333977,-0.028875948,-0.051286231,0.309973338,-0.334698842,0.425680528,0.334595494,0.145178377,-0.041371254,-0.359202636,-0.198335849,-0.138479119,-0.400035455,0.087048279,-0.128947338,0.095280831,0.408824318,-0.223885357,0.258861311,-0.117769692,0.144304649,-0.271251002,0.474828403,-0.176822607,0.385962548,0.1569761,0.057159447,-0.400754215,-0.090757676,-0.152890725,-0.46191813,0.1044679,0.351834604,-0.02040171,-0.437729711,0.125340289,0.383953551,-0.422693041,-0.070180558,-0.427410138,-0.062369786,-0.316525483,0.356963359,0.173347966,-0.348342071,0.436281283,0.044449084,-0.484686509
5/3/2012,0.189657312,-0.253555367,-0.499043888,-0.278795058,0.360341889,-0.334483604,-0.316271266,-0.27912537,0.246065181,-0.443524593,-0.030444732,0.108818846,-0.01546801,-0.478677059,-0.245205279,-0.221136901,0.103738266,0.051688236,-0.296242854,0.032611668,0.208372105,-0.393007062,0.29013465,0.297037313,-0.20923866,-0.084648954,0.142878046,-0.081957205,0.161140194,-0.207788489,-0.010147773,0.149729717,0.006227435,0.135617976,-0.031177595,0.039452208,-0.399824873,0.264965636,-0.314892413,-0.421932149,-0.23568068,-0.087996601,0.184498114,0.005747412,-0.103070942,-0.275948961,0.441550475,-0.222774292,0.106350386,-0.296479935,-0.369884388,0.326063446
5/4/2012,0.478010728,-0.415402204,-0.386090049,0.388152506,0.441898916,-0.023900735,0.342017676,-0.414187677,0.481690838,0.049769984,0.080435501,0.493045118,0.317577882,0.102864934,-0.369623737,0.096826696,0.417406261,0.279075902,-0.498468384,0.272573025,0.446411239,0.292560096,-0.211166517,0.211466365,-0.013793015,-0.177188059,0.4418576,-0.079224228,0.385876815,-0.323298326,0.317846723,-0.381793996,0.346950569,0.049942936,0.333715601,0.079129414,-0.154653361,0.110158371,0.287092113,-0.298789193,0.376305387,0.013271256,0.086793161,0.173848457,-0.188796815,0.26389328,0.490184027,0.102789558,0.088342765,-0.450781217,0.465142835,0.268644552
5/7/2012,-0.125769062,0.397589883,0.082666663,0.17597495,0.141002782,-0.035361393,-0.43030404,-0.167547975,0.367502388,-0.384352829,-0.047498647,-0.182118765,0.250456191,-0.422507332,-0.404184107,-0.084988056,-0.441021319,0.426455795,-0.428146982,-0.484667315,0.454672518,0.022176506,0.354698164,-0.075065211,0.275035299,0.296411228,0.240356966,0.006217507,0.184082484,0.419909272,-0.14345915,-0.248613108,-0.157241223,-0.368242658,-0.292699617,-0.39023383,0.197653192,0.173489926,0.251964933,0.479686291,-0.191388968,-0.412518371,0.40908773,0.384353788,-0.004273968,-0.293148422,0.170976833,-0.310108011,0.277072881,0.15589435,0.348545663,0.350560972
5/8/2012,0.19383902,0.320939661,0.243895436,0.177344805,-0.099872101,-0.150055861,0.402305451,-0.05913779,-0.07402289,0.406743813,-0.140575166,-0.058006696,0.305502935,-0.008795603,-0.222929945,-0.097915155,-0.013849521,-0.007512878,0.409854807,-0.468795093,-0.318860294,0.435154679,-0.117148017,-0.270239119,0.358989619,0.178856353,0.392223379,0.072521814,-0.088263365,0.157287822,0.128071405,-0.003527089,-0.395862241,0.369650513,0.263774973,-0.218221811,0.249748262,0.393602102,-0.437928637,0.489073543,0.294217899,0.494369733,-0.213000089,-0.247604162,-0.372467221,-0.183214578,-0.359787821,0.146030622,0.052412274,0.260885946,-0.12088195,-0.388543903
5/9/2012,-0.126647736,-0.240193028,-0.352327181,0.455849989,0.223418654,-0.045693541,0.36506751,0.404614209,-0.469470807,-0.104604951,0.44951342,-0.450784497,0.140289754,0.242615191,-0.352858149,-0.098244865,0.359329462,-0.23675099,-0.271738491,-0.263291859,-0.112455793,-0.299606229,0.076869529,0.165725931,-0.379952,-0.417575769,0.084519779,0.464189248,0.328829126,-0.265236337,-0.385280235,0.312668721,-0.393727299,0.381274673,0.419108437,-0.422854363,0.259399235,-0.132512583,0.146446019,0.17917422,-0.476625094,-0.318094592,0.186708911,-0.108535859,0.160077816,0.067658278,-0.096827895,0.140506972,0.182514464,0.15842821,0.453382511,0.260212488
5/10/2012,-0.163674594,0.178860549,-0.468380228,0.481585977,-0.209088838,0.310742821,-0.390462581,0.18345564,0.475804256,0.037320683,-0.333942932,0.163565599,-0.029275463,-0.287095821,0.377713817,0.395291068,0.245889762,0.360097342,0.227374784,-0.392116207,-0.155190596,-0.245579553,0.136964037,0.301287066,-0.17682285,0.354430096,-0.206214088,-0.343918805,-0.284781147,-0.450165608,0.449703823,0.093410381,0.335360531,-0.272405872,-0.22405186,0.435215636,0.189598503,-0.421561419,0.343213345,0.180431522,0.487537871,-0.233774923,0.264435914,-0.218006928,-0.197843573,0.124633614,-0.441472901,-0.383792941,0.073890268,-0.155878571,0.04172996,-0.426951959
5/11/2012,-0.13858602,0.092495407,-0.039068383,0.104795735,0.438589171,0.227387824,-0.287122337,-0.1432173,0.142039612,-0.451317474,0.3957492,0.272187868,0.055434605,-0.153270296,-0.08800337,-0.488029593,-0.494924913,-0.312869929,0.209133309,-0.347635979,0.409818957,-0.343843227,0.019698496,0.282821867,0.071678268,0.044325611,0.118756911,-0.429123559,0.18880214,0.420037157,-0.00072242,0.17078952,0.14002307,-0.120795258,-0.004356887,0.387196653,0.298365942,0.327166818,-0.438789507,-0.221069679,0.156884399,-0.289237438,0.041113103,0.077571967,0.027769697,0.245276679,0.359736391,-0.031488399,-0.365617721,-0.169804427,-0.034885363,-0.371343752
5/14/2012,0.108540859,0.125806128,-0.025631908,-0.032439631,-0.143925914,-0.097698717,0.264807436,0.048988477,-0.310720456,0.239343408,-0.334998088,0.096819056,-0.077295513,-0.476533212,0.326451166,-0.222334123,-0.334769065,-0.45932106,-0.006555964,0.367736654,0.211229063,-0.217755642,0.196579832,0.358806079,-0.192295513,0.373480576,-0.0387711,-0.133831274,0.17392889,0.18365918,-0.15759642,0.22781771,0.414830937,-0.495083059,-0.105868801,-0.369044101,-0.278735995,-0.237730536,0.290681211,-0.185410159,-0.26553984,0.450153632,-0.14455603,0.30105877,0.340529574,-0.015317762,0.054498996,-0.324962158,-0.45632841,-0.315800101,0.426432296,0.365091544
5/15/2012,0.27750502,-0.439309552,-0.208035811,-0.463935349,0.279284308,-0.051769677,0.052287704,-0.076933519,0.269797369,-0.188808597,0.113330287,0.066613977,0.369536436,-0.423761725,-0.343527487,-0.247747054,-0.19329658,0.163814384,0.353172741,0.039202597,-0.337113998,-0.337437791,0.104888771,0.320877175,-0.296455942,-0.103442354,-0.34126392,0.087445544,0.450947638,0.282868549,-0.049277031,-0.029903346,-0.448542378,-0.205882491,0.358726381,0.241605445,-0.298611362,-0.439682066,-0.368985572,0.294921556,-0.25246227,0.204097806,-0.298527371,-0.469394065,0.451827678,0.04192989,0.224890631,-0.236197655,0.099379448,-0.257708745,-0.206199863,-0.380131009
5/16/2012,-0.372957096,-0.134157897,0.375887337,0.368690441,-0.464563228,0.049483833,0.354044033,-0.168880198,-0.238101806,0.11838735,0.084321044,0.155252498,-0.025959139,0.160850491,0.383124647,-0.364208392,-0.119668563,-0.471177848,0.237799718,-0.253653832,-0.405854099,-0.35704413,-0.453964801,0.088172143,0.421943775,0.088023189,0.311712631,-0.353608849,0.174896552,0.476232404,-0.364803708,0.069922786,0.258046543,0.215506402,0.087887589,0.43293272,0.287327746,-0.323465196,0.47130337,-0.116788346,0.158731311,0.452608215,-0.207421395,-0.464493318,0.108094058,-0.429117583,0.099166557,-0.324564175,0.366067499,-0.346039598,-0.394391297,-0.234912711
5/17/2012,0.121948307,0.369049317,0.250141845,0.431616061,-0.378438888,0.162539618,0.353739346,-0.116690449,-0.473427007,-0.210711415,-0.481063761,-0.321593778,-0.107226157,0.151735437,0.033732923,0.490057084,-0.428148647,0.262380563,-0.353726958,-0.3405693,0.361008088,0.352159508,0.237235941,0.253700283,0.015089943,-0.227524327,-0.418579831,0.331253978,-0.347075756,0.332909482,0.493891497,0.491933232,-0.18636171,-0.480123895,0.240766576,-0.405776754,-0.248210414,0.217727048,-0.122589965,0.441988368,0.379757829,-0.46711059,-0.150921497,-0.094010365,-0.083161935,0.422103922,-0.44061866,0.115359646,0.313891803,0.299012329,0.298104368,-0.437862014
5/18/2012,-0.456267825,0.133380108,0.352545221,-0.073740442,0.48809891,-0.498422007,-0.446366016,-0.026291581,0.133232834,-0.074944929,0.315109381,-0.204395263,0.257239631,-0.265915916,-0.399348863,0.077116861,0.161711945,-0.272969294,-0.133636716,0.154673383,-0.16978575,0.070941216,0.227899919,-0.487822179,0.023455578,-0.346226266,0.434935591,0.448142074,0.496099297,-0.484268104,0.482097652,0.130969445,-0.452931449,-0.285321552,0.347730935,0.442495778,-0.199832657,-0.280165631,0.154224078,-0.238707817,0.266529215,-0.175672491,0.394453437,0.04970801,-0.084521728,0.049169857,0.311987612,-0.267393935,-0.261284253,0.015459693,0.180352582,0.452399806
5/21/2012,-0.486182863,0.150773476,-0.291429897,-0.227138282,-0.31825399,-0.158103959,-0.334737318,-0.393396683,0.202760505,0.036407778,0.358420361,-0.182637062,0.470507024,-0.478507436,0.027319316,-0.101695146,0.490782024,0.029134992,-0.13200973,-0.464481691,-0.267256436,0.417898774,0.043895432,0.456968808,-0.162860724,-0.19420959,0.322593708,0.403370529,-0.498756956,-0.429316519,-0.151960936,-0.427978443,-0.191068636,0.305317885,-0.181595537,0.039735317,-0.153767865,-0.171395427,0.461639844,-0.220665041,-0.363287358,-0.378395684,-0.201873328,-0.230825185,0.175438717,0.315158226,-0.31315135,0.118720845,0.050164577,0.4747676,-0.452298108,0.260274343
5/22/2012,0.096703058,0.114923769,0.203790317,-0.462430843,0.268878981,-0.263328498,-0.132534441,-0.212004854,0.38200969,0.392011073,-0.012339096,-0.457263194,-0.386472945,-0.1583105,-0.399834943,-0.260068749,0.472003086,0.476674149,-0.032483803,0.181895104,0.039976423,0.103256099,0.409993224,0.123662761,0.124806673,0.006859632,0.384125141,0.385793815,-0.019203173,0.433737565,-0.038673701,0.381240103,-0.030403636,0.379816429,-0.137055598,-0.041915801,-0.177031145,0.232294186,-0.235366038,0.321059991,0.254806996,-0.411131472,0.011813685,-0.145381993,-0.368245447,-0.499066563,-0.482678266,-0.432206202,-0.319777688,0.334598065,0.261635173,0.232457343
5/23/2012,-0.262826443,0.242685353,-0.134015407,0.113146307,0.486242027,-0.344277565,0.445973639,0.49863343,-0.234532377,-0.10936045,-0.320400227,0.177408186,-0.157027217,-0.300198839,0.211360156,0.146953984,0.205754863,-0.162104753,0.450273356,0.118785011,-0.345428556,0.032916013,-0.183494778,0.290029247,0.061434975,-0.025768845,0.392449918,-0.491750573,-0.248034992,-0.178970292,-0.403654282,0.36926252,0.008292495,0.460298283,0.26378781,0.113983313,0.275670228,-0.223845305,0.253086736,-0.388557451,0.473999361,0.390224223,-0.155016525,0.445445707,0.032882111,-0.033161862,-0.191074826,0.308208364,0.056227806,-0.046958586,0.178743557,0.45106868
5/24/2012,-0.032285643,0.416542437,0.022721025,-0.202009065,0.090733356,0.327764606,0.052640408,-0.41189902,-0.101185104,0.167187736,0.055221166,-0.391468861,-0.167459572,-0.2666431,-0.361512516,-0.17914281,-0.266274385,0.268522378,0.420196405,-0.321613214,-0.247634677,0.01247086,-0.012189427,0.198891191,-0.217858975,0.049644237,-0.360157968,-0.082812152,0.449268323,-0.352216105,0.281833373,-0.229573111,0.283594083,0.075840562,-0.326255958,-0.320944319,-0.094097737,-0.062861175,-0.376146251,0.490012038,0.297982444,0.053019971,0.136561489,-0.331295065,-0.202099379,0.107838383,-0.351815955,-0.401253203,-0.243963691,-0.290949448,-0.408308546,-0.248200533
5/25/2012,0.243413209,0.215926401,-0.494329732,-0.328874005,0.274976059,0.024318934,0.369168113,-0.479419038,0.035408902,-0.213205919,-0.451443969,-0.000248382,0.454680319,-0.327158858,0.145387436,0.021823191,-0.188912384,-0.239927808,0.330563351,0.13130189,-0.464316573,0.091527677,-0.472239059,-0.08221835,-0.105321892,0.038222927,0.01801536,0.247517766,-0.427906262,0.379212824,-0.27821125,0.34361288,-0.433905073,-0.205185189,0.123170433,-0.260438836,-0.478084632,0.100500459,0.219154897,-0.071169787,0.287608612,0.209303964,0.419849277,-0.363041964,0.352170423,0.257872429,0.101844683,0.083732552,-0.098602322,0.300335956,0.018535391,0.443383992
5/28/2012,-0.480786334,-0.496505958,0.236775776,0.361201552,0.375634986,-0.02280295,-0.151528303,-0.213844833,-0.436011596,0.344590313,0.152441941,-0.332778863,-0.498217207,0.300726508,-0.382240783,-0.236678251,-0.478881647,0.026714147,-0.061085392,-0.340653611,-0.442136769,-0.22308997,-0.38903265,0.371410242,-0.425572025,0.434362492,0.273986732,-0.277324424,0.00582712,-0.469641742,0.235799167,-0.479937999,-0.490118134,0.168264253,-0.315335283,-0.438127746,-0.49342473,0.378630208,0.461353869,-0.254262135,-0.474396568,-0.098560146,0.486581132,0.290933904,0.323634038,-0.289860512,-0.034786958,-0.142019478,0.42449804,0.410915617,-0.34640961,0.068856078
5/29/2012,-0.093930384,-0.304663832,0.40658037,0.045542809,0.104962354,-0.033821129,-0.313941119,0.17766499,0.188686159,0.451284676,0.01513659,0.310268406,-0.137497137,0.470641336,-0.450104081,-0.465613478,-0.294221404,-0.16681502,0.10214053,0.382934939,-0.04527397,-0.115259354,0.433664408,-0.34818649,-0.043183523,-0.182848076,-0.003451114,-0.019839884,0.125112515,-0.313910163,-0.188832146,0.23244155,-0.378674661,-0.209356189,-0.034285871,0.310802252,-0.108642556,0.274020669,0.28617515,-0.349530347,-0.263904249,-0.431051669,-0.465198458,-0.059523727,-0.213473552,-0.255509145,0.271527281,0.051699995,-0.349735201,-0.499382531,-0.052620636,-0.296414463
5/30/2012,-0.104626642,-0.233955731,0.198814664,-0.03579979,0.044178017,0.001743861,-0.070631008,0.266042535,0.270564992,-0.024031346,-0.165730282,-0.008980295,-0.06999729,0.167071223,-0.241625618,-0.198053446,0.157036185,-0.218772006,0.421886032,0.225001061,0.04544201,-0.394257041,-0.029773492,-0.351665504,0.313421739,-0.06951357,-0.054580953,0.080214664,0.296357017,-0.333481422,-0.15820934,-0.37103581,-0.005179157,-0.119607665,0.12753816,0.244615431,-0.273039215,-0.375600545,0.263959822,-0.492355372,0.413648609,-0.187393674,0.397405342,-0.320980183,-0.43050444,0.187810236,0.315342783,0.492873601,0.462156716,-0.017511578,-0.390470732,-0.164174174
5/31/2012,-0.262159131,-0.06011817,-0.112355018,-0.403441865,-0.433256302,-0.29832844,-0.13191658,-0.122061759,-0.132095189,-0.461060417,-0.448785335,-0.038466343,-0.156893733,0.051554426,-0.335428787,0.071430965,-0.233854622,0.349926727,-0.263686727,0.30216309,0.105179992,-0.030879527,-0.281627718,-0.160196545,-0.275404927,-0.499418027,0.185818891,-0.210868964,0.27611561,0.143503115,-0.295253431,-0.47174045,0.223232104,-0.422750035,-0.088019176,0.024946244,0.18158832,-0.113706347,-0.064683448,-0.392812325,0.448600692,0.381452255,-0.424879156,0.376229518,0.34343591,-0.063451816,-0.152574941,-0.266582096,0.241279209,-0.48545891,0.467308675,-0.37187246
6/1/2012,0.391967027,-0.497919402,0.045166799,0.236965771,-0.422185349,-0.069126306,0.439388947,-0.284146559,0.491492814,0.291183733,-0.015941504,0.250408049,0.289206673,-0.37702876,0.158591774,-0.250825458,-0.361597452,0.133961355,-0.084829725,0.000529665,0.314460868,0.31843414,0.349425844,0.104660571,0.42156159,0.01084666,0.334323794,0.452835724,-0.06337047,-0.191409599,0.095533633,0.314981466,-0.240533938,-0.420106726,-0.049961652,0.291909608,0.008523114,-0.074351182,0.269294294,0.046519871,0.083446822,0.132102464,-0.438805153,0.418284151,0.480943232,-0.30271374,0.369869923,-0.140521436,0.227902472,0.461878443,-0.117420289,0.213896654
6/4/2012,0.263300944,-0.031795539,-0.401350107,-0.03218665,0.170084014,0.470251373,-0.164136439,0.265198254,0.398881547,0.341249168,-0.367693779,-0.042282988,0.250125187,0.059680409,-0.433982998,-0.133557057,-0.32099174,-0.079387392,-0.08390658,0.427885754,0.396477075,-0.406179245,0.364290066,-0.330591897,0.248442662,0.491303494,-0.022526353,0.045616865,0.363913994,-0.159437963,-0.222857518,0.14484515,0.069004416,0.277096406,0.157363334,-0.322556564,-0.011617272,0.053365083,-0.396337586,-0.481886281,-0.299803716,-0.220187072,0.26717686,0.052789666,0.428753017,-0.330037602,-0.142638321,0.325608397,0.29385673,-0.325208913,-0.186008061,0.436550603
6/5/2012,-0.359832285,-0.226959051,-0.111075105,0.215910116,0.069529577,0.294188742,0.015284719,0.248585998,-0.360323513,-0.239772452,-0.031402566,-0.174529898,0.313271354,0.105754148,0.205367754,-0.225018115,0.015648142,-0.125937498,-0.459923212,-0.211990557,-0.420174527,-0.478433222,-0.461626036,0.036690325,-0.026195806,-0.354065634,-0.199933246,0.410989836,0.315232687,0.368979532,0.131215037,-0.37330173,0.104803398,-0.156451697,-0.303644786,0.330175452,0.06985621,0.118784992,0.431962792,-0.157900099,-0.376593244,-0.274965673,0.175761717,-0.097299085,-0.267071439,-0.31292206,0.168242208,-0.327855338,-0.468546331,0.288210008,0.230830697,0.355053836
6/6/2012,0.344662138,-0.225011531,0.206627349,0.121866756,0.067381734,0.450374281,-0.318485134,-0.26279781,-0.03546002,0.31232769,0.021278501,0.198479693,-0.367579377,-0.225029163,-0.087719069,0.439303116,0.335430689,-0.097000098,0.443927185,-0.087619247,0.182092185,0.471220909,-0.231541957,-0.298446288,-0.0709474,0.100278033,0.110160034,0.42632529,-0.420312714,-0.075777142,-0.451889602,0.46318328,-0.176647704,0.492264871,-0.292787978,-0.419713143,0.249918366,0.468483707,-0.211571119,-0.307638838,0.318535996,0.155446167,-0.355229974,0.371694109,-0.224991103,-0.112637507,0.38705082,-0.403958838,0.330103783,-0.314999123,-0.12111239,0.461002687
6/7/2012,-0.399255938,-0.253983584,-0.399186241,0.171096157,0.344757369,-0.248595817,-0.289659813,-0.137583712,0.399135307,-0.307586837,0.088962566,-0.106545696,-0.134008949,0.254730056,-0.029366383,-0.375081665,-0.319022472,0.014892661,0.277638454,-0.176107766,-0.414816636,-0.499708251,-0.427031474,-0.157605258,0.058507097,-0.331621362,-0.375280549,0.026620549,-0.01410944,-0.280078275,0.010350613,-0.423742629,-0.337870298,-0.489129947,0.25012701,0.376680517,-0.172476697,0.487807656,-0.444059283,-0.473223661,0.482919482,-0.166024909,0.067702124,0.394993838,0.06839497,0.384829444,0.028583652,0.062689025,0.13979356,-0.049608971,-0.146067181,0.010166416
6/8/2012,0.105598753,-0.362668693,0.245777351,-0.428386085,-0.36688945,-0.116178423,0.315332691,0.38199376,-0.30528501,0.144089541,0.497852255,-0.167254408,-0.341454117,-0.032459606,0.170365518,-0.198828655,0.070902697,-0.113308692,0.166311604,0.379087279,-0.069285551,-0.340362309,-0.314416718,-0.371574536,0.200881427,0.275152401,0.067796822,0.419674424,0.494252935,0.041501655,-0.219620838,-0.168122917,-0.246397127,0.489456285,-0.075198044,-0.456089749,-0.42083141,-0.393806382,-0.422093497,0.065939895,-0.088863405,0.230213327,-0.365908869,0.170126437,0.064139056,-0.087007368,0.115920266,0.319475103,-0.47163992,0.281897695,-0.268726521,-0.271949212
6/11/2012,0.268960656,0.055103912,-0.34367275,0.035499405,0.301433467,0.403004829,0.087188298,-0.369007183,0.282009025,0.482690419,-0.473088874,0.081781489,0.131462525,0.267273972,-0.100700984,0.469096459,0.033859747,0.235048516,-0.440650034,0.109743359,0.443961188,-0.181933959,0.466631393,0.065727641,-0.087147205,-0.485310066,0.221646906,-0.466198959,0.274144157,-0.146533192,0.056470735,-0.225923957,-0.042220422,-0.474929256,0.250291225,-0.161819353,-0.391704949,-0.449647405,-0.095035351,0.06289792,-0.106643632,-0.434416726,0.025054529,0.078756897,-0.095067758,0.369831038,-0.269248827,0.144190923,0.055122563,-0.072540998,0.346998338,0.227858021
6/12/2012,-0.415741344,-0.373334283,0.011181846,0.209791853,0.308450075,0.469533526,-0.023976326,-0.385854694,-0.037089073,0.108167555,-0.103137614,0.163553284,0.191445212,0.365128398,0.18642273,-0.124748525,-0.193062285,0.269682818,-0.432657896,-0.045213532,-0.369150742,0.286200709,-0.157707467,0.168937081,-0.241185258,-0.409162096,0.415696482,0.271671321,0.012182034,-0.414100172,0.176027119,-0.072343202,-0.251991928,-0.076161555,0.309194369,-0.032814602,0.042932593,0.062126628,-0.372302347,-0.352213278,-0.377627461,0.404477752,-0.457441914,0.314125209,-0.081857112,0.205275068,-0.230568604,0.353463575,-0.224485772,-0.267466292,0.416662685,-0.438192801
6/13/2012,-0.147488032,-0.249289713,-0.341501551,0.094504016,0.154246387,0.014166282,-0.155176268,-0.098198134,0.47612307,0.016125164,-0.460282506,-0.248358997,-0.078256997,-0.450014467,-0.446608918,-0.088910533,0.434532454,0.273732305,0.391578507,-0.39522335,-0.142822639,-0.405701319,-0.121196752,0.146401575,0.154738115,-0.471445286,-0.070722709,-0.020675257,-0.350725811,0.277912868,0.149784021,0.393624133,-0.4822744,0.090945397,0.373136339,-0.324826973,-0.142147786,-0.144321256,0.162048708,-0.315055762,0.223399748,0.182803393,-0.215593474,-0.079185615,0.32044533,-0.046662804,0.358956084,-0.464929774,0.279309171,-0.43598699,0.123871109,0.439126639
6/14/2012,-0.386825865,0.130143672,0.464063993,0.385393258,-0.049750684,-0.392110211,0.476794173,0.366148709,-0.490117276,-0.209713331,0.168280923,0.389065823,0.452764421,0.276437242,0.33642781,0.404757895,0.312080648,-0.498786822,0.312820024,-0.358676472,0.313716229,0.113113509,0.222284619,-0.316261711,0.399424337,-0.378694546,0.330466049,0.426117548,0.474049027,-0.490489132,0.218445762,0.206190002,-0.235500307,-0.493414737,-0.406269949,0.438308976,-0.335457748,-0.018032493,0.154951417,-0.457222524,-0.432760994,0.308477029,-0.158740991,0.237362969,-0.290145483,-0.17594855,0.003155909,-0.109069224,-0.421360713,-0.29074312,-0.262563658,0.219402543
6/15/2012,-0.17315322,-0.099956055,0.243403422,0.451175217,-0.089616368,-0.04481601,-0.148735975,-0.011715276,0.09608987,0.418586792,-0.33131596,-0.372176812,0.00179453,-0.196674928,-0.148018165,-0.070302914,-0.260027848,-0.088916019,0.035793275,-0.040989581,-0.466530359,-0.064199142,-0.436705649,-0.197208935,-0.479670851,-0.174483319,0.152649657,0.440831302,0.484532438,-0.194034531,0.195640919,-0.368060195,-0.422660821,0.088958193,-0.167047713,0.131586631,0.152965072,-0.116152953,0.494745916,0.222807074,-0.211881029,-0.327592113,0.16414153,0.217405171,-0.131420778,0.466638062,-0.368692718,0.099266021,0.210848471,0.059269336,0.188561866,-0.443674978
6/18/2012,-0.183333565,0.104037011,0.26231117,0.446857176,0.044935321,-0.394922557,0.04157348,0.279339022,-0.2600553,-0.374661553,-0.383216887,-0.263395903,-0.432398626,0.363856862,0.311799572,-0.482031867,0.190849769,-0.439273041,-0.141595033,0.386017028,-0.168721409,0.325844122,0.38317366,-0.358499421,-0.322362452,-0.067288745,0.285029982,-0.123996022,-0.405136966,-0.499025826,0.185936409,-0.407072712,0.084629769,-0.457374728,0.030046068,-0.302300953,-0.440372548,-0.203814417,0.297911675,-0.100858699,0.254713021,0.19757485,-0.090131038,0.043720577,0.475148654,0.265695868,0.154899821,0.313675879,0.224076169,-0.259928933,-0.330954612,0.277380221
6/19/2012,-0.410827169,-0.296540679,0.134100706,0.218364058,-0.325061058,-0.456329631,-0.464818947,-0.080749506,0.309826808,0.390841592,-0.484174097,-0.050158279,0.277514771,0.330387374,0.448151934,0.121357763,0.068841147,0.35565598,0.350668673,0.378570075,0.292180605,-0.390818118,0.122696255,-0.36889974,-0.196845937,-0.087743742,-0.056211069,-0.003374402,-0.089972767,-0.355805163,-0.131634359,0.023739004,-0.005785791,-0.216011245,0.425199414,0.445746508,0.176255262,-0.467517811,-0.493344623,-0.045039406,0.49763523,-0.330051396,0.009148296,-0.091814448,-0.402477416,-0.052827373,0.252014189,-0.263630636,0.428064942,0.10313362,0.193687645,-0.371178351
6/20/2012,-0.198133169,-0.000872393,-0.398268416,-0.24687873,0.283613786,-0.121516676,-0.243927921,0.284656714,-0.200792644,-0.454514241,-0.427690811,0.220650916,0.476148684,0.085114773,-0.107834084,-0.470943715,-0.132368762,-0.451795164,-0.498091571,0.440812379,-0.215046712,0.462162669,-0.207005731,-0.377596898,0.102129048,-0.266046614,-0.248230086,0.190486018,-0.468758002,-0.34777615,0.140948211,-0.087811046,-0.146663747,0.172351262,-0.340203176,-0.3663337,-0.367121618,-0.255405736,-0.364335436,-0.28848263,-0.375590679,-0.353883715,0.466636052,0.306439458,-0.446231887,0.09869691,-0.467044909,-0.086238346,0.009221764,-0.227240827,-0.163408078,0.436584595
6/21/2012,-0.281592996,-0.140353025,-0.187612894,-0.293771705,-0.35198801,-0.035381964,-0.251424603,-0.401184697,-0.128110219,0.191429908,-0.317934173,0.064472662,0.332924261,-0.102966277,-0.453328452,0.115147804,0.281246054,0.049026978,-0.218706969,-0.371709144,0.414510018,0.173586023,-0.463972609,-0.487689266,-0.036647113,0.326493432,0.430140805,-0.354490375,0.391962856,0.115283108,0.172783181,-0.194078603,0.069844461,-0.234416322,0.315966136,-0.004078581,-0.304900927,0.335639271,-0.318361108,0.464821029,-0.445814871,0.258193305,-0.471068351,-0.263740697,0.248175252,-0.083044837,-0.140234367,-0.224399218,-0.083858046,0.264395628,-0.390103419,-0.083490337
6/22/2012,0.335957089,0.379979159,-0.106508317,0.482592498,-0.051558529,-0.085331668,0.031817682,0.38598619,-0.494296298,-0.097046903,-0.146622403,-0.355534218,-0.108482592,0.177165722,-0.258310984,-0.497561247,0.34385942,0.07087954,0.306279271,-0.177947342,-0.045658858,-0.441225927,-0.368806667,-0.271197168,-0.108095249,0.141403959,0.181793429,-0.145204854,0.49047199,-0.353157957,-0.028908345,0.01510123,-0.179060173,0.004292706,0.483673798,0.357546921,-0.455938436,-0.31192182,0.135167794,0.447544612,0.101243929,0.316041283,0.342528337,0.214314567,0.359595899,-0.212457336,0.091245457,0.257068149,-0.331250767,-0.109186799,-0.323178315,-0.403464532
6/25/2012,0.311359895,-0.333549978,0.396359014,0.259308147,0.224722457,-0.494429503,0.202238223,-0.40934447,-0.358428995,0.059217714,0.076398646,0.003573103,-0.372138087,-0.062480434,-0.239389885,0.386110144,0.471357812,0.315725403,0.368286128,0.084232984,0.452792381,-0.402560083,-0.171725192,0.143672332,-0.133267509,-0.322511805,-0.156981616,-0.26831843,-0.281566485,0.244877636,-0.136082177,-0.105009817,0.142441512,-0.077817357,-0.111549004,-0.479931619,0.086780583,0.115461496,-0.002477167,-0.370541021,-0.023190966,0.24357453,-0.334803833,-0.012366947,0.112263794,-0.048378567,0.42100648,-0.061621534,0.295265299,0.444297726,0.277810082,0.318330597
6/26/2012,0.187787872,-0.249755729,-0.07071837,-0.200308173,-0.04184379,0.234201112,0.001653055,0.250246016,-0.041369974,-0.405665843,0.113987746,-0.481084219,0.007912896,0.314270223,-0.237553298,-0.136327135,0.216429008,0.43551374,0.313202689,0.224025816,-0.004032044,0.208874271,0.129395354,-0.177249096,-0.383224966,-0.428154102,0.300587475,0.151707289,0.400878755,0.076358708,-0.32296647,-0.051162742,0.202615636,0.126587127,0.380604856,-0.353572873,-0.008888174,0.216943706,-0.119873911,0.460573873,-0.141501125,-0.132238503,0.202096839,-0.234094856,0.240951407,-0.123349489,0.379629803,0.365363362,0.478985982,-0.381228656,0.345963217,-0.26253344
6/27/2012,-0.481565371,0.221343933,-0.37811823,-0.379891787,0.122579256,0.003497516,-0.40997257,0.296514909,0.332486774,-0.269614659,-0.402443396,-0.197320641,0.041016383,-0.382461764,0.053980281,0.04685611,0.124747094,-0.343019092,-0.093667008,-0.152198339,-0.303017304,-0.039094053,-0.066087628,-0.127910412,-0.021432908,0.123414789,0.091536067,-0.156083776,0.237811495,-0.370085034,0.298413017,0.26813414,0.337315745,0.251701926,-0.301568556,0.20200817,-0.405660902,-0.262735051,0.329157736,0.417333504,0.479821797,0.295976515,0.441971632,-0.049869471,0.236087737,-0.222633771,0.330899134,-0.262213126,-0.333655856,0.185207593,0.19074288,0.008161704
6/28/2012,-0.276472983,0.481095668,-0.217550908,0.412014757,-0.30377794,0.06844383,-0.454803636,-0.235339917,0.0536963,-0.104259284,0.163146497,-0.49834762,-0.18891214,0.450688151,-0.131936288,0.172277391,0.346016803,-0.350201963,0.262041416,0.294620536,0.235569067,-0.461801848,0.411413812,0.44802088,0.157366422,0.119773563,-0.402569493,0.168747565,0.393089627,0.3213635,-0.377726659,0.402789843,0.196645412,0.45464388,-0.217311778,0.292584575,-0.163384069,0.277660354,0.209770455,-0.129967863,-0.460410682,-0.026256837,-0.327136825,-0.309064419,0.272504204,0.321121686,-0.171171101,0.167798522,-0.307739533,-0.264468482,0.220166176,0.341428362
6/29/2012,0.157816777,0.452172243,0.042994875,-0.486894347,0.023581406,-0.090615054,-0.182054846,-0.104722518,-0.18296926,-0.314391188,-0.468371582,-0.449966681,-0.21374292,-0.167457213,0.43845334,-0.197545944,0.479564437,0.024599339,0.493695389,-0.291638221,0.082384979,-0.096176011,-0.284276039,0.277106142,-0.196717176,-0.110724581,0.267803843,-0.422503102,-0.264103406,0.342579567,-0.434289067,-0.362903553,0.324008194,-0.288940765,-0.247308675,-0.431414649,0.429389511,-0.394204427,0.023084415,0.122879261,0.386452531,-0.039849883,0.489268769,-0.339226453,-0.098943971,-0.361411126,0.045344508,-0.435377037,-0.032924047,0.132844201,0.065492355,0.341750305
7/2/2012,0.281014507,0.096066866,0.371504331,0.123552101,0.279316009,-0.162670339,0.470327033,-0.168107865,-0.443616495,-0.179684138,0.469026257,0.062122164,-0.491568968,0.185573032,-0.476570733,0.333647266,-0.005322144,0.423993122,-0.028743297,0.361755987,0.332535742,0.071037914,-0.416813699,-0.258335732,-0.455286491,-0.231217463,-0.447602976,-0.172523599,0.102125921,-0.490511657,0.438993407,0.438846153,-0.040876708,-0.276170658,-0.050868809,-0.352105079,-0.200310201,0.468725934,-0.460175098,0.058843592,0.208079591,0.10800965,-0.335554296,0.293720597,-0.004593652,0.269758889,-0.43129625,-0.223332486,0.393195303,0.487740385,0.477914588,-0.486708801
7/3/2012,-0.364893108,-0.279722193,-0.24326933,-0.289928231,-0.025538307,0.384186949,0.406076315,-0.181002626,0.06273576,0.464753132,-0.200438675,-0.185603966,-0.149629623,-0.35121253,0.004154943,0.066668235,0.064005843,0.15872325,-0.49706092,-0.14772031,-0.376790449,0.494838285,0.009191663,0.035725657,-0.050047692,-0.022662826,-0.235088938,0.251175601,0.483402744,0.14833163,0.263709517,0.115544617,-0.453967163,0.418317461,-0.225711356,-0.166440436,0.334672481,-0.304204,-0.274402532,0.292194958,-0.434520813,-0.008382804,0.353064085,-0.233507255,-0.115907994,-0.000145032,0.287269542,0.270779532,0.094659296,0.47108385,0.269740999,-0.117828639
7/4/2012,-0.040995033,0.373971717,-0.303785691,-0.150252542,-0.23192227,0.095701439,-0.488122387,0.299627228,-0.425720359,-0.349796192,-0.178697585,0.495917305,0.262151443,-0.057447983,0.17561207,0.307451164,-0.158275931,0.102336619,0.427537426,0.233008588,-0.392596464,-0.220844235,0.043330847,0.453883645,-0.079174856,0.046667144,-0.332693699,-0.171290203,0.274909896,-0.495876569,-0.038136844,0.073146235,0.103207564,0.376017601,-0.149364959,-0.000190709,0.389183249,-0.492497829,-0.141336739,-0.409353281,0.139738282,0.082167899,-0.314074045,-0.221068853,-0.38293818,-0.258935773,0.252779293,0.326422983,-0.129376966,0.173510406,0.233242621,-0.046355281
7/5/2012,-0.314862528,-0.000455607,-0.016694626,0.165623086,-0.23716244,0.373004051,-0.373309737,0.258830389,0.006298801,0.462065586,0.453859997,0.231570546,-0.332568271,-0.086999394,0.370346666,-0.027389921,-0.201225904,-0.108572413,0.149973079,0.14262405,-0.291382423,0.012220487,-0.00187366,0.263990583,-0.333692981,0.444731384,0.114067757,0.358935807,0.13105196,0.209518686,-0.108759594,-0.442521139,-0.294340139,-0.074701432,-0.248445214,0.057329944,-0.310152488,-0.06581766,0.281103089,0.29499475,-0.304377755,0.304379426,0.476531291,-0.252581407,0.134124345,0.100219766,-0.4320116,0.188888369,-0.331267812,-0.163605006,0.333480927,0.278791355
7/6/2012,0.254901871,0.028690668,-0.457251974,0.402744756,0.320116754,-0.399364089,0.016435822,-0.432305849,0.011666813,-0.252352721,-0.30192381,-0.307947626,-0.245004497,-0.315677881,-0.470356812,0.348655266,-0.282022344,-0.339006254,0.395388901,-0.364385082,0.01251361,0.367850805,-0.349967019,0.287184982,-0.38374897,-0.47513456,0.310208956,-0.478887989,0.451079211,-0.150739633,-0.380960362,0.444166529,-0.205659158,-0.176894744,-0.178201703,0.144074332,-0.282488164,-0.387602578,0.16435195,0.090650362,-0.036479207,0.449558892,0.337666251,-0.079994369,0.465854702,0.05886292,0.087499711,0.418974006,0.106062892,0.322600504,0.384984891,-0.227466412
7/9/2012,0.103822608,0.30520092,0.229782455,-0.324210948,0.397631483,-0.368136493,-0.299427591,-0.408235206,-0.475891099,0.009283104,0.1887528,-0.220528985,-0.416559878,-0.415804016,-0.404628797,0.166659625,-0.497343949,-0.243473751,0.464404058,0.338521929,-0.380643763,0.08638641,0.128754686,0.039471855,-0.387691405,-0.306427389,0.436100304,-0.169026301,0.229214787,-0.203311308,0.472977595,-0.161181602,0.097257232,0.193175906,0.188256327,0.402752437,0.001677206,-0.14047523,0.334193823,-0.499528706,0.462500386,0.087957375,-0.316565535,0.109931106,-0.002088666,0.493195611,-0.051126494,-0.178647246,-0.186401106,0.283301143,0.068401852,0.240992145
7/10/2012,-0.080746949,0.453101514,0.076376395,0.046863506,0.230730891,0.080390245,0.275381375,0.057304091,-0.252761508,0.037252315,0.456468601,-0.261648702,0.212395854,-0.138362689,-0.193990531,-0.205043587,-0.293952414,0.078185158,-0.447315837,0.253823583,-0.445106279,-0.117228643,-0.437561257,0.424011424,-0.321838111,0.419407976,0.118979404,-0.137550484,-0.462169469,0.361332661,-0.121396694,-0.223525027,-0.397604763,0.002815514,-0.079485346,-0.156187334,0.459845609,-0.160887712,-0.457840606,0.376904558,-0.005660203,-0.312044306,0.343657477,0.208931834,0.233803901,-0.111130479,0.281121242,-0.371017953,0.464873763,0.020055928,-0.176468976,0.168187269
7/11/2012,0.451550259,0.023869444,-0.044345008,0.161966736,-0.092986155,0.003321104,-0.388015571,0.07222314,-0.245953409,0.199961894,0.456810711,-0.447196171,0.449839271,-0.024073694,0.271814799,-0.133706594,-0.093601687,-0.212500853,-0.437262018,0.379484481,-0.326523647,-0.089512235,0.170007132,0.072408826,-0.132117601,0.454989265,0.169907654,-0.307008864,0.044335726,0.228559227,-0.232309222,-0.312967738,-0.152015493,0.213100645,-0.222661309,-0.154019775,-0.057477425,-0.363603917,0.197970574,-0.408260779,0.150178603,0.102454073,-0.183843257,0.264526189,0.223810865,-0.070093651,0.481365936,0.286457533,-0.429421087,0.255483681,0.144312308,-0.325462531
7/12/2012,0.401394836,0.034691567,0.286260579,-0.044799623,0.467562577,0.269597419,0.413864532,-0.119476733,-0.317824415,-0.297753162,-0.259219946,-0.278530504,-0.047587704,0.440122354,-0.410854424,-0.357085109,-0.206677437,0.474998671,-0.485764124,0.139049179,0.006049549,0.152134323,-0.097699305,0.177381369,0.153645329,0.029791715,-0.014926546,-0.161927659,-0.081603865,0.475211865,0.42961457,0.47287184,0.044613662,0.491882772,-0.162106317,0.056833501,0.085616177,0.111511463,-0.400023523,0.229617312,0.379594569,-0.27795151,-0.051592189,-0.027831213,-0.169807046,0.091312322,0.435260201,-0.354873657,-0.122928431,0.080721697,-0.478452371,0.216488496
7/13/2012,0.398112233,0.047604206,-0.270136898,0.150276958,-0.371220766,-0.16106782,0.230653898,0.451997988,-0.249535847,0.122925911,-0.420009541,-0.245530346,-0.095545026,-0.431480545,0.19238775,0.318090154,-0.00742899,-0.188722878,0.229346153,0.034799782,-0.013242977,-0.381966413,0.231977478,0.334705481,0.445320339,-0.097131466,-0.168100372,0.320968097,-0.038134465,0.213924394,0.264175594,0.09075639,-0.420836111,0.347467014,-0.389400921,0.497254345,0.210632361,0.129725537,0.184499862,-0.081423413,-0.192185333,0.100438793,0.085925263,0.33299343,-0.08134775,-0.300361443,-0.268796686,-0.391184894,0.444492765,-0.351814737,-0.106757618,-0.478800376
7/16/2012,0.499231406,0.285350194,-0.499351324,-0.274164416,-0.350518302,0.275491252,-0.201562199,0.254356772,0.377476777,-0.056244748,0.483466905,0.203641137,-0.288129597,0.102864474,0.120397852,-0.448222925,-0.104652105,0.312109454,-0.31726932,0.400456955,-0.049889445,-0.271646486,0.086023484,0.054602691,-0.15176907,-0.158415032,0.150685337,0.359172361,0.011596126,-0.175253433,-0.422720616,0.12502967,0.172543134,0.441956805,-0.441929751,0.280512318,0.42841729,-0.443623618,-0.37354108,0.047704793,-0.393621724,-0.396249557,-0.260839582,0.080101415,-0.173365339,0.212862151,0.148788251,-0.449889472,-0.3495645,-0.020721074,-0.127451084,-0.18403774
7/17/2012,-0.296832854,-0.350320441,0.145806763,-0.408113452,-0.012628757,-0.302656094,-0.3546877,0.182102585,0.206070443,0.418729865,0.479604804,-0.316829878,0.132627339,0.497946383,-0.210756174,0.295971655,-0.456554154,-0.113642719,0.132822515,-0.228473821,-0.050651568,0.069317143,0.388837313,-0.197164937,-0.075645867,0.193189842,0.199464492,0.358348758,-0.115307643,0.12534135,-0.392964652,-0.144151998,-0.326050831,0.426611621,0.222061792,-0.366696741,-0.456847142,0.01188689,0.41975737,-0.159212841,0.399514201,0.104395114,-0.328224016,0.401002838,-0.083658335,0.055222989,-0.075951353,0.098652123,-0.449766943,-0.119937159,0.092998171,-0.037914242
7/18/2012,0.176863978,0.379666638,-0.399529123,-0.277408753,0.214480351,0.184641424,-0.266960739,0.417436353,0.163401197,-0.308180527,-0.140393297,0.00249898,0.138917395,0.049082853,0.155894714,-0.455367432,-0.128354769,0.349957203,0.287353741,-0.010005913,0.41715136,0.246513329,0.438013679,-0.355636136,0.280736849,-0.33837535,0.171209733,-0.004410685,0.245956348,-0.369785597,0.097794856,0.084153337,0.247141951,-0.482217115,0.476088168,0.40947697,0.4922153,-0.276071317,0.115247582,-0.067678518,-0.136135908,-0.218133034,0.475911068,-0.284266038,0.070806909,-0.453318944,-0.383801489,0.083238738,-0.253488718,-0.406270153,-0.057035961,0.38718661
7/19/2012,0.107405553,0.163569752,0.083867417,-0.386470432,-0.476751161,0.06506164,0.44379502,0.235751867,-0.414272913,0.421543828,-0.075630973,0.163680207,0.134218228,0.023909265,-0.147509681,0.251900605,-0.004697576,-0.137636407,0.430193544,0.273283329,-0.078816763,-0.115623031,0.284082091,-0.110885788,-0.269165598,0.126144,0.107044113,-0.071962831,0.376452198,-0.314204528,0.343316784,-0.470151812,-0.433004354,0.261713778,0.366417411,-0.164301451,0.258507797,0.48510208,-0.227119272,0.233714659,0.270066867,-0.24272682,0.425735017,-0.305671959,-0.198403252,0.077337087,-0.248232998,0.077005879,-0.005586602,0.345883388,0.276703756,0.066123934
7/20/2012,0.396080748,0.486665586,-0.017022353,-0.393704819,-0.18957377,-0.301080277,-0.08297042,-0.375272392,-0.393327587,0.432775941,0.4502393,0.401970155,-0.060356082,0.284096837,0.077352456,0.319673492,-0.24255173,-0.452875818,-0.26523714,-0.141146458,-0.335881904,0.14708814,0.27962355,-0.165705776,-0.376527016,-0.479645778,-0.38857508,0.265535463,-0.05116767,0.431774521,0.05683466,-0.297614726,-0.241502412,0.112374155,-0.319733976,0.215392556,0.189372214,0.058468516,-0.362379669,-0.198087503,-0.474647301,0.247688402,0.419419737,0.005621056,0.399788109,0.229843989,-0.286065466,-0.455181884,-0.396394166,-0.495044851,0.295015942,0.088932066
7/23/2012,0.177286447,-0.389781692,-0.015876168,0.355572444,-0.277367821,-0.32503092,-0.31248591,-0.305896203,-0.344857178,0.0665704,0.239679131,0.101956598,0.361244186,0.444963377,-0.072042875,-0.008695066,0.188393922,-0.112185327,0.443225364,-0.325781457,0.199421483,0.081872345,-0.253366718,-0.168036548,0.282462886,0.317637182,0.333283284,-0.441667087,-0.38130838,-0.496779522,-0.201238491,0.370353392,-0.412268782,-0.466174386,0.060856527,0.459888615,0.334314468,-0.248114074,0.081274496,0.122549266,-0.191607183,0.071692201,0.179557691,-0.363824895,-0.167779922,0.023106807,-0.052267015,0.368388441,-0.113872846,0.128846955,0.347761555,-0.47646531
7/24/2012,0.08192095,0.048168325,-0.291872184,0.045465415,0.126643177,0.353236389,-0.374307692,0.021348234,-0.342107081,-0.207058654,0.163433722,-0.286045419,-0.433909638,-0.025860976,0.365946246,0.444652731,-0.350444711,0.247882449,0.200598441,0.236966367,-0.279703438,0.161801633,-0.038541153,0.072365072,0.337403179,0.306410445,-0.335015947,-0.147214776,-0.203470488,-0.405542581,0.207709406,-0.330207843,-0.497372164,0.186816247,-0.385212126,0.328973605,-0.404489441,-0.001058794,-0.39170318,-0.322117481,0.236458597,-0.257328507,-0.09221771,0.461931727,0.388734739,0.48724627,-0.03750642,-0.439257587,0.306327049,-0.404541813,-0.328682998,-0.408228886
7/25/2012,-0.359958301,-0.408599775,-0.338461276,-0.288749715,0.230584784,0.262634418,0.435851028,-0.44302559,0.281537603,0.002222467,-0.216528745,0.197746758,0.192479271,-0.339502615,0.319608783,0.051277426,-0.158782128,-0.354560234,-0.034484186,0.117118281,-0.13115222,-0.099922435,-0.48860581,-0.130733952,-0.44391265,0.167499108,0.49592561,0.071732357,-0.494030531,0.303808871,-0.144377892,0.369456447,-0.446297473,0.495493406,0.150765263,0.025473461,-0.139238094,0.489498106,-0.141846804,0.426545458,0.113341584,0.210057616,0.261045732,-0.11276554,0.015878123,0.48940299,0.361430136,-0.478380775,0.048904382,0.335185798,0.127602652,0.382519504
7/26/2012,-0.03063067,-0.459285309,0.455958598,0.014167094,-0.090636847,-0.281196209,-0.366005681,0.339156339,-0.144762922,-0.325736846,0.225286916,-0.486046686,-0.233448759,0.321908215,-0.445526142,-0.074367339,-0.291978936,-0.128587631,0.482072162,0.433959214,0.394846162,-0.353411242,0.330826669,-0.157655334,-0.262193791,-0.157815655,-0.136833731,0.105975519,-0.106815709,-0.088869594,0.167973021,0.008322996,-0.458509149,-0.360497855,-0.262916954,-0.056758146,0.217182392,-0.458276035,0.027815196,0.020502556,0.353827406,-0.076553805,-0.171958197,-0.483435133,0.083092452,0.410347362,-0.139327783,0.163254984,-0.154209427,-0.360180072,-0.426282586,-0.160632289
7/27/2012,0.222370808,0.273435967,-0.212809215,0.08993859,-0.290832313,-0.116360876,-0.146666265,0.463363293,-0.449448632,-0.236317385,-0.483215829,0.160698474,0.204607303,0.279994674,0.418070487,0.00022392,0.48148316,0.40821932,-0.317215163,0.483142626,-0.390333312,-0.093981374,0.250321119,0.240180824,-0.254252588,-0.085976669,-0.086370672,-0.418532514,0.469410216,-0.256270943,-0.205087872,-0.218514344,0.294503807,-0.066915728,-0.158790658,0.303815329,-0.418865699,0.179822907,-0.006133884,-0.017784415,0.031813788,0.417430354,0.186340064,0.00938807,0.360298276,-0.377980662,-0.308276462,-0.376061613,-0.017059934,0.373542191,-0.010786492,-0.338556644
7/30/2012,0.091694003,-0.006668968,-0.133239995,0.28090328,0.043450272,-0.046091345,-0.31797417,0.136447836,-0.249843626,0.419906308,0.087742132,0.151709424,-0.290684088,0.276336191,-0.077864019,-0.412365799,0.181131603,-0.077789616,0.3223713,0.440101786,0.414206548,-0.164732658,0.339393118,-0.04379108,-0.180238513,0.349043857,-0.014657054,-0.497919656,0.151857637,-0.377083153,-0.037122717,0.360114072,0.312048303,-0.122357991,-0.034422896,0.122185071,0.2576526,0.117476234,-0.296057954,-0.041077588,0.222488246,0.3062754,-0.218595477,0.159539841,-0.331946267,0.447998019,-0.085948727,-0.001186425,-0.203018211,0.107125216,-0.350545701,0.082988618
7/31/2012,0.266969587,-0.158735961,-0.112705746,0.204793099,0.178231128,-0.397277077,0.433156936,-0.316025959,0.471509125,-0.307237196,0.175191765,-0.220429077,0.261485867,0.441645949,-0.181721652,-0.249628694,-0.110147462,0.029743051,-0.436594485,0.384781705,-0.225118243,0.259175336,-0.468400256,0.300618547,0.112486399,0.463374492,-0.141401806,0.379005932,-0.268431554,0.338725173,0.152518499,0.361143621,0.447555735,0.322030727,0.004589475,0.190764007,-0.493390944,0.166580683,0.473950909,0.016361282,-0.300731393,0.488827191,-0.278199763,-0.014975276,0.052471285,-0.392977902,0.453271602,0.200904314,-0.335048844,0.464175793,0.455679304,0.302539449
