date,1603000557,1603000558,1603000562,1603000563
1/3/2012,-0.282635807,-0.284609062,0.413084909,0.21973086
1/4/2012,0.365324136,0.443397498,-0.441665567,-0.212742724
1/5/2012,0.393405563,0.191595921,-0.166954267,-0.420484851
1/6/2012,-0.014347584,0.198295846,-0.257978467,0.016912363
1/9/2012,-0.19351275,0.442924806,0.390960712,-0.21633095
1/10/2012,0.477097736,0.3271543,0.005889346,0.338625941
1/11/2012,-0.160585885,-0.066559144,-0.013601906,0.270633399
1/12/2012,0.048390753,0.296600166,0.264506573,0.367696549
1/13/2012,-0.377969664,0.160577442,-0.11183269,0.151106363
1/17/2012,0.265060311,-0.120158941,-0.321748874,0.056208877
1/18/2012,-0.446383765,-0.396320807,-0.287841767,-0.475519871
1/19/2012,0.296162102,0.462571611,-0.108048825,0.279947393
1/20/2012,-0.38080748,-0.496142968,0.316622727,0.23854797
1/23/2012,0.186322521,0.062399554,-0.152327387,-0.416914389
1/24/2012,-0.228628463,0.427419049,0.288600946,0.218097529
1/25/2012,0.441155434,0.483461279,-0.159915654,-0.243766116
1/26/2012,-0.329364568,0.287755314,-0.247373557,-0.310567166
1/27/2012,0.441958952,0.029336111,0.381942551,-0.306643681
1/30/2012,-0.232270977,0.134622456,-0.296809247,0.075306859
1/31/2012,0.456112229,0.166810341,0.036588761,0.105159809
2/1/2012,0.282905184,0.498675434,-0.371712984,-0.244113349
2/2/2012,0.394399401,-0.386596891,-0.012283379,-0.041000703
2/3/2012,-0.091616608,0.315868602,0.035592792,-0.258291049
2/6/2012,-0.030199187,-0.242054104,-0.30656012,0.314501142
2/7/2012,0.103107784,0.019236893,-0.154113775,-0.360449438
2/8/2012,-0.251453368,-0.368595136,-0.43364173,-0.428032158
2/9/2012,0.067189885,0.1875515,0.154684485,-0.107186803
2/10/2012,-0.2058544,0.403006466,-0.232244498,-0.039605973
2/13/2012,-0.040058597,0.156505342,-0.489994862,0.006157375
2/14/2012,0.016828505,0.36830835,-0.415834958,0.314640279
2/15/2012,0.041981445,0.272158263,0.058844062,0.319416496
2/16/2012,-0.393433384,-0.062905232,-0.445531613,-0.026161335
2/17/2012,0.356635331,0.054319442,-0.0375272,-0.002980818
2/21/2012,-0.123479662,0.176935515,-0.332166733,-0.111320505
2/22/2012,0.185091436,0.481783306,0.020937927,0.36834796
2/23/2012,0.357272884,-0.474464423,0.191563044,0.019425677
2/24/2012,-0.487596928,-0.133219466,-0.424654687,0.330525951
2/27/2012,-0.290138883,-0.288591108,0.07986257,-0.142422651
2/28/2012,0.036527355,0.09620283,-0.050182022,0.226733358
2/29/2012,0.208248955,-0.136921667,-0.401352269,0.281562896
3/1/2012,0.062226863,-0.478085056,0.104907602,0.287490703
3/2/2012,0.114588835,0.297026333,0.198839353,0.200295529
3/5/2012,0.154214114,-0.283668514,0.026822698,0.319264009
3/6/2012,0.405044402,0.487992694,-0.329574487,0.291432212
3/7/2012,0.364497329,-0.021129377,0.004748653,0.289733801
3/8/2012,0.338968834,-0.403929364,0.375580065,0.332904593
3/9/2012,0.295929519,-0.266915766,-0.135502188,0.333745638
3/12/2012,0.271095472,-0.378221451,-0.230483121,-0.104591055
3/13/2012,0.169209546,0.191807765,-0.40234162,0.24390661
3/14/2012,0.131976095,-0.460639129,0.114006783,-0.214246397
3/15/2012,-0.03301736,0.199232755,0.388334773,-0.38651615
3/16/2012,0.241908285,0.415561655,-0.084407112,-0.483764618
3/19/2012,-0.093064508,0.308754407,0.453433491,0.102237436
3/20/2012,-0.338444773,0.44429614,-0.41191356,-0.100951899
3/21/2012,0.051816003,-0.024922966,-0.227119695,0.253238912
3/22/2012,-0.05843326,0.143670928,-0.197111398,-0.040713243
3/23/2012,-0.409171741,0.140073677,-0.258026959,-0.262336624
3/26/2012,-0.310595958,-0.131602393,-0.190330097,-0.038976203
3/27/2012,-0.495475079,-0.234308859,-0.22318278,-0.416434316
3/28/2012,0.341762858,0.450910369,0.054499303,-0.117672273
3/29/2012,-0.124450158,0.040054886,0.184768629,0.155160976
3/30/2012,-0.452665822,-0.399662957,-0.481264537,0.249692688
4/2/2012,0.066184077,-0.354970798,-0.489800763,-0.380002969
4/3/2012,0.402805918,-0.155818428,-0.305199458,0.434845964
4/4/2012,0.396881812,-0.164072247,0.096273308,0.138116467
4/5/2012,0.003646873,0.099813617,0.172306154,-0.167218357
4/9/2012,0.276171612,0.361568751,-0.326936302,0.018290261
4/10/2012,-0.054173747,-0.399210118,-0.113718972,0.019496474
4/11/2012,0.132740555,0.001003418,0.107967599,0.434032286
4/12/2012,-0.068932486,0.466260965,-0.1488397,-0.257498359
4/13/2012,0.421721035,-0.322480397,-0.176937345,0.159008067
4/16/2012,-0.113946502,-0.333223803,0.079855159,0.074639305
4/17/2012,0.203569365,-0.018950546,-0.21671884,0.472917738
4/18/2012,-0.194113654,-0.0237253,-0.474500418,-0.090078276
4/19/2012,0.195094641,0.125676206,0.026511722,0.440343499
4/20/2012,-0.06510924,0.497439191,0.370335407,0.436383934
4/23/2012,0.213351038,-0.050474202,-0.386346707,-0.253791501
4/24/2012,0.214860838,0.099636809,-0.465009464,-0.439675911
4/25/2012,0.400514347,0.298489226,0.352175345,0.322564815
4/26/2012,-0.36481364,0.252329812,-0.004241535,-0.195508271
4/27/2012,0.223941837,0.177414947,0.102956474,-0.32366158
4/30/2012,0.118130304,-0.051520582,0.074699849,-0.182932167
5/1/2012,-0.111314213,-0.487597234,0.053557034,-0.404588903
5/2/2012,-0.011987632,-0.346098246,0.239946114,0.296114748
5/3/2012,-0.108580251,-0.131072255,-0.24372034,0.296229381
5/4/2012,-0.314148355,0.046748623,0.456544447,-0.014258326
5/7/2012,-0.349676941,-0.021795444,-0.008879275,0.155989343
5/8/2012,-0.035677921,-0.452943464,0.062416901,0.161946434
5/9/2012,0.256734267,-0.466326334,0.028135344,0.336428974
5/10/2012,-0.204984571,-0.400131798,-0.239540345,0.486900353
5/11/2012,-0.281502782,0.49865452,-0.213222138,-0.088109756
5/14/2012,-0.066067396,-0.190881506,0.157306623,-0.430491072
5/15/2012,0.243128287,-0.096901566,-0.402256394,-0.358795059
5/16/2012,0.006256748,-0.320002978,-0.453128282,0.14132155
5/17/2012,-0.336589266,-0.135822878,0.441614874,-0.112654904
5/18/2012,-0.397487079,0.262087439,-0.421378893,-0.463763613
5/21/2012,-0.182571799,0.070399081,0.417422742,0.435006425
5/22/2012,-0.080182842,-0.432646156,0.150295284,0.476386741
5/23/2012,0.339886706,0.042322307,0.281775694,0.287840551
5/24/2012,-0.432282408,0.18286555,0.132884463,0.46157041
5/25/2012,-0.103416779,0.027332694,0.359183366,0.453533455
5/29/2012,-0.401885194,0.367934101,-0.397808293,0.467704325
5/30/2012,0.359301007,-0.391912667,-0.110307642,0.497037882
5/31/2012,0.021413253,-0.336406493,0.089755181,0.444843251
6/1/2012,0.115597042,0.241425886,0.336467462,-0.376213988
6/4/2012,-0.326526385,-0.324025588,-0.106420064,0.15279484
6/5/2012,-0.091989878,0.446076191,0.403754217,0.110972509
6/6/2012,0.419403084,-0.150408223,0.38473253,-0.138682541
6/7/2012,0.461344097,0.445555609,0.41080919,0.28333827
6/8/2012,0.414594815,0.314974288,0.011939561,-0.231864527
6/11/2012,0.35466736,-0.361048374,-0.103763045,-0.315521153
6/12/2012,-0.111081972,-0.427723037,-0.221396972,0.052976752
6/13/2012,-0.330880765,-0.455378965,0.489834428,0.342122151
6/14/2012,-0.106866463,0.313061265,-0.051233012,0.027537669
6/15/2012,0.440009657,-0.418649696,-0.335992846,-0.236498959
6/18/2012,-0.329311084,-0.409919145,-0.056946019,0.379805309
6/19/2012,-0.260888002,-0.293741931,0.249574991,0.430457309
6/20/2012,0.374432977,0.182710745,0.186857312,-0.374630993
6/21/2012,-0.050531668,-0.328010281,-0.436673711,0.270915302
6/22/2012,0.037569573,-0.028791091,0.274692328,0.088754962
6/25/2012,-0.181398492,-0.376667121,-0.10948318,-0.437351874
6/26/2012,0.422078143,-0.195621963,0.046078264,0.204680555
6/27/2012,0.014710438,-0.380564012,0.310896513,-0.3421541
6/28/2012,-0.322191701,0.245119351,-0.390198311,0.474632098
6/29/2012,0.377184488,-0.222405155,0.071957485,0.47936502
7/2/2012,-0.363931161,-0.452781514,0.116279286,-0.13565428
7/3/2012,-0.269880673,0.10005175,0.353028155,-0.247669355
7/5/2012,-0.107534017,-0.155222884,0.199070027,-0.237161811
7/6/2012,0.236478837,-0.352833199,0.234291791,-0.057187578
7/9/2012,-0.367139253,0.355679469,-0.137318951,0.383032323
7/10/2012,-0.369703635,0.390666669,-0.135956365,0.059717905
7/11/2012,0.456290972,0.435507198,0.27529108,0.252136182
7/12/2012,-0.285504486,-0.165924896,0.373591864,-0.159236512
7/13/2012,0.344298245,0.049441502,0.071923954,0.449903515
7/16/2012,0.375872848,0.458676021,-0.00122458,0.207970241
7/17/2012,0.124132647,0.136493551,-0.081147715,-0.257265101
7/18/2012,-0.341004254,0.054327817,0.219776859,0.076835239
7/19/2012,0.369180978,0.154891839,0.245543725,-0.432480596
7/20/2012,-0.038513966,-0.100324707,0.303810882,-0.012277728
7/23/2012,-0.064032843,-0.246803628,-0.044512033,-0.251914872
7/24/2012,-0.244303466,-0.300218111,0.157934702,-0.343894829
7/25/2012,0.168408951,0.020541117,-0.025816927,0.237128163
7/26/2012,-0.125975444,-0.287775641,0.166021934,-0.342641987
7/27/2012,0.061411177,-0.174660987,0.388362493,0.257438642
7/30/2012,-0.4557391,0.130471186,-0.142045816,0.366214389
7/31/2012,0.234557841,0.130592867,0.199270864,-0.14789621
8/1/2012,-0.341753355,0.016090457,0.3860909,-0.081695918
8/2/2012,-0.312471773,0.418418993,-0.034001399,-0.275398643
8/3/2012,0.314979198,0.160763629,-0.430549393,-0.128769488
8/6/2012,-0.062706971,-0.342486953,0.034403138,-0.27177027
8/7/2012,-0.063407004,-0.401622416,-0.419895918,0.41465702
8/8/2012,0.414505412,0.371866255,-0.190339379,-0.494197254
8/9/2012,-0.250741665,0.364907814,-0.313205328,-0.071184759
8/10/2012,-0.377443685,-0.134494934,0.312661709,0.286338961
8/13/2012,-0.140857071,-0.3164802,0.32821,0.048713579
8/14/2012,-0.306858053,0.111013552,0.193275908,-0.185864857
8/15/2012,0.038091656,0.181200117,-0.333358206,-0.230463943
8/16/2012,-0.34288331,0.446757569,0.464875277,-0.224180497
8/17/2012,-0.413808401,0.246271315,-0.088727998,-0.268803688
8/20/2012,-0.352178382,0.018169766,-0.429005206,-0.490328179
8/21/2012,-0.277373545,0.052678945,-0.344510808,0.466770918
8/22/2012,0.271215219,0.452194477,-0.138100095,-0.421461095
8/23/2012,-0.172522476,0.361936179,0.19789335,-0.197940811
8/24/2012,-0.372083348,-0.464285187,0.055815995,0.095188734
8/27/2012,-0.396082233,-0.177452952,0.380128551,0.495685604
8/28/2012,0.308996997,0.460260673,-0.262561149,-0.192772218
8/29/2012,0.188826553,-0.194440904,-0.00053592,0.274400755
8/30/2012,0.4431195,-0.269079003,0.41339707,-0.390912005
8/31/2012,0.436724853,0.101008425,0.010303488,0.333147726
9/4/2012,-0.278187819,-0.01803219,0.486872348,0.425562448
9/5/2012,-0.326209143,-0.401140819,0.061158942,-0.129727123
9/6/2012,0.491680441,-0.369362616,0.00685479,-0.280114558
9/7/2012,-0.453838602,0.438191028,-0.127665136,0.285336759
9/10/2012,-0.11069903,-0.335916147,0.212056048,-0.278555023
9/11/2012,-0.402647874,0.31679603,-0.165005577,-0.386418785
9/12/2012,0.291659699,0.186131379,-0.447998043,-0.100841344
9/13/2012,0.260935802,0.002862651,0.244530515,-0.254363719
9/14/2012,-0.428999566,-0.116885769,0.3640353,0.089594181
9/17/2012,0.155180783,0.466217646,0.043970855,-0.096736153
9/18/2012,0.10207301,-0.319240135,0.215985811,-0.091613361
9/19/2012,-0.156568693,-0.008862612,0.266449487,0.11722611
9/20/2012,-0.445516736,0.370948578,-0.468501734,-0.28968904
9/21/2012,0.456699362,-0.235194353,0.498079537,0.161177867
9/24/2012,0.239771111,-0.413056084,-0.041034166,-0.308481752
9/25/2012,0.251338807,0.236294332,0.241578568,0.230469446
9/26/2012,-0.498355579,-0.200638781,0.313520026,0.264175977
9/27/2012,0.114689537,0.175730825,0.199512999,-0.362866957
9/28/2012,-0.38344071,-0.101820543,-0.329890102,-0.103845629
10/1/2012,-0.00684084,-0.456360345,0.253105507,0.02973871
10/2/2012,-0.169414057,0.210154193,-0.384115821,-0.080110952
10/3/2012,0.336608961,0.248968812,0.00880402,-0.043681289
10/4/2012,0.244599333,0.052299815,-0.392293862,-0.288128486
10/5/2012,-0.408061245,0.281199441,-0.013923628,0.422989873
10/8/2012,0.289713612,-0.400919779,0.470680656,0.299340386
10/9/2012,-0.132148534,-0.228215454,-0.027417276,0.04608086
10/10/2012,0.340651373,0.353329529,-0.338715924,-0.306055953
10/11/2012,0.167552531,0.199616437,0.000328604,0.311246598
10/12/2012,-0.010927361,0.335626449,0.033977413,-0.095309097
10/15/2012,-0.4573295,0.085047548,0.282449708,0.34040592
10/16/2012,-0.243491001,-0.168989327,-0.288077346,-0.319841323
10/17/2012,0.046778877,0.117185058,0.439836202,-0.145133727
10/18/2012,0.478322923,-0.253902426,-0.2129983,-0.056384063
10/19/2012,-0.369518384,-0.264614517,-0.128727531,0.484059325
10/22/2012,-0.05713072,0.371230859,-0.231966082,0.448488459
10/23/2012,0.074879361,-0.174029051,-0.126224558,-0.306297204
10/24/2012,0.465401311,0.083397461,-0.323012104,-0.17637704
10/25/2012,0.371433897,-0.34882195,0.046399152,-0.124333213
10/26/2012,-0.156258293,-0.212844163,0.107683431,-0.427466381
10/29/2012,-0.491455599,0.428439631,-0.418782809,0.485270166
10/30/2012,-0.34749726,0.429117701,-0.336429671,-0.456219693
10/31/2012,-0.197918862,-0.125793769,-0.020938107,-0.121250821
11/1/2012,0.462415381,-0.283422246,0.234073058,-0.148399929
11/2/2012,-0.234732404,-0.402735019,0.321419998,0.050166712
11/5/2012,-0.309182541,0.338814654,-0.071146072,-0.481777325
11/6/2012,-0.103791437,-0.466667402,-0.065901061,0.318129298
11/7/2012,-0.135609881,-0.051106547,-0.493641312,-0.203698576
11/8/2012,0.32257059,0.004508975,-0.304600194,0.205622208
11/9/2012,-0.049316185,0.070825914,0.042398972,-0.075329527
11/12/2012,-0.433677794,0.011581645,-0.38168638,0.321364943
11/13/2012,0.287260067,0.301932353,-0.255779519,-0.221944273
11/14/2012,-0.48746062,0.495342027,-0.047030624,0.363177239
11/15/2012,0.24458711,0.229165126,-0.218522559,0.474561941
11/16/2012,0.335577005,-0.350166245,-0.219376162,0.373006302
11/19/2012,-0.093721301,0.041516977,-0.049685404,-0.194451188
11/20/2012,-0.146069723,0.358886456,0.057051445,-0.078715195
11/21/2012,0.097050439,0.069272878,-0.194196029,-0.198829346
11/23/2012,-0.29513889,-0.423553817,0.303558172,0.441756317
11/26/2012,-0.269348678,0.014570662,0.365227255,-0.051923056
11/27/2012,0.286044647,0.32925164,0.126632723,0.407024038
11/28/2012,-0.159460179,0.091014469,-0.192646881,0.038748137
11/29/2012,-0.015805528,0.325614831,0.458028413,0.183550695
11/30/2012,-0.03604893,0.230074716,0.418836016,-0.039034533
12/3/2012,-0.124357518,-0.460381159,0.462426627,-0.498709058
12/4/2012,-0.27307529,-0.431368183,0.360522884,0.267427808
12/5/2012,-0.257029582,-0.460042616,-0.097314036,-0.197350411
12/6/2012,-0.226535031,-0.335818755,0.154639049,-0.424269726
12/7/2012,0.351028933,0.02111167,0.085521681,0.487744871
12/10/2012,-0.317816085,0.287122162,-0.373618689,-0.4108595
12/11/2012,-0.148125332,-0.390447869,0.380021159,-0.186658949
12/12/2012,0.065970719,0.249640005,-0.201578209,0.206550106
12/13/2012,-0.283760158,0.102928768,0.447907038,0.396996573
12/14/2012,-0.02236974,-0.013743152,-0.367518377,0.414602013
12/17/2012,0.212673979,0.162161683,0.339407484,-0.290113798
12/18/2012,0.376373019,0.026459402,-0.426044479,-0.248934877
12/19/2012,-0.42433582,0.190043097,-0.016690631,-0.326298444
12/20/2012,0.169205325,-0.048791307,-0.188402425,0.300464295
12/21/2012,-0.115297541,-0.171883096,-0.271813225,-0.011059434
12/24/2012,-0.310702634,-0.409868806,-0.428549682,0.386106499
12/26/2012,0.207721572,-0.327245425,0.464870686,-0.160997795
12/27/2012,0.043519514,0.140684338,0.131991493,0.417460565
12/28/2012,0.457456728,-0.223539321,0.447007455,0.491759723
12/31/2012,0.04916246,-0.078084622,-0.475761855,0.209359829
1/2/2013,0.431554188,0.127378447,-0.43864433,0.276526722
1/3/2013,0.310508269,0.118583955,0.212776207,-0.465427793
1/4/2013,0.470516121,0.11790168,0.460200162,-0.474635676
1/7/2013,0.034060002,0.285722177,0.438266211,-0.221435245
1/8/2013,0.492461358,-0.116805799,-0.479692605,0.483214645
1/9/2013,-0.395481699,0.338306,-0.116991771,-0.281983229
1/10/2013,0.488474108,-0.487768017,-0.014584226,-0.086995671
1/11/2013,-0.222839805,-0.08252469,-0.422261971,-0.21222565
1/14/2013,0.175915196,-0.199537312,-0.114504696,0.419622983
1/15/2013,-0.013770256,-0.304471061,0.166748955,0.382226203
1/16/2013,0.374922215,0.123271405,0.45383572,0.156128157
1/17/2013,-0.449744621,-0.140290659,0.400216606,-0.027843363
1/18/2013,-0.150876029,0.059280617,-0.478932608,-0.198977924
1/22/2013,0.435340945,-0.460609574,-0.304858453,-0.038929259
1/23/2013,-0.433234692,0.061138996,0.041059849,0.171902774
1/24/2013,0.488453947,-0.413120033,-0.075178729,0.374597391
1/25/2013,-0.057027584,-0.165589531,-0.475766524,-0.251372265
1/28/2013,-0.175965632,-0.068406344,-0.031007507,0.032223585
1/29/2013,0.089542077,0.367538229,-0.124130813,0.027260331
1/30/2013,0.458096586,-0.47255071,-0.491759169,0.390164684
1/31/2013,0.199464152,0.00487184,-0.216083933,-0.126763923
2/1/2013,-0.106181512,0.179320436,-0.038654429,-0.040766489
2/4/2013,0.001077862,0.254428079,0.334389651,-0.17396348
2/5/2013,0.16615181,-0.36555181,0.18867496,-0.114842534
2/6/2013,0.438227526,0.223544091,0.184617157,0.088050184
2/7/2013,-0.258187943,-0.119320968,-0.30530566,-0.185467128
2/8/2013,0.116773847,-0.223721515,-0.36588704,0.429847546
2/11/2013,0.063830037,0.10310515,0.051104085,-0.389725198
2/12/2013,0.275483911,0.493816043,-0.172590195,-0.354085357
2/13/2013,0.46260712,-0.263676973,0.074879346,0.145947049
2/14/2013,-0.22873853,0.235322811,-0.217245247,0.192901851
2/15/2013,-0.121112595,-0.442301998,-0.158314712,-0.340525101
2/19/2013,-0.161238356,0.132999665,-0.318500962,-0.028281736
2/20/2013,0.071791951,0.153109238,-0.165450787,-0.292032492
2/21/2013,0.466091117,0.064785766,0.267938155,0.331933801
2/22/2013,0.309988011,-0.289444504,0.132499347,-0.137196335
2/25/2013,-0.059874491,0.061892635,0.24581231,0.277944519
2/26/2013,0.228388468,-0.146111505,-0.394455416,-0.470718448
2/27/2013,-0.172658435,-0.449914307,0.172154027,0.347945463
2/28/2013,-0.172130169,0.087363383,0.447167538,-0.300850986
3/1/2013,-0.261423917,-0.243944607,-0.008246465,0.34659157
3/4/2013,0.427391804,-0.154521177,0.199106599,0.427502016
3/5/2013,0.029716593,0.48080848,-0.043854869,-0.080972904
3/6/2013,0.195266485,-0.004543992,-0.326465559,-0.174563422
3/7/2013,-0.151885707,-0.314252171,0.214936286,-0.468391233
3/8/2013,0.240837417,-0.218053133,-0.308560447,-0.00125935
3/11/2013,0.414225171,-0.070426625,0.004214402,0.262037817
3/12/2013,0.043477874,0.36980037,-0.044948138,-0.151302506
3/13/2013,-0.145084049,0.153323077,-0.274843485,0.230879474
3/14/2013,0.370743491,0.235676283,-0.28193018,0.119665412
3/15/2013,0.317468467,-0.19147924,-0.479387341,-0.011925006
3/18/2013,-0.037077947,-0.467373961,-0.082266119,-0.333834972
3/19/2013,-0.264843981,0.346265194,0.047139323,-0.29059585
3/20/2013,0.187632101,0.052473507,0.278604661,-0.195902386
3/21/2013,-0.49888294,0.031312562,0.017725834,-0.321903075
3/22/2013,0.292956066,-0.165263962,0.005373054,-0.18623285
3/25/2013,-0.200266421,0.421186735,-0.01211522,-0.089026504
3/26/2013,0.007324466,-0.492955048,0.169517247,0.254604361
3/27/2013,0.263514814,0.333248235,-0.388630315,0.29200746
3/28/2013,-0.479095937,0.4302628,0.367738418,-0.458624954
4/1/2013,0.304110468,0.206989108,0.078854559,-0.079065001
4/2/2013,-0.46192848,-0.193544969,0.30369674,-0.478147968
4/3/2013,-0.018003739,-0.269900415,-0.228429318,0.128979224
4/4/2013,-0.156928688,0.270625064,0.075197493,-0.302549019
4/5/2013,-0.220883857,0.069087063,0.335949174,-0.002896822
4/8/2013,-0.134882142,0.031153456,-0.141214717,-0.229279218
4/9/2013,-0.440773105,0.40230818,0.144194362,-0.434810308
4/10/2013,0.258871607,-0.161698917,-0.258745085,-0.110720462
4/11/2013,0.261845948,0.218950367,0.398998637,0.018448866
4/12/2013,-0.373165109,0.123224541,-0.492965383,-0.11975751
4/15/2013,0.168428249,0.170186765,-0.314671556,0.144694905
4/16/2013,-0.409434434,-0.092080958,-0.194513848,-0.199345429
4/17/2013,-0.452990517,0.094964888,0.128698274,-0.377276807
4/18/2013,0.106241572,-0.057923234,0.069886749,0.243498449
4/19/2013,-0.36782208,0.230935275,0.320360442,0.24484325
4/22/2013,0.476296719,-0.138299525,0.373183592,-0.402520747
4/23/2013,-0.489982575,-0.255907697,0.134537065,-0.324421534
4/24/2013,0.046745556,0.092444441,-0.489151108,0.135629915
4/25/2013,0.034382245,0.471336525,-0.255325762,-0.053969977
4/26/2013,-0.074970715,-0.393575265,0.26206886,-0.27328962
4/29/2013,-0.308604009,-0.117959198,0.294691645,0.231310607
4/30/2013,0.008668185,0.170720742,0.271874646,-0.215929262
5/1/2013,-0.439780183,0.496194754,0.454670574,0.020488453
5/2/2013,-0.015306563,0.199901295,0.42470296,0.331527436
5/3/2013,-0.222579034,-0.193400882,-0.403522777,0.186491063
5/6/2013,-0.011162868,0.423140534,0.057753519,0.006808894
5/7/2013,-0.405674468,0.169761478,-0.104317563,-0.369593513
5/8/2013,-0.033006309,0.40689508,0.182383728,0.122617508
5/9/2013,-0.194336028,0.411272909,0.37393988,0.361539045
5/10/2013,-0.086608564,0.243281687,0.240484478,-0.246863119
5/13/2013,0.267573746,-0.391172662,-0.162461242,-0.190301435
5/14/2013,-0.175641043,-0.250549557,0.086162578,-0.221354747
5/15/2013,0.357403128,0.290179746,0.321932894,-0.263857601
5/16/2013,-0.082308756,-0.228643773,0.358635243,0.366580233
5/17/2013,0.484866714,0.324322718,-0.010498354,0.432190802
5/20/2013,-0.315008696,-0.442801059,0.158548674,-0.020204554
5/21/2013,-0.492541765,-0.433049373,0.423351782,-0.429990088
5/22/2013,-0.4487574,0.005959747,0.217340724,0.187967989
5/23/2013,-0.428682643,-0.400085409,0.017274566,-0.265898343
5/24/2013,0.370288793,-0.350374567,0.023963508,0.3315478
5/28/2013,0.313331717,-0.202378574,0.22086023,0.188935739
5/29/2013,-0.201334048,0.360921126,-0.197112102,0.045163421
5/30/2013,0.101371441,0.476787069,-0.020769923,0.158383698
5/31/2013,-0.160473403,0.087453734,0.236132047,-0.49628325
6/3/2013,-0.156995964,-0.174967863,0.341568225,0.185239957
6/4/2013,-0.3264315,0.247574607,0.296622324,-0.271668917
6/5/2013,0.075553611,-0.160089719,0.122120054,0.17090594
6/6/2013,-0.434997746,0.443264571,0.042743332,0.186477196
6/7/2013,0.069535717,-0.241052238,0.227965006,0.073122422
6/10/2013,0.354675528,-0.10014023,0.469915485,-0.189466615
6/11/2013,0.073524765,0.201603884,-0.158196019,-0.126034102
6/12/2013,-0.470020235,-0.239158674,0.200550735,0.150933087
6/13/2013,0.346525158,0.049236529,-0.421796862,-0.281303049
6/14/2013,-0.310928624,0.09891705,0.181836217,-0.392757585
6/17/2013,0.206288565,-0.368342985,-0.31050055,-0.343431317
6/18/2013,-0.359654217,0.168656336,-0.400354943,0.161806395
6/19/2013,-0.038738241,-0.45864996,0.287764447,-0.402701052
6/20/2013,-0.454587835,0.217186365,0.450578346,-0.437104352
6/21/2013,0.071735749,0.324960425,0.361807596,-0.237305868
6/24/2013,0.309017088,-0.092304328,0.405347261,0.338742824
6/25/2013,0.438419707,0.042155342,-0.444360513,-0.263280348
6/26/2013,-0.37516682,0.024968315,0.318551547,-0.498937867
6/27/2013,-0.340558247,-0.460193464,0.047060268,0.361494349
6/28/2013,0.270365405,0.356579622,0.218536124,0.003582978
7/1/2013,-0.161612726,-0.4683631,0.26225938,0.331941412
7/2/2013,0.221991398,-0.228876743,0.048115713,0.373061208
7/3/2013,0.416768947,-0.292116382,0.13046712,-0.332301317
7/5/2013,-0.032233586,-0.320369615,0.293375856,-0.461543407
7/8/2013,-0.337555845,0.247201194,0.022944208,0.316740405
7/9/2013,-0.199077634,-0.49619058,-0.119739006,-0.288796881
7/10/2013,0.230769069,0.122673481,0.358775952,-0.136388984
7/11/2013,-0.15297327,-0.22749352,0.250536393,0.493721064
7/12/2013,-0.41190206,-0.292700305,0.264869061,-0.123589729
7/15/2013,-0.310290613,-0.442887504,-0.443523566,-0.21530636
7/16/2013,-0.003178036,-0.322485777,-0.124274913,-0.022671832
7/17/2013,0.49343361,-0.337727155,-0.049648556,-0.148071652
7/18/2013,-0.455651072,-0.141044532,0.445866572,-0.179101332
7/19/2013,0.375719124,0.068590182,-0.189021042,-0.15539956
7/22/2013,-0.051606983,-0.11464164,-0.043380125,-0.001232531
7/23/2013,0.479713638,-0.429903222,-0.300684839,-0.066909787
7/24/2013,-0.047216798,-0.121059927,-0.186014007,-0.360843804
7/25/2013,-0.111967293,0.034932318,0.063713618,0.206903414
7/26/2013,-0.059546541,-0.413283834,0.179505477,0.331909677
7/29/2013,0.405766997,0.151717422,-0.251436327,0.016481389
7/30/2013,0.477125843,0.136945876,-0.014121029,-0.393873423
7/31/2013,0.095280607,-0.461533967,-0.323874494,0.052437911
8/1/2013,-0.130420266,-0.460285165,-0.47202893,0.410640877
8/2/2013,-0.419237461,-0.120665599,-0.438029372,0.120513617
8/5/2013,0.444610731,0.05644702,0.090231453,0.424347827
8/6/2013,-0.32583248,-0.488218694,-0.19926398,0.245885404
8/7/2013,-0.099064222,0.274177468,-0.472666504,0.362702689
8/8/2013,-0.236537606,-0.441935719,-0.292857658,-0.418155149
8/9/2013,0.397931181,0.312343634,-0.418701884,0.209617529
8/12/2013,-0.146641266,-0.091620199,0.106116451,0.28181786
8/13/2013,0.468954795,0.149530297,0.36064201,0.339515919
8/14/2013,-0.036007173,-0.305997683,0.078057663,-0.333620399
8/15/2013,-0.26682144,0.464012533,-0.041627353,0.430382485
8/16/2013,0.409579879,0.173572449,0.494508811,0.120769926
8/19/2013,0.210560697,0.419659373,0.080401697,0.092475304
8/20/2013,0.072803403,0.481099937,0.130366548,-0.418520308
8/21/2013,0.469189643,-0.190143918,-0.224210653,0.291477261
8/22/2013,-0.307056187,0.451748967,-0.483068825,0.421862364
8/23/2013,0.404533316,0.192821283,0.432181095,-0.188928575
8/26/2013,0.113859617,-0.279171309,0.119796792,0.307131915
8/27/2013,0.387112619,-0.1216948,0.004312153,-0.331511801
8/28/2013,-0.233996767,0.010486958,-0.322591611,0.463671106
8/29/2013,-0.153024608,0.111972456,0.207782623,0.353522674
8/30/2013,-0.075091763,0.264103556,0.321715411,-0.009520648
9/3/2013,0.233443818,-0.316451172,0.354955661,0.189283957
9/4/2013,-0.433717569,0.412049148,-0.226375884,0.377540289
9/5/2013,-0.223330503,0.071097151,0.366498752,-0.441261394
9/6/2013,0.365310471,0.01822929,-0.32363921,-0.499629743
9/9/2013,0.240842944,0.27117103,0.377895092,0.282738261
9/10/2013,0.113667519,0.282894298,-0.062754206,0.099278722
9/11/2013,-0.292437921,-0.239859508,0.164759821,-0.032653491
9/12/2013,-0.16191034,0.293387677,0.211778656,-0.014013302
9/13/2013,0.127139075,0.287735168,0.301194701,-0.268116401
9/16/2013,-0.474355751,0.228238686,0.141770333,-0.380990298
9/17/2013,-0.148662388,-0.405955938,-0.141793835,0.015479379
9/18/2013,0.25446308,0.186333619,-0.11441328,0.33505359
9/19/2013,0.064479681,-0.245072507,0.364232587,0.354170062
9/20/2013,0.012610804,0.449635093,-0.397727252,-0.097996647
9/23/2013,-0.112947339,0.336554411,0.024573029,0.481751329
9/24/2013,-0.438122938,-0.439304612,-0.218855909,-0.492907775
9/25/2013,0.22507322,0.393830165,-0.048039559,0.09724476
9/26/2013,0.395850283,-0.403026987,-0.140642563,-0.030124905
9/27/2013,-0.177919043,0.033677622,-0.27155387,0.192348662
9/30/2013,0.434933207,-0.230197064,-0.231672075,-0.035980768
10/1/2013,0.226711393,-0.277079778,-0.269303513,-0.4664282
10/2/2013,0.03153511,-0.139745673,0.31753734,0.367466659
10/3/2013,-0.446372089,-0.08875654,-0.493067308,-0.137956196
10/4/2013,0.307204171,0.270552348,0.198648355,-0.121826037
10/7/2013,-0.038786003,0.014675974,0.428764396,0.376295501
10/8/2013,0.284460486,0.349864453,0.189833363,-0.05933882
10/9/2013,-0.221320594,0.262233496,0.02789218,0.247835064
10/10/2013,0.228062376,0.253064405,0.292276924,-0.234815377
10/11/2013,-0.476606204,-0.283518836,0.071262392,0.201985491
10/14/2013,0.143378317,-0.046240128,-0.329118366,-0.242208004
10/15/2013,-0.355162127,-0.068570995,-0.269318171,-0.416234205
10/16/2013,-0.013606966,-0.299006394,0.293918328,-0.359330989
10/17/2013,0.236224919,0.499575983,-0.437445385,-0.167382588
10/18/2013,0.388193695,0.078836709,0.207593007,0.180663992
10/21/2013,0.325862193,-0.037155132,0.384653142,-0.177988632
10/22/2013,0.429714079,0.262906743,0.344404991,-0.344486839
10/23/2013,0.311120964,-0.014934608,0.476046749,0.249029033
10/24/2013,0.008459147,0.111565437,0.475690685,0.315649704
10/25/2013,-0.433495461,-0.203046183,0.485675464,0.238785139
10/28/2013,-0.114132741,-0.297103622,-0.058172711,-0.418738494
10/29/2013,-0.287546704,-0.220018014,-0.499302902,-0.258533096
10/30/2013,0.440067214,0.13351816,-0.082567848,0.099473726
10/31/2013,0.083940351,-0.491463159,-0.086767849,0.423472032
11/1/2013,-0.280987632,0.387760625,-0.097515699,-0.419700762
11/4/2013,-0.147214031,0.321183751,0.370767596,-0.274909323
11/5/2013,0.435952796,0.081899993,0.20037035,0.137753606
11/6/2013,-0.137769457,0.136582481,-0.411321432,0.02700656
11/7/2013,0.46621316,-0.371346503,-0.477377868,-0.25739185
11/8/2013,0.152702753,-0.059512501,0.318092866,0.342308621
11/11/2013,0.192323239,-0.304619797,-0.492976254,-0.243758374
11/12/2013,0.114960429,-0.321282394,-0.389430887,-0.203786455
11/13/2013,0.097888581,-0.099038877,0.388501709,-0.235467946
11/14/2013,0.39192462,-0.307417252,-0.289287136,-0.253323652
11/15/2013,-0.375927386,0.344842628,-0.322229351,0.376379526
11/18/2013,-0.482901087,0.09934896,0.399210825,-0.374974194
11/19/2013,0.482304465,0.486802589,-0.070691119,0.434580234
11/20/2013,-0.219212861,-0.212057528,-0.171731028,0.095136683
11/21/2013,-0.052560008,0.070350875,-0.150883471,-0.367963777
11/22/2013,0.396823327,0.193673341,-0.2807136,0.121119226
11/25/2013,-0.246045555,-0.420070372,0.38932381,-0.146798577
11/26/2013,0.091359251,-0.477147738,-0.397195573,-0.133260605
11/27/2013,-0.301764246,0.370974211,-0.48992998,0.200592245
11/29/2013,0.326067317,-0.018727789,0.439666417,0.206315305
12/2/2013,-0.389512237,0.206134551,0.387145853,0.365636061
12/3/2013,-0.410979349,0.309430188,-0.163724616,-0.253953156
12/4/2013,-0.448969852,-0.47239914,-0.230675459,0.472188974
12/5/2013,-0.102580114,0.20945844,0.285433863,-0.142350115
12/6/2013,-0.302503861,-0.357224936,-0.408077704,0.316366384
12/9/2013,-0.343647032,-0.06867347,-0.002231672,-0.12945163
12/10/2013,0.38785005,0.080342756,-0.136002088,-0.282861136
12/11/2013,0.378157034,-0.420405862,0.448745099,0.380476271
12/12/2013,0.084720182,-0.232817511,0.197568115,0.198894813
12/13/2013,0.16309871,-0.350361031,0.076050499,-0.453062317
12/16/2013,0.316722174,0.334408517,-0.206207166,-0.318192716
12/17/2013,-0.48796329,0.126011044,-0.40363803,-0.428126799
12/18/2013,0.37227514,0.423393242,0.368740732,0.424770255
12/19/2013,-0.421896974,-0.09617051,-0.464991616,0.438016582
12/20/2013,-0.21687034,0.294711474,-0.133644306,0.358827311
12/23/2013,-0.158165466,0.498325978,-0.418339382,-0.43113173
12/24/2013,-0.338600164,-0.473640575,-0.32378486,-0.353225719
12/26/2013,-0.103032802,-0.47827638,0.200820279,0.090896801
12/27/2013,-0.038806398,0.494830562,-0.471487445,-0.49272534
12/30/2013,0.054933461,-0.363781868,0.186859529,-0.377668185
12/31/2013,-0.270288028,0.00530939,-0.457749922,-0.159376553
1/2/2014,-0.014409867,0.289460229,0.493968813,0.436273108
1/3/2014,-0.225970439,0.190562322,0.170305043,-0.099325023
1/6/2014,0.470978842,0.354904425,0.44632239,0.241721389
1/7/2014,0.081888142,-0.385041464,-0.405265426,0.401261045
1/8/2014,-0.42252966,0.381184776,-0.434598259,0.480269451
1/9/2014,-0.269686057,-0.104979582,-0.46134893,-0.427690931
1/10/2014,0.328997931,-0.362969146,0.191758638,-0.445933998
1/13/2014,0.322421342,-0.329216345,0.096693676,-0.213222314
1/14/2014,0.259123137,0.017908954,-0.097527974,-0.297751713
1/15/2014,-0.201853236,0.14796338,-0.204656477,0.4409816
1/16/2014,0.030174333,0.074183877,-0.170532768,-0.01481535
1/17/2014,-0.327735351,-0.467992946,0.144645402,0.025411513
1/21/2014,0.212440515,-0.149924247,0.183139662,-0.467779805
1/22/2014,-0.168655819,0.499780787,0.319272168,0.483353527
1/23/2014,0.399508781,-0.051645266,0.29982219,-0.24764624
1/24/2014,0.182403475,0.060349746,0.44931061,-0.473479712
1/27/2014,0.229931268,-0.446665964,-0.443060135,-0.374189776
1/28/2014,-0.469585558,-0.160613493,0.026350779,-0.175957488
1/29/2014,0.230589041,0.093122728,0.442056752,-0.424845298
1/30/2014,-0.428312121,-0.049952544,-0.273624582,-0.046381856
1/31/2014,0.467853672,0.358869286,-0.397475285,-0.373097136
2/3/2014,-0.08179196,0.025084551,0.078404767,0.411224567
2/4/2014,-0.437731871,0.08441613,-0.448413321,-0.004317986
2/5/2014,-0.140271589,-0.34400892,-0.465560102,0.135317998
2/6/2014,-0.139122276,-0.33608796,-0.30602542,0.078879323
2/7/2014,0.256306714,-0.142344867,-0.178199102,0.099010723
2/10/2014,0.479203494,0.203918866,-0.088182579,0.493595263
2/11/2014,0.478321777,0.343275451,-0.319267334,-0.448268737
2/12/2014,-0.414586578,-0.100233423,-0.053083334,-0.295086791
2/13/2014,-0.31132944,-0.052663215,-0.460120345,-0.248761381
2/14/2014,-0.086742437,-0.329022267,-0.136516314,0.387833184
2/18/2014,-0.208308663,0.290267463,-0.037427588,-0.253736616
2/19/2014,0.142117248,-0.234450049,0.240689057,0.340339978
2/20/2014,0.041671313,-0.185520852,0.354026404,0.435977958
2/21/2014,0.164674988,0.458284756,0.089574746,0.210365489
2/24/2014,-0.455126771,0.470668718,-0.338026151,-0.367712053
2/25/2014,0.218089685,-0.187183725,-0.280518942,-0.050454062
2/26/2014,-0.179207744,0.17473451,-0.243528423,0.184788946
2/27/2014,-0.021022262,-0.167452092,-0.489682765,0.280915617
2/28/2014,-0.353530736,0.433154891,0.036437864,0.068513946
3/3/2014,-0.127384731,0.177389258,0.115580854,0.026609338
3/4/2014,-0.077554345,-0.229345273,-0.016946005,-0.370784858
3/5/2014,0.451878983,-0.115999156,0.003017071,-0.078862623
3/6/2014,0.187750274,0.384208193,0.452310395,-0.059814803
3/7/2014,0.029083322,0.211782744,0.427423967,0.267583573
3/10/2014,0.499591515,-0.183415172,-0.193435958,-0.051178544
3/11/2014,-0.328566268,-0.434094501,-0.08961226,0.426570601
3/12/2014,0.206680075,-0.473593938,0.387054259,-0.447335437
3/13/2014,0.161047766,-0.063978483,0.459092185,0.163127635
3/14/2014,-0.405667721,-0.396658421,-0.262821408,0.41644511
3/17/2014,-0.177971512,0.483439724,0.314193921,-0.334083103
3/18/2014,-0.221528635,0.075196766,-0.041680029,0.330895921
3/19/2014,0.228427953,0.16893878,-0.192669985,-0.340359065
3/20/2014,0.250162303,0.071052978,-0.331544071,0.304666213
3/21/2014,-0.220007761,-0.175021421,-0.366874355,-0.467992101
3/24/2014,-0.416207433,0.44541018,0.44170163,0.300273611
3/25/2014,0.447288458,-0.32236308,-0.427887341,-0.02334796
3/26/2014,-0.155798363,0.301388789,-0.194102871,0.252757598
3/27/2014,-0.06756239,-0.493266844,-0.236920094,-0.114293476
3/28/2014,-0.181420719,-0.436848726,0.057283074,0.000182883
3/31/2014,-0.491578681,-0.201281171,0.292452056,0.090526148
4/1/2014,0.16545608,-0.235298904,0.047817341,0.002779201
4/2/2014,0.475626428,0.382025096,0.196241233,-0.421961524
4/3/2014,0.103381145,-0.323921827,0.216924524,0.40169698
4/4/2014,0.299524604,0.177973188,-0.006841858,0.452732113
4/7/2014,-0.185962448,-0.404265695,0.076303381,-0.165251788
4/8/2014,0.396377945,-0.165930592,0.160374048,0.180201987
4/9/2014,-0.450656935,0.490533949,0.021537557,0.056736138
4/10/2014,0.433095777,-0.447549382,-0.00760448,-0.386861805
4/11/2014,-0.2488604,0.244638783,-0.34989164,0.462356637
4/14/2014,-0.286995903,-0.209546761,0.139265304,-0.039695883
4/15/2014,-0.472775994,-0.221103148,0.153553274,-0.164570834
4/16/2014,-0.429990154,0.303853091,-0.264069227,0.009008666
4/17/2014,0.441146747,-0.12185902,-0.245368322,-0.154510256
4/21/2014,-0.238496453,-0.449600648,-0.015322673,-0.418168788
4/22/2014,0.311627456,-0.08871693,-0.432664375,-0.173773969
4/23/2014,-0.253793885,0.160003942,-0.462840165,-0.165375184
4/24/2014,0.191211042,0.40084464,-0.345541648,-0.22689279
4/25/2014,0.320914899,0.410015417,-0.214998062,0.401575622
4/28/2014,0.122123116,-0.43539825,-0.161843992,-0.015072274
4/29/2014,-0.251086761,-0.314258637,-0.295183514,-0.037779465
4/30/2014,-0.315894013,-0.430365259,0.190684708,-0.371194381
5/1/2014,0.272643882,0.264696006,0.384531801,0.059722934
5/2/2014,0.38822283,0.262718494,-0.057863264,0.364730009
5/5/2014,-0.39921353,-0.169819943,-0.485238302,0.231679515
5/6/2014,0.191057886,-0.03787582,-0.118015017,-0.199638163
5/7/2014,-0.203764519,0.361261333,-0.27070724,-0.005752688
5/8/2014,0.108618763,-0.330743933,-0.321670106,-0.162456192
5/9/2014,-0.136627148,0.244823012,-0.021090007,0.370118954
5/12/2014,0.115603837,0.325973117,0.189704038,-0.046499098
5/13/2014,-0.336650019,0.244844463,-0.33888635,0.426086575
5/14/2014,-0.360153997,0.419883257,0.346680615,-0.030636611
5/15/2014,0.156888114,-0.37539151,0.350653001,-0.077993225
5/16/2014,-0.425294317,-0.028615891,-0.323626434,-0.051008642
5/19/2014,-0.326869293,-0.491346895,0.006797125,0.344090767
5/20/2014,-0.285811269,0.244252887,0.278932116,0.084646287
5/21/2014,-0.262948327,-0.36888608,-0.297520504,0.491884134
5/22/2014,-0.385228542,-0.230195223,0.21284969,-0.409322763
5/23/2014,-0.404078206,-0.241645832,-0.071951859,-0.382798962
5/27/2014,0.117531726,0.176934748,0.369079067,0.156389689
5/28/2014,0.180923766,-0.240940991,-0.335536021,-0.143177996
5/29/2014,0.302646861,0.219093143,-0.269113178,0.493128921
5/30/2014,0.444647372,-0.296816365,0.118893018,-0.115684244
6/2/2014,-0.497258076,-0.243840588,-0.438717048,0.377749427
6/3/2014,-0.339822293,0.464055594,0.237872732,0.04602943
6/4/2014,-0.421469745,0.271023639,-0.191426088,-0.364375472
6/5/2014,0.105033099,-0.243071468,0.168208145,-0.364532009
6/6/2014,0.12804635,0.078862211,-0.436672505,-0.183092936
6/9/2014,0.49546837,-0.260807806,0.295018277,0.119545101
6/10/2014,-0.46744731,-0.306596161,-0.451338707,0.184958218
6/11/2014,-0.443151202,-0.431343959,0.291611204,0.17103784
6/12/2014,-0.203763339,0.428961324,0.038435383,-0.496881032
6/13/2014,-0.329855703,0.153200093,0.103368509,-0.32511487
6/16/2014,-0.481909059,-0.075462323,0.276320238,-0.302184193
6/17/2014,0.089435967,-0.170658602,0.478593187,0.233108736
6/18/2014,0.258848118,0.267464677,0.14367998,-0.104375225
6/19/2014,-0.200937914,-0.019845039,0.000611585,-0.094889195
6/20/2014,-0.209891346,-0.328919821,0.141715283,-0.004478974
6/23/2014,0.348425408,-0.347695002,-0.021328094,-0.312494185
6/24/2014,-0.455920315,-0.152939536,0.466719424,-0.093559505
6/25/2014,0.327796121,0.196056195,0.270408326,0.192892186
6/26/2014,-0.444377246,-0.004128704,0.192935555,-0.284598285
6/27/2014,-0.068496941,-0.4681445,0.22104583,-0.396793582
6/30/2014,-0.162081101,-0.063922738,0.432780721,-0.041291174
7/1/2014,0.176500918,-0.234727135,0.153644417,0.404870757
7/2/2014,-0.24068859,-0.22433063,0.461909346,-0.162006245
7/3/2014,-0.319146098,0.236307726,0.285389932,0.168515167
7/7/2014,-0.077421437,-0.306598347,-0.215305649,0.026747395
7/8/2014,-0.340829106,0.004870639,0.490482837,-0.354726616
7/9/2014,0.47708471,0.09030396,-0.156394306,0.346223944
7/10/2014,-0.354731702,0.277408713,0.493744398,0.147869394
7/11/2014,-0.085220724,-0.182197848,-0.253353325,0.265396836
7/14/2014,0.457787587,0.34758919,0.114343317,-0.258027886
7/15/2014,0.333481872,0.432859346,-0.280427583,0.368830391
7/16/2014,0.129730793,0.109469877,0.254515698,0.461979306
7/17/2014,0.157867325,0.265246912,0.329937736,0.468176784
7/18/2014,-0.335374752,0.434370624,-0.366687405,-0.304682753
7/21/2014,-0.193927391,0.204150358,0.275644771,-0.355720071
7/22/2014,0.099714748,-0.329909898,0.208541723,-0.128226609
7/23/2014,0.063918143,-0.292486058,-0.268354685,-0.270506016
7/24/2014,-0.36686349,0.195841793,-0.031900172,-0.374294828
7/25/2014,0.323275817,-0.108776653,-0.443523475,0.480960876
7/28/2014,-0.033719586,0.227009133,0.290816985,-0.39357689
7/29/2014,0.204978117,0.485155733,-0.433868976,0.260491334
7/30/2014,-0.303942633,-0.117050059,-0.32495278,-0.242783383
7/31/2014,0.355285031,-0.34346224,-0.480961652,-0.259950241
8/1/2014,0.359068126,0.05476536,-0.054453821,0.418417543
8/4/2014,0.461608354,0.004259344,0.497515944,-0.066443592
8/5/2014,-0.435170244,-0.40053505,-0.313791584,-0.358596949
8/6/2014,0.05530423,0.491925611,0.084315821,0.172527991
8/7/2014,0.452058656,0.266478457,0.270020676,-0.319335763
8/8/2014,-0.177985401,-0.355039925,0.335413223,-0.473610019
8/11/2014,-0.208414631,0.191909451,-0.428461525,-0.275077205
8/12/2014,0.486365478,0.48145955,-0.223461841,0.175922985
8/13/2014,-0.467943028,-0.451517288,-0.04333535,-0.17803159
8/14/2014,-0.382564884,-0.380188567,0.43588964,0.005832581
8/15/2014,0.465225521,0.433895489,0.099315952,-0.111814874
8/18/2014,0.141871749,-0.079410397,0.408995719,-0.237805953
8/19/2014,-0.048474724,-0.121250045,0.404402847,-0.123234314
8/20/2014,-0.267988509,-0.373205454,-0.272621802,-0.146821947
8/21/2014,0.210992233,-0.151093462,0.254011129,-0.327220361
8/22/2014,0.451987324,-0.189326564,-0.051290041,0.472379891
8/25/2014,0.492283304,0.234560671,0.109379402,0.342085049
8/26/2014,0.197182863,0.04926636,-0.059271101,0.059480283
8/27/2014,0.206548075,0.198566721,0.274698565,0.370458308
8/28/2014,0.077536243,0.388001948,-0.190768171,-0.350854465
8/29/2014,-0.379067523,0.145267203,0.271083708,0.326747141
9/2/2014,0.225464695,-0.094821144,-0.042704643,-0.362371857
9/3/2014,-0.141859733,-0.380598928,0.313083956,-0.327115531
9/4/2014,0.160529452,0.127989505,0.420744935,0.097324164
9/5/2014,-0.499732816,0.201823048,-0.252126814,-0.235015417
9/8/2014,-0.272679622,0.162197814,0.451803106,-0.15317822
9/9/2014,0.345048254,-0.124618944,0.205025725,0.055892755
9/10/2014,0.42605496,0.430251758,0.23653169,-0.387356713
9/11/2014,0.079444966,0.015263308,-0.273818542,-0.453295898
9/12/2014,-0.438108944,-0.496232733,-0.109215638,0.301654307
9/15/2014,0.296461217,0.422342399,0.044199799,0.155522766
9/16/2014,0.431769659,0.452093601,0.27185209,0.219101169
9/17/2014,-0.472974123,-0.464206546,0.267656147,-0.019066395
9/18/2014,-0.364992294,0.003071879,-0.122372687,-0.479349811
9/19/2014,-0.347464462,-0.467823893,-0.014715459,-0.120360563
9/22/2014,0.092114831,0.001497876,0.011877042,-0.408203889
9/23/2014,0.466435369,-0.478624471,-0.418754506,0.206737921
9/24/2014,0.10434491,-0.158895366,0.013830147,0.258171274
9/25/2014,0.371990586,-0.021708623,-0.392539254,0.063357224
9/26/2014,0.39036754,0.035847395,-0.282096938,-0.092826068
9/29/2014,-0.433787349,-0.04340699,-0.160972527,-0.149772075
9/30/2014,0.469208758,-0.41827814,-0.012830943,0.407576982
10/1/2014,0.347514222,-0.168028796,-0.002797072,-0.201135652
10/2/2014,0.101110223,0.176956381,-0.480929972,-0.07964102
10/3/2014,0.435993396,0.349427744,-0.218327791,0.287730766
10/6/2014,0.105514002,-0.377791009,-0.418870144,0.209015381
10/7/2014,-0.48434753,0.045318494,0.393304399,0.100151979
10/8/2014,0.287428956,-0.285270274,-0.433119572,0.151728639
10/9/2014,-0.107485609,-0.174139093,-0.123829378,-0.064670419
10/10/2014,-0.294362471,-0.4957494,0.142272824,0.457875119
10/13/2014,0.360844366,0.484529485,0.266305488,0.033048025
10/14/2014,0.104378892,0.320260072,0.487241302,-0.09981381
10/15/2014,-0.099600154,0.036505245,-0.476244162,-0.165452607
10/16/2014,-0.259209116,0.279733481,0.473781902,0.4637628
10/17/2014,0.137493097,0.008386564,-0.135131482,-0.374449737
10/20/2014,-0.091231062,-0.439692132,-0.473596096,-0.033255634
10/21/2014,-0.475049594,-0.415091138,0.357242006,-0.311426072
10/22/2014,-0.360532562,-0.147997021,-0.231073505,0.329977262
10/23/2014,0.069319959,-0.188946252,0.253966385,-0.487493347
10/24/2014,0.339364148,-0.485336536,-0.070027942,-0.1311791
10/27/2014,-0.137048909,0.407176495,0.067957048,0.024307081
10/28/2014,-0.288716544,0.156262625,-0.131148195,-0.167640614
10/29/2014,0.292586186,0.326516918,-0.063161166,0.026294782
10/30/2014,0.497871409,0.094009961,0.118972991,0.289784048
10/31/2014,-0.201521531,0.32365675,0.031322894,0.056886321
11/3/2014,-0.300309444,0.294839386,0.04471951,0.190381371
11/4/2014,0.498319191,0.238125714,-0.337100373,-0.472334207
11/5/2014,-0.118347636,0.010304299,-0.309889692,0.105291666
11/6/2014,-0.380033618,-0.463877084,0.12256455,-0.362503375
11/7/2014,-0.25152023,-0.311736248,0.275765382,-0.155125799
11/10/2014,-0.203354883,-0.357504484,-0.261666459,0.247304044
11/11/2014,0.09644988,0.441512187,0.199251098,-0.315441797
11/12/2014,0.387866042,-0.065829669,0.090082838,0.403587358
11/13/2014,0.483715158,0.313103329,0.13826985,-0.153807237
11/14/2014,-0.201283469,-0.402290923,0.257294059,-0.232814511
11/17/2014,0.434185193,-0.273986951,0.309255024,-0.31992151
11/18/2014,-0.002966741,0.100767971,-0.439914659,0.363131759
11/19/2014,-0.00147513,0.132911381,0.198468022,-0.296460215
11/20/2014,0.22942082,0.347733965,0.198134229,-0.343830252
11/21/2014,-0.13962372,0.337993766,0.308819463,0.290040988
11/24/2014,0.039688122,-0.341037323,0.151522349,-0.427886206
11/25/2014,0.149798878,0.440246928,0.044259039,-0.274105595
11/26/2014,0.036634724,0.135580826,-0.128354219,0.163684539
11/28/2014,0.009593395,-0.423972789,-0.491126661,-0.083588163
12/1/2014,0.228804774,0.022964208,-0.028627228,0.135039307
12/2/2014,-0.165039816,0.127999229,-0.428927328,-0.09213859
12/3/2014,-0.390836257,0.499905477,-0.263737188,0.289961873
12/4/2014,0.185272259,0.283409733,-0.000421364,0.273273164
12/5/2014,0.30195616,0.237924873,0.05069457,0.17367263
12/8/2014,-0.267179028,0.250260456,0.419507616,0.112446684
12/9/2014,-0.381682275,0.429441635,-0.01749783,-0.111997093
12/10/2014,0.303890599,0.332606769,-0.408465802,-0.082374336
12/11/2014,0.384234197,-0.281345582,-0.380374222,-0.272418149
12/12/2014,-0.121777721,-0.304683618,-0.281758782,0.230400915
12/15/2014,-0.408960253,-0.009396359,-0.199538794,0.272824554
12/16/2014,0.38536636,0.455425714,0.16365831,-0.436427409
12/17/2014,-0.177824149,-0.421978791,-0.499751858,0.138072291
12/18/2014,-0.324645557,-0.3251189,-0.478659282,0.451241454
12/19/2014,-0.321621256,-0.278812039,0.180392277,0.08164051
12/22/2014,-0.220508755,0.494465298,-0.025165566,-0.046185716
12/23/2014,-0.335335369,-0.154069288,0.458110919,-0.329916703
12/24/2014,0.255970961,0.1234435,-0.253709505,0.383534908
12/26/2014,-0.329316264,0.133155554,-0.130754506,-0.078159828
12/29/2014,-0.120837955,0.144551092,-0.495808457,0.036730493
12/30/2014,0.061248365,0.010196217,0.33832874,0.273502283
12/31/2014,0.372013516,0.368490633,0.358462242,0.434694178
