date,C_MAIN1,C_MAIN2,S_MAIN1,S_MAIN2
2012-01-03,0.08952708964519585,-0.31798222088155514,0.34809467835871455,0.2892777858602884
2012-01-04,-0.0952983013856783,0.04316080723379734,-0.19652778519243308,0.13930194093892467
2012-01-05,0.4739634825047231,-0.3416608895250053,0.4646447215037568,0.2253922783700152
2012-01-06,-0.020742218849317262,-0.304962194757338,-0.1456425600057335,0.43469559871897534
2012-01-09,0.1616856283549868,0.13605253204452228,-0.3221525229368577,0.07355168746285845
2012-01-10,0.05140233242812042,-0.2086314374883531,-0.2913341217293314,-0.30447435751144714
2012-01-11,-0.03227961023168657,0.4563798425759018,0.11447603533382622,0.339045079478801
2012-01-12,-0.20656631528573577,-0.31987800084337703,0.13991789344984007,0.19102045291290437
2012-01-13,-0.04169162029406415,0.28230516184478016,0.15417660785032095,0.14858687838160733
2012-01-17,-0.01408925167227204,-0.19796299770595738,-0.2591351272001975,-0.41555727458089675
2012-01-18,0.009458033737344329,-0.187482939186132,-0.3766036195460041,-0.2983086736878068
2012-01-19,-0.020313170484036247,-0.23113370031343672,0.22641742563526135,-0.36039967551264096
2012-01-20,0.49098112929253257,0.3952139379771189,-0.49405282022190244,0.12112683439808114
2012-01-23,0.008409892507245553,-0.08119165668698192,0.41233979344634564,0.10586187182302731
2012-01-24,-0.4697316106506001,0.264273723504296,-0.22299126444600137,-0.021299567380702933
2012-01-25,0.47159754268366105,0.0015579866174199042,-0.05468225098971635,-0.18575844765078997
2012-01-26,-0.16213156696634223,-0.1280021851614107,0.0894116295277394,0.24251149596867638
2012-01-27,-0.29492076686387436,0.4179590574330493,0.3085020082698743,-0.11527714013478785
2012-01-30,-0.03386816600617337,-0.3496563378079841,0.21388822973334998,0.2747229543941371
2012-01-31,0.3986234531576879,-0.22768348530957383,0.2181649937848692,-0.4466504559098059
2012-02-01,-0.04627156463666249,-0.31364894791475073,0.13561072239415173,0.3428407185982085
2012-02-02,0.4729327724316308,-0.005840875875850138,0.481341184286028,0.3710897990293054
2012-02-03,0.46702442874184613,0.08798623608639666,0.1751884886780869,-0.04659896508575778
2012-02-06,-0.048907942138612714,0.0704914870088944,0.4877508418776809,-0.18520359199584846
2012-02-07,-0.4697801099377935,0.49026770244375895,0.4612502488856761,0.4886237386189055
2012-02-08,0.16370820656083018,0.29628686029441764,0.12197853647801282,0.4904873302740995
2012-02-09,-0.2559117023552555,0.03328755365136904,0.12608723317124915,-0.32368153193929394
2012-02-10,0.4187854388873591,0.36934063938075756,0.3485043306138793,-0.4562402123222604
2012-02-13,-0.20303105529228793,-0.23042526566492805,-0.11067216368510069,-0.49576457675639385
2012-02-14,0.3898881130347289,0.27193733200246817,0.21831215810012394,-0.04260847950754976
2012-02-15,0.3951444156249455,-0.33554200045438787,0.253462873113833,-0.17409179066170133
2012-02-16,-0.2505771622755326,0.20890805240282873,0.0707195758316379,-0.45974714203487377
2012-02-17,0.09967670293314757,-0.4164998189292132,-0.20486701004468422,-0.0045568848405910245
2012-02-21,-0.3389440316917468,0.30194711002902364,-0.47433010005683085,0.46600618549956174
2012-02-22,-0.4786908817964456,-0.01866674119261391,0.17226545042960384,0.11877202975813173
2012-02-23,0.049312092464680934,-0.22166117924509998,-0.36512369928665134,0.3704324788082233
2012-02-24,-0.3730908817955939,0.46979947670862787,0.028957520575256912,0.3290798708686242
2012-02-27,-0.07295934135304971,-0.18539344837539196,-0.14593629391774154,0.07134065142673995
2012-02-28,0.02993776490253819,-0.38929920328172685,-0.18507224975817027,0.19714625577662293
2012-02-29,-0.36845376861456736,0.3754914977018342,0.4524620926197388,-0.3009186320692281
2012-03-01,-0.4778811260200202,-0.08417771929210982,-0.08027691306110585,-0.2827717224947015
2012-03-02,0.06149483082975393,0.2884496443697375,-0.4493096192015298,-0.28864875542239066
2012-03-05,-0.2598042567539063,-0.008019099775156135,0.16924940411585176,-0.003049034993106936
2012-03-06,0.2954074917502565,-0.14361287482661445,-0.47608893781802664,-0.37929021105742733
2012-03-07,0.16560639137282962,-0.43640844457927275,-0.06830537182452967,-0.4566592767033235
2012-03-08,-0.03873780505736735,0.004158231812592561,-0.30121774322388195,-0.29776484197548947
2012-03-09,-0.4398443182036401,-0.2161549196892424,-0.20200138224001307,-0.2556260271913726
2012-03-12,0.3498944656612144,-0.08828923686717405,-0.2580839212608824,-0.24690649548514787
2012-03-13,0.23196575384914342,0.21183154606096022,-0.10727219428129942,-0.19229342758467793
2012-03-14,-0.02269173787714407,-0.146796744664482,-0.2115779717186358,0.1702049776513077
2012-03-15,-0.2459501465242674,0.20070680625771486,-0.49597189959329313,-0.1274431432936577
2012-03-16,-0.004668939749255863,0.34200495757668414,-0.4492418132465378,-0.16075407491024296
2012-03-19,0.18245019259566264,0.049917559499682906,0.4494199025347676,-0.3571904487345332
2012-03-20,0.43600384402102743,0.05002334317539836,0.4251184095282152,0.4674948758849067
2012-03-21,0.22085408984399668,0.18456893232248894,0.3028284706303611,0.3356312778944238
2012-03-22,0.197870264660991,0.08912795394225403,0.27710905414283304,0.47585266015101446
2012-03-23,0.3535405087026193,-0.28782044870392476,-0.4921329867626323,0.3662725499965418
2012-03-26,0.22449323768824359,-0.44758053978422174,0.3514906744022859,-0.35321915551941696
2012-03-27,-0.4784873023938214,0.39774931350979115,0.18285059717279717,0.3637994774512555
2012-03-28,-0.0914926436841762,0.3062752700635841,0.34133135952161875,-0.4315996460364091
2012-03-29,-0.1477574642494316,0.08539330763250697,0.031200914734118346,0.1570568475712183
2012-03-30,0.14945179754901594,0.37354077604930114,0.35204506807811153,0.04062513315618499
2012-04-02,0.3113291962700063,0.25528685873081636,-0.26789355615991484,0.3685114424150089
2012-04-03,0.2300104840082251,0.09957281130300066,-0.04086582626769675,-0.24447304286864058
2012-04-04,0.20970666772119495,0.21599090367162,0.26023034626135455,0.4799919788951805
2012-04-05,-0.3006855180963387,0.35711010098407125,-0.367267423724393,0.27248738250741444
2012-04-09,-0.09784890560992565,-0.29575439640357615,-0.43181523495733143,-0.2729009969779399
2012-04-10,0.4971765216172327,0.35934293234009274,-0.19970109533982205,-0.11534073457510552
2012-04-11,0.262296457009047,0.3757537526113751,-0.059021176261736974,0.034611402932737234
2012-04-12,0.1624900814600042,0.24294293183301963,-0.2750905095120785,0.27725726190062894
2012-04-13,-0.22370645634830688,0.42480932073362654,0.03778683101890101,-0.3430499116471334
2012-04-16,0.32979325909891966,0.14171818096136313,-0.1897035385417588,-0.2692516659021762
2012-04-17,0.09779714901119063,0.49063265122473065,-0.08397617721028316,-0.21503120127032993
2012-04-18,-0.35408619986682777,0.25423435539755335,-0.07454585461148389,0.09102521369020156
2012-04-19,-0.4673833388565367,0.06353981876058945,0.38841356534880855,0.26233752198668314
2012-04-20,0.36574097663409477,0.49319752964147767,-0.1714947859768079,0.0861242435246573
2012-04-23,-0.2124062689399725,-0.11397825573248088,-0.4221007201159175,0.38859930731507863
2012-04-24,0.057271233542687816,-0.03656446012975545,-0.36688395492621795,-0.45175052780443425
2012-04-25,-0.025124706031518507,0.13731451097914715,0.45696806932246503,0.3756235394029571
2012-04-26,0.26928347862331226,-0.06478399202164753,0.06615804987175367,0.2860296341680242
2012-04-27,0.12629741581269294,-0.10778495869474058,0.30336300551094764,0.3704489954327388
2012-04-30,0.09240216829740944,-0.02704024345517919,-0.13130511214177865,-0.11564995118972266
2012-05-01,-0.17841006868212306,0.4617097799695422,-0.23269795007795202,-0.26848072853387805
2012-05-02,0.08416412965801323,0.34085149363651046,0.14183709224009133,0.12411988506065863
2012-05-03,0.006881985383209832,0.12766143170264066,-0.20463622492068645,-0.13682926125663963
2012-05-04,-0.39120367853842686,0.05014813156348885,-0.45595429228018136,0.02193357400700613
2012-05-07,-0.03900608223047741,-0.48224995863601305,-0.3343049167943657,0.17203339646165638
2012-05-08,0.15714458615908433,-0.08763591787596725,-0.36143214395029255,-0.23886082236660577
2012-05-09,0.17347888627742103,0.18187533139494239,0.03672844503439654,0.04554334190948173
2012-05-10,-0.37334266228914514,-0.05434413858287346,-0.06602072041894502,0.2020007663348169
2012-05-11,0.11569287325980837,0.08699736775613764,0.26148111990690925,-0.3034861646608814
2012-05-14,-0.26916879745197,0.11715050192447618,0.020873975188786198,-0.30923672638752675
2012-05-15,0.4737748019980399,-0.4535226627417305,0.09944359549443771,0.2780053780240571
2012-05-16,-0.0018004816822727587,-0.03175138164878111,0.3939318050115912,-0.12912823369927728
2012-05-17,-0.4152195571569748,-0.31085930418906094,0.2733579380442275,-0.002969185085614723
2012-05-18,-0.1783329379193298,0.4203880519577854,0.2434464714028357,-0.17586348611384983
2012-05-21,-0.04111953866222762,0.13557287533948426,-0.04450753393835061,-0.4069407827807777
2012-05-22,0.14968941435168504,-0.04656557386201643,-0.29152985586997493,0.24896436486717688
2012-05-23,0.2817880948749848,0.101706280417306,-0.2652787556811389,0.32022436814167254
2012-05-24,-0.05054804213896369,0.137066395432075,-0.23302134976637723,-0.45301850822363077
2012-05-25,-0.028873822683506467,0.4134085039233283,0.4198822509875084,-0.07229470770666613
2012-05-29,-0.33972352713165954,-0.4696224522287058,0.04701456703570739,0.39668575126238603
2012-05-30,0.4704633362860763,0.352240895391288,-0.3547414621626087,-0.4223752099411723
2012-05-31,-0.2127716807152421,0.1633257397760015,-0.2971237515050099,-0.13797920633386174
2012-06-01,0.27289217281794154,0.4416280110398252,-0.1621814950815491,-0.1479123573636344
2012-06-04,-0.22598292674471054,0.1741111681861527,-0.3067626716972488,-0.2787156223626527
2012-06-05,0.21972016508819237,-0.24694267234479872,-0.4943415692053088,0.10884255854344382
2012-06-06,-0.1917803657834124,0.29023366667318273,-0.17838831474979255,0.4987036841775505
2012-06-07,-0.3548679054255661,-0.20800807079526318,-0.2980005648980121,-0.11868736955281545
2012-06-08,0.3343661902377747,-0.16119009242318572,-0.16452930769755736,0.1127196009186584
2012-06-11,-0.1648513296476556,0.0035719612392458577,-0.3370772191501036,0.1660827446827945
2012-06-12,-0.12210874477704547,-0.10639115348965755,0.40931276203168343,0.47081600736237117
2012-06-13,0.27224683537702643,0.3819433538189514,0.43105251204488715,-0.20534282998859277
2012-06-14,-0.18338736915621034,0.36702082743052655,-0.286611084335169,0.49540278149000805
2012-06-15,-0.23644028334724276,0.14805172693340551,-0.4530726840677579,0.28037548766466613
2012-06-18,-0.1347059514555934,0.12860058886676717,-0.4454465696841764,0.48811608826513586
2012-06-19,0.39578094151107546,-0.02254408324898005,-0.4562874522368868,0.2713907703365521
2012-06-20,-0.055910874018561985,-0.37331003761617243,0.2838958029572407,-0.3827158277016983
2012-06-21,-0.24368217276932613,-0.19639087758677853,-0.41153470372941536,0.31462330557461593
2012-06-22,-0.06206573413769889,-0.44236787884719675,0.26626065300194024,0.3711258825086746
2012-06-25,0.46675711254159635,-0.3880009163110779,0.4360404122399961,0.11732234005108555
2012-06-26,-0.057004921162288946,0.014075232006982574,-0.4368137124497511,-0.0183439438300238
2012-06-27,0.3838331147193401,0.22961608566239944,-0.3326757989579715,0.09975652186713624
2012-06-28,-0.2976440020150454,-0.2723232065272113,-0.3197676403856883,0.23420365070251647
2012-06-29,-0.12868617262797455,0.3232749361167401,-0.3829134592195005,-0.13476975859009288
2012-07-02,0.15050973247942556,0.30839089672799647,-0.45097937457139314,-0.33497399011796747
2012-07-03,-0.12318285497570813,0.21922154664464755,-0.2018161191700356,-0.3144147024010284
2012-07-05,0.397673922339282,-0.2963333141490978,0.37471524508041965,0.16824161562096684
2012-07-06,-0.15872689730241607,-0.3484432893687195,-0.05785018625254046,0.40925887637999514
2012-07-09,0.11444401633319645,-0.3628692188458581,0.008572188268889835,-0.3074205958987203
2012-07-10,0.1412725723433399,0.3621136432984803,-0.31852051199527376,0.06131209480472022
2012-07-11,0.47150277005035657,-0.017924201243582072,0.09419074101604963,0.2597466882188547
2012-07-12,-0.2018103727818682,-0.430873601910544,0.33643966173348483,-0.2843684769250424
2012-07-13,0.17274177157621629,-0.04215069856946607,0.30080009236847716,-0.20072647256237308
2012-07-16,-0.22070273669784402,-0.4315831622415488,0.4382418667956256,-0.02162233838425942
2012-07-17,0.4728480789444821,0.21425345913110216,-0.379941308304133,-0.269504068078277
2012-07-18,-0.4861576287227237,-0.3965637445347876,0.1734555202518162,0.16185186339339808
2012-07-19,-0.0693715654773468,-0.3391025887046186,0.09222525852682972,-0.362519733944201
2012-07-20,0.05628034250910563,-0.017792771864751034,0.4777627321079283,0.23558660912344065
2012-07-23,-0.15787926252313822,-0.08424250131126987,0.23944728709892404,-0.3042572024373772
2012-07-24,0.18610294948535655,-0.09198325108845706,-0.30157098388372017,-0.3455634110619106
2012-07-25,-0.3784657755143639,-0.30644632906075064,0.021841588945904822,0.47223369125145054
2012-07-26,-0.21924496966512186,-0.3170919830469586,0.34414240626990344,0.06050330867965792
2012-07-27,-0.49915576559922104,-0.02680573889518645,0.449533684500377,0.15621002920711913
2012-07-30,-0.31548467203811803,0.14986331092751182,-0.13421311676840375,-0.20864399925838095
2012-07-31,0.39793496244036297,0.349781252814392,-0.24668239339827835,0.12089084173095077
2012-08-01,0.12119596473275285,0.4229708344253993,0.30999569513854297,-0.010474732340329918
2012-08-02,-0.36102050016625664,-0.07762295148986387,0.04020858145558337,0.39349963579416725
2012-08-03,0.07135586666991178,-0.01303517396922027,-0.4224233098364497,-0.4924100672514634
2012-08-06,0.3544960158805808,-0.09075763151717653,0.08215235929143871,-0.455434840845667
2012-08-07,-0.29653494692658644,0.2840111872915527,-0.4133125796939383,-0.43266707236734214
2012-08-08,-0.2914112347641221,0.3952293056385684,0.2621567400113065,0.14474393349001757
2012-08-09,-0.18514553687324853,-0.06835916187762447,0.3898884340096741,-0.4906645526449166
2012-08-10,-0.4717397434290367,-0.3226913412428295,-0.29907176320463513,0.21793277493955865
2012-08-13,0.40595527216375027,0.2373516562218957,0.18269442152694892,-0.18998818022868524
2012-08-14,-0.4728753741073811,-0.34887240758179106,-0.06014408183563613,0.48480180379411497
2012-08-15,-0.0457363746921996,-0.4761347770171226,0.3343206151236433,0.11250552811297843
2012-08-16,-0.21116004523679843,-0.07293538742686745,0.203573943558509,0.05655110690256704
2012-08-17,0.13617452933960927,-0.2057548129274016,-0.42152655163998853,0.15573108574498762
2012-08-20,0.3195283905940516,-0.15587264584041616,-0.2504973347632028,-0.13971684160018116
2012-08-21,-0.1407953979865182,-0.38227533914691236,0.40127613254130956,0.3448398628378224
2012-08-22,-0.07522766738119613,0.06896459746232053,0.17223963295523737,0.0023378864371566
2012-08-23,0.3339044421696258,-0.14683912965961554,0.437168707255262,-0.3705075171195633
2012-08-24,-0.1960752233093419,0.40252433720083924,0.45598468738958875,-0.06398645070915732
2012-08-27,-0.3625234478874019,0.0729608072859147,0.3708950863726713,-0.055773939400863504
2012-08-28,0.23579446004773008,0.49488905364991154,-0.020916841868183877,0.17157239721133533
2012-08-29,0.40560650559760747,0.04519561480591239,-0.47716450641196095,0.32805270852648505
2012-08-30,0.4846993313620016,-0.015444934784654252,0.24650722727826235,0.09201768144291145
2012-08-31,0.019501593194992894,-0.010735068313249996,-0.07698312296098886,-0.3707800357035408
2012-09-04,-0.20891324467721295,-0.1391476814377216,0.02370775864729535,-0.12292546394825254
2012-09-05,0.23084724586276317,0.15767768404759896,-0.4443164887958133,-0.49209564734303746
2012-09-06,-0.24743258704326432,0.26333629428203,-0.2608168211264693,-0.33690232678820176
2012-09-07,-0.0660995088205214,-0.25900633783803706,-0.41659054475169743,-0.018122649746628472
2012-09-10,0.09772082821580841,-0.34664505595824613,-0.283467095368769,-0.11929288601782717
2012-09-11,0.3071800351221561,-0.2893709885797906,0.47331517623499664,0.492019405534871
2012-09-12,0.23719964627760526,0.3501316681019597,-0.13240698856206223,-0.057410608782910266
2012-09-13,0.11318823573186187,-0.07212262030258831,-0.2221998376230877,-0.4769537092068479
2012-09-14,0.060937369257100915,0.4154972008791783,-0.23894873072185852,-0.16131869466252236
2012-09-17,-0.2954245294711847,-0.005673421370337994,0.10681362811935158,-0.13074598114852476
2012-09-18,-0.2094227523422666,0.4216105612584544,0.08535248180310662,-0.3534415835844127
2012-09-19,0.04626669183941734,0.13346969966434552,0.3396008472615295,0.1294852061476035
2012-09-20,-0.1274591875728338,-0.4415394493502406,0.34067133743217637,-0.3294251363050237
2012-09-21,-0.4236617806732277,-0.37239762937738896,-0.39836973643238693,-0.27503270148757375
2012-09-24,0.47801968757470903,-0.21694285260169688,-0.1506937799905711,-0.2637619640992662
2012-09-25,0.23953952236225395,-0.4949747349179484,0.1698008323980894,-0.006919472272038263
2012-09-26,-0.2966721224583404,0.24198215661592393,0.17910896280643696,-0.24399934079637375
2012-09-27,0.22018870582674532,-0.08091589503801144,-0.19062648365362056,-0.4933689898624929
2012-09-28,0.13373677862509725,-0.03757426384510132,0.3748840782322933,-0.4669515289191952
2012-10-01,-0.18941786840286168,-0.256985001256515,-0.4949918273480184,0.15519598193932183
2012-10-02,0.28075027068383573,0.44635996678797574,-0.2493330763593815,-0.25256611633484005
2012-10-03,0.33369208222287605,0.28152955853607575,-0.45171623943502326,0.06308906726981578
2012-10-04,-0.13790473571474426,0.2879104732310601,0.4749549920132341,-0.47398840934794917
2012-10-05,-0.10484926409401785,0.17806161431018008,-0.32514587342817625,0.26267445944723034
2012-10-08,-0.004939369039289709,-0.3851465556549768,-0.41658824556038465,-0.014878168209129239
2012-10-09,-0.06368748357077392,-0.015603467298617613,0.014859439884938985,0.0807483008593356
2012-10-10,-0.3688670236196012,0.11761961270162846,0.2402318275437768,-0.1754971324510758
2012-10-11,0.46745267286847403,-0.11361443527311132,0.32777101945333154,-0.3482659362802668
2012-10-12,-0.2819871608953144,0.43109235718086814,-0.25269474545769144,0.21862285125730585
2012-10-15,-0.2782595942959999,-0.3525055708673155,0.27103884736489026,-0.43032940589983637
2012-10-16,-0.04387884281001253,0.0864356632591452,-0.274106556006522,-0.06368524410206478
2012-10-17,0.04299641350289518,-0.43013779350021275,0.14977468805500105,0.34487247132001053
2012-10-18,0.2973787452774631,0.07436476337929765,-0.18876661512668336,0.39304422357995517
2012-10-19,-0.4781536338375323,-0.3052128672389137,-0.29209794458192784,-0.3954930936168246
2012-10-22,-0.41773424916778734,-0.4121729624774514,0.2510466981916446,-0.16449779322849645
2012-10-23,-0.03890108391643354,0.3263396618406412,0.492405594769198,-0.31470508345214154
2012-10-24,0.2954512024807634,0.3014025185311112,0.24097336309894624,0.13167662085039444
2012-10-25,0.39559273266307904,0.0157975727281936,-0.41037908967661485,-0.07832706851160409
2012-10-26,0.08056667466198242,-0.0682960072087796,-0.0751252119889837,0.3192745091813348
2012-10-29,-0.21103175458962187,0.0011624455645723453,0.0023790193685429006,0.011814495600021346
2012-10-30,0.37583012112907177,-0.17299692303166336,-0.059654403586582694,0.22876758542860642
2012-10-31,-0.0025909277022535537,0.4472109080439779,-0.016270683001052166,-0.3891541468935211
2012-11-01,-0.34172895931101366,-0.15871345026888162,0.22413339899839224,0.08626878948822014
2012-11-02,-0.2210486730095842,0.49725993346169073,0.49994986851818346,0.21129135700942925
2012-11-05,0.1685062066474744,-0.06874523731632665,0.05601448614216187,-0.32528271367055817
2012-11-06,-0.08423300956393309,-0.34862407866966805,-0.46912543018518427,0.3824720714085752
2012-11-07,-0.424633931725793,-0.4072940776798798,0.2707801526243765,0.05501468118398256
2012-11-08,0.06177973746948984,0.2977480523362338,0.09320894391653978,-0.038173054807602025
2012-11-09,-0.246789807471689,0.18877292857707884,0.1794116900699697,-0.24844803715480035
2012-11-12,0.46963061457127653,0.37578852814387576,0.08181463877549167,-0.1509969855188964
2012-11-13,-0.1642778925992524,-0.28851237525712436,-0.29128409112611653,-0.23386584827384937
2012-11-14,-0.48299451618426226,0.0744955194476229,-0.12870485435710444,-0.1510290207258962
2012-11-15,0.24439438180402384,-0.2872786956717831,-0.14687814284312495,0.24513754686669875
2012-11-16,0.21932347108355066,-0.284850188079422,-0.2196680647235083,0.39764612456369464
2012-11-19,0.4049243005966868,-0.3614562418037275,0.16446048546263736,-0.3104009211713378
2012-11-20,-0.11814048079389239,-0.23586852096506694,-0.3892660793824121,-0.34706451334916577
2012-11-21,0.366626157913995,0.43051195722397195,-0.020895418651388442,0.29067327633405526
2012-11-23,-0.4513841036297134,-0.0740643042082384,0.22327368777141499,0.10625873168103306
2012-11-26,-0.24716071793224248,-0.17050631531928673,-0.19324487101771715,-0.14372631766956834
2012-11-27,0.009712334906761821,-0.1774712107915728,0.3968853559868635,-0.34870337777783256
2012-11-28,0.09192301280498882,0.28249476464843926,0.41152050919889616,0.3221451853509679
2012-11-29,-0.23140221579381948,0.03960491878755523,0.4844979214275771,-0.04951887403096478
2012-11-30,0.06621121797846041,0.34815732041924286,0.2943801799531375,0.4294605761651874
2012-12-03,0.3370653356485528,-0.11467335891225416,0.011008218598506758,-0.4424383091822638
2012-12-04,-0.16137800856641926,0.28046797325113604,0.10431165483762428,-0.1764235956212905
2012-12-05,0.1483318184916823,0.2574516054106244,0.31181409916600555,-0.16086211250251448
2012-12-06,-0.27355684298379546,-0.4440578221841417,-0.47413813554038187,0.22401678515815626
2012-12-07,-0.18820886569872963,-0.45544350738995465,0.2864394499528745,0.09555104458518027
2012-12-10,-0.04788434702309885,-0.23842137826460275,0.06533528804871247,0.24488512893098535
2012-12-11,-0.3121356520305494,0.46083624300498727,-0.4015892536944109,-0.37351809507860556
2012-12-12,-0.33267121858284243,-0.2820633111325961,0.2730650935294878,0.1829930910127816
2012-12-13,0.49817069127109204,-0.23684584176631585,0.30215939198469055,0.13886837904824811
2012-12-14,0.3839235947595978,-0.2411155507781383,-0.4846457743407355,-0.07642098560842325
2012-12-17,-0.3994726268447092,-0.08962550623600851,0.3076889044545178,0.4274466834797992
2012-12-18,-0.48621503981215874,-0.08874348158100398,0.4047839803448511,0.02752852259469163
2012-12-19,0.4253233925609592,-0.2475275859886561,-0.023671592275256392,0.36550545301954707
2012-12-20,0.058172493465448616,0.245838323844084,0.3281582519077645,-0.11544008819119556
2012-12-21,0.22997619557503413,-0.17965710079262032,0.17889925596981548,0.4519071411815486
2012-12-24,-0.14319136188576387,0.16011207624882517,0.27090001458909385,-0.45933013095110853
2012-12-26,-0.29678652133549155,-0.10003519250090898,0.30799494604394484,0.39736418305423804
2012-12-27,-0.28533388695399065,0.39849371430741753,-0.06286513036940511,0.13205285826691715
2012-12-28,-0.3253175471672728,-0.4181507739546061,0.2980157911377722,-0.1896917508831082
2012-12-31,0.22101913155688968,0.08056581737960755,-0.13440819546635985,0.06743421685113982
2013-01-02,0.15737812452608013,-0.3044108204861684,-0.08885592543326992,0.30582721262615964
2013-01-03,0.11197669670318122,-0.322536933654473,-0.08267826811678514,-0.399114150679192
2013-01-04,-0.3708699839417062,0.35973206236499566,-0.07557884925900837,-0.004490694849034305
2013-01-07,0.380331786966968,-0.25255440901431936,0.48215731088869096,-0.06476001055594771
2013-01-08,0.4555653602201347,-0.16720279069305077,-0.061552436061996896,-0.14319928394847614
2013-01-09,0.4228128675563727,0.21279058043004018,-0.4222615558123287,-0.17408426049820047
2013-01-10,-0.08176493714700384,-0.13241477018513492,-0.41957523058614654,-0.1709816186040244
2013-01-11,0.2653394961169925,0.4178104152507264,0.23689795603204655,0.470965179502417
2013-01-14,-0.4114422132797211,-0.21904441744513714,-0.21013055780969414,-0.19787711017957854
2013-01-15,0.11431621746172316,-0.4034589888789849,-0.30153349981881217,0.3578621158889551
2013-01-16,0.1667238929252085,-0.3145561968007421,0.3752604808188067,-0.1160176707812034
2013-01-17,-0.42017582351408156,-0.07172123247446094,0.3250458630430527,0.20101561203006302
2013-01-18,0.46086387456799494,-0.2725867246789998,-0.07923144848641217,-0.23999371122950874
2013-01-22,-0.4444043222148655,0.34382980334758584,-0.3906288718797416,-0.24710441318210608
2013-01-23,-0.32319404953036823,0.39712211133697384,0.4510891539276016,0.26786229267180217
2013-01-24,-0.35577462490254375,-0.49339193031103357,0.32968983894832604,0.28769250175904404
2013-01-25,-0.46744137573789823,0.37437546976867464,0.47085574358327276,0.01482475273505346
2013-01-28,-0.49339930700813217,0.0381483147784224,0.3137057833113628,0.4136850870597767
2013-01-29,-0.3631819150789066,0.25004796948742136,-0.34102011605589266,0.35030978031641424
2013-01-30,-0.4951937233601772,-0.48804604419439623,-0.4801774104757288,-0.3537205882636484
2013-01-31,-0.15097520245507712,0.33385341984900363,0.07526403328631559,0.4756608032489207
2013-02-01,0.2940527931068523,0.47809335124240093,-0.45402454874099274,-0.3802464776157537
2013-02-04,0.2758020638495118,-0.35224918570083597,0.0806329677828973,-0.2553288127341131
2013-02-05,-0.13078454215112867,-0.4997393881820167,0.34600818140294387,-0.45080287582145184
2013-02-06,0.03892167340773389,0.22526230186652574,-0.33359552376876034,-0.4404910222736822
2013-02-07,-0.21942413317380371,-0.28388127763539384,0.18070434520143364,-0.27976021866981193
2013-02-08,-0.2429968976016994,-0.44936357383012326,-0.4582850010960444,-0.04240031471709749
2013-02-11,0.06647095721780905,0.31830772527359874,0.49031634594049156,-0.0747659644721842
2013-02-12,0.05043240211442568,0.09952670015998577,0.4978945608634495,0.4312747591466721
2013-02-13,-0.19219986472359674,-0.08992557263232193,0.17348824800659002,-0.014029825825269238
2013-02-14,0.3667483377714442,-0.2974968855420088,0.29135489563947303,0.26448838585490964
2013-02-15,0.0742637911213121,-0.4909056814629973,-0.19576891184602296,0.12413135034885914
2013-02-19,0.3824886977055566,0.3263832058011903,-0.4362137857907733,-0.494333023276623
2013-02-20,0.01042343712851812,0.17139759236061747,0.4265173773611908,-0.18986657586064348
2013-02-21,-0.05653056813355273,0.3874851905411826,0.24869164402239996,0.4209323511825913
2013-02-22,0.28698041044130107,-0.3425630181322895,-0.44521239365183596,-0.12673923158075884
2013-02-25,-0.4757054696308638,0.39612700952772273,-0.028116080895505546,-0.3522891489274719
2013-02-26,0.437031930610813,0.12971857608085435,0.2824775473630675,0.46917436469626117
2013-02-27,0.2584507748212145,0.29011696853474833,0.0433874322012513,-0.17086343813061433
2013-02-28,-0.14888483625106974,-0.3322387635551991,0.2687406762367527,0.37281865047087315
2013-03-01,-0.3950339765295804,-0.036588768819982076,-0.11085395684447652,0.0066162607917903404
2013-03-04,0.4965714823153934,-0.19599558904434267,0.20588625521455317,0.04458437609526866
2013-03-05,-0.153999393125255,-0.44896904312745967,-0.4753130781897039,0.4293070667067408
2013-03-06,-0.004085590292198682,-0.21994123764018858,-0.048006117741645093,0.4028153035477039
2013-03-07,-0.3438932983226928,0.015400513540144822,-0.2910332393120283,0.062029667389692844
2013-03-08,-0.4120420468877378,0.49894840651422,-0.32302430200445653,-0.21904263151174852
2013-03-11,-0.14111144534298803,0.09099367348274934,0.34274377611797646,-0.23729015647695095
2013-03-12,-0.17320888796478284,-0.08505000296671672,0.4508163822813456,-0.30621092172846254
2013-03-13,0.11316897434119,-0.32617093003515885,-0.11126445778176897,-0.16238019687503502
2013-03-14,-0.12609044303756756,0.44934546876737536,-0.0622889730742221,-0.15785395220981424
2013-03-15,-0.40041678938781244,0.34348799578140454,-0.008843792066240419,0.4860263130789688
2013-03-18,0.371615794984419,-0.41555056300786963,-0.175204775326391,0.21295403134717195
2013-03-19,-0.09815584460524385,0.24618478983201275,0.4475692568452685,0.2130113046009472
2013-03-20,-0.2616942782179442,0.33742465035461866,-0.15033401729388196,-0.2376097116424818
2013-03-21,-0.09497616320523738,0.19657475072903097,-0.13444649015508003,0.20979722663813238
2013-03-22,0.3994765466006809,-0.11596626878819727,-0.09543644746249313,-0.16873475818190775
2013-03-25,0.358213598049161,-0.35515104930888286,0.46839714056882265,-0.40682430826017035
2013-03-26,0.402021344887144,-0.2642860490677488,-0.03611255454219853,-0.14271015085304006
2013-03-27,0.4345377478813165,-0.22266647310632381,-0.09601160557832544,-0.06193385285481878
2013-03-28,-0.003778576414555923,0.14567564565137825,0.41917270857069766,0.13984407902888063
2013-04-01,0.005862127041412202,-0.3659245732450058,-0.10117059305037512,-0.36279947570834536
2013-04-02,-0.3694278231786243,0.4426138972699144,-0.2957669782714972,-0.2232993301777073
2013-04-03,-0.13452282380254765,0.052011717635884525,0.3038162320706348,-0.39225977072714413
2013-04-04,-0.2840287872395404,-0.2258922614691361,0.36820254802786445,-0.48760921952614966
2013-04-05,0.18770397908443426,0.3283616160617363,-0.331172109492718,0.05972629830274412
2013-04-08,-0.14764722416675102,0.007258782198505287,0.2096063120971896,0.458830024521407
2013-04-09,-0.2275120572879895,0.46071429413214204,-0.2354561763883497,-0.09355370504983418
2013-04-10,0.012163971828660136,0.34907705450289994,-0.05380923719101294,0.12269323594348025
2013-04-11,0.4321313963893928,-0.39206743994357895,0.2303883222008909,0.2819924934519682
2013-04-12,0.13570693342726092,-0.03975381080009921,-0.42921795125503515,0.3478099827959097
2013-04-15,-0.11531565033022173,-0.24497889435655518,0.2886993201480429,-0.2953606548177792
2013-04-16,0.15969423286183626,-0.4216396432527626,-0.24824988172230178,-0.05843124458559057
2013-04-17,-0.33601621909915813,0.2714146489320768,-0.13395319066635336,0.4004110251450589
2013-04-18,0.4192310429828747,-0.05376648127800465,0.29740764800042807,-0.4153532165006214
2013-04-19,0.2903083848685919,0.13687951084698657,-0.20973230072981064,-0.3872437797755398
2013-04-22,-0.1571386560017367,0.03714052171485893,0.07290818204982497,0.3685317764324456
2013-04-23,0.3362840342655644,0.37024569683737474,0.22101965098800258,0.05662922722181951
2013-04-24,-0.0989875034546237,-0.042522327375378866,0.39229962192564194,-0.07258398810848643
2013-04-25,0.204199305373021,-0.2375975016971985,0.4020613651473114,0.411891767617497
2013-04-26,-0.43670044396887375,0.36374605292067475,0.11208515972006883,0.09020449013181076
2013-04-29,-0.4552136472206938,-0.05260923173832632,-0.4498522579509958,0.39409554087083765
2013-04-30,-0.4989594891241098,-0.2037753639048594,-0.08452426264506852,0.36612202868675026
2013-05-01,-0.3504174527312759,0.4776181841952152,0.011562908719862541,-0.4019678232828955
2013-05-02,0.36086692226886763,0.4796145611926822,0.0903055084851705,0.3937146135462536
2013-05-03,-0.052189966021887635,-0.02764543485117399,-0.4932848430407717,0.48202671111772244
2013-05-06,0.036477780772408264,-0.2792978344028958,-0.4053758916131749,-0.4565149146208851
2013-05-07,0.4259205082233505,-0.2040019965067248,0.21832189410722935,-0.2746305208040586
2013-05-08,-0.34621588731181585,0.07618953277137008,0.14164039718338484,-0.009086071534275542
2013-05-09,0.40783901160832814,-0.03953845969630676,0.22589034519278384,0.3536651425517022
2013-05-10,-0.203555273805067,0.07770449845620264,-0.10646945758571158,-0.4233987338078249
2013-05-13,0.4009882869116286,0.25001047762039386,0.4392766309869357,0.04308166865603824
2013-05-14,-0.004906133497073251,0.256276939862947,0.13571969635601566,-0.4533624625978364
2013-05-15,-0.33660083211566283,0.30224829317714696,0.48080889749895117,-0.09269474170378533
2013-05-16,-0.16767315823802975,-0.4132063368154576,-0.43694527851731,-0.32662843787175433
2013-05-17,-0.3196477220582158,-0.01619533719442734,-0.39700622439414923,0.16047808431311994
2013-05-20,-0.3556922978651901,-0.30238897925982766,-0.19700804114843207,-0.05789900635024181
2013-05-21,-0.11197068801842991,-0.0779533042160383,-0.4329969272253493,-0.38183198812094976
2013-05-22,-0.2200300671870481,-0.09253979516322841,0.10573446230432748,-0.1027306027315249
2013-05-23,0.07172065993685894,-0.4190310217847858,-0.34778258793058126,0.40880053527243665
2013-05-24,0.17418149667110494,-0.0729403487736161,-0.18980625670371598,-0.12084170897122004
2013-05-28,-0.3321473901729831,-0.33980205056153645,0.490646039496238,0.2559715672594278
2013-05-29,0.4281362420821162,-0.4114558802586118,0.49098268358730235,0.3855116469201375
2013-05-30,0.40070518722622583,0.018933527718617893,-0.12157993320657967,0.3524317597564125
2013-05-31,-0.21952374945490238,0.17801421968152908,0.007164437544108004,0.09040577221464541
2013-06-03,-0.27692909826546774,-0.3663339549320761,0.010699296195347596,-0.4385325148488085
2013-06-04,-0.03229934815643887,0.3292562772681512,-0.117731083861634,0.34757271956335467
2013-06-05,-0.035280431889462505,-0.4137563035043017,0.39935518148878824,0.2173444678725749
2013-06-06,-0.2671234521946432,0.34862398698515407,-0.2837673630494353,0.2051331192498761
2013-06-07,0.2281144542575988,-0.12983964017539895,-0.37673537906813126,0.2102172765856104
2013-06-10,0.09576598523414814,-0.004427472462952942,0.21329575534885548,0.37291382410645757
2013-06-11,-0.410932619004745,0.29563259191347047,0.14981602324354115,0.07932831468050494
2013-06-12,-0.08270171247762337,0.38219759224003347,-0.46528871161086904,-0.1781789874057884
2013-06-13,0.3468275450239099,0.20440520820063257,-0.15335757915955006,0.05684220998627665
2013-06-14,-0.10277051370553814,-0.051901857895816694,-0.2769560700695163,-0.3773129223925493
2013-06-17,-0.1350786292756686,-0.1434221851887616,0.4227249668801102,-0.4927005371894918
2013-06-18,0.07848000752126538,0.457791575153635,0.3928005824449661,-0.08935500476907698
2013-06-19,0.023436354230544687,0.4537857801870684,-0.2204287414614271,-0.1792509489701748
2013-06-20,0.35981812328586404,0.15639107917669637,0.034110952058171606,0.3634097769416468
2013-06-21,0.2558148440634227,-0.39361548843226335,-0.14131941242860058,0.45698249009045055
2013-06-24,-0.3625836906791159,-0.15015852010318365,-0.46833414269986706,0.002051937877213361
2013-06-25,-0.21110708531424804,0.39677241500973215,0.3798445043752732,-0.23092014006184935
2013-06-26,-0.4277744059254839,0.04418195983297368,-0.23254506739746095,0.34074115883797196
2013-06-27,-0.14225161106762563,-0.034178606599583716,0.23353054597861922,-0.1949365868978069
2013-06-28,-0.09943822572818883,0.43061567718992055,0.2170436409909695,-0.08334941069507718
2013-07-01,0.3451281927939075,0.4447440295549001,0.1990249483072063,-0.08318795640696874
2013-07-02,-0.12332417264783668,-0.4392007996149029,-0.25519503231621254,-0.04770054231998544
2013-07-03,-0.2062074686381814,-0.2412494219099367,-0.2284897676612314,0.03593563748893125
2013-07-05,0.4500022599079716,-0.09462332767804194,0.4436332574057624,0.000531117818996063
2013-07-08,-0.28199409469728076,0.2039346277849402,-0.21332161928410664,0.4314524094118628
2013-07-09,0.2549343646836888,0.13258682947232003,-0.37384280398816094,-0.026030650132358835
2013-07-10,-0.4498390948445814,-0.43350943083162186,-0.06350551236718138,-0.025423904665591635
2013-07-11,0.06463128505571936,0.4189511769375084,0.26095200494530746,0.4744988135380199
2013-07-12,-0.1720738424235031,0.49044562760467625,0.02466748947875408,-0.2572166049971354
2013-07-15,0.2084928611015595,-0.4219614108643822,-0.4109653535710438,-0.25451434322206046
2013-07-16,-0.415668509563905,0.4398899826586582,0.32717732007958233,0.16335552031919898
2013-07-17,0.32386805248417694,0.20854511266606046,0.1908176277096254,0.023908826231259006
2013-07-18,-0.2980242452084265,-0.4802475524061053,-0.17891536233690875,0.11222891665940882
2013-07-19,-0.04669009684013181,0.11761904258206068,-0.22355035366119547,0.1689689868302685
2013-07-22,0.175145472102043,0.2479575721887366,-0.3834804975747922,0.06967883990247636
2013-07-23,-0.16605188087069855,0.48877229213117834,-0.3574377006500503,0.07641972311611989
2013-07-24,-0.3763937478403546,0.1506618799291387,0.106807244419997,0.0972556302118247
2013-07-25,-0.3811138054596448,0.34886277041088376,0.23968101081830173,-0.4820892048224025
2013-07-26,0.4834613771645827,-0.2632620223476896,0.440444626417005,-0.3709819796052418
2013-07-29,-0.38045132625013034,0.4823962576820493,-0.3249902924449468,-0.25305196418021225
2013-07-30,0.2484010918436076,-0.4876065594396243,-0.31366138888964656,0.4348573634501902
2013-07-31,0.39411531543723133,0.38773545760044725,-0.24497565776650765,-0.41554088676938705
2013-08-01,0.4540123821876373,-0.1596790418923899,0.11754295875854237,0.056048115976266244
2013-08-02,-0.00919201829398053,-0.32538014375103297,0.31382628217526276,-0.3462975622103266
2013-08-05,0.37266596396362583,0.24460101625913522,-0.19698220089115837,0.20524435072192182
2013-08-06,-0.3179507675367549,0.36367531813268295,0.16445534308729925,-0.2396134804596185
2013-08-07,-0.4927183922166999,0.4722586322421163,0.16291283710245696,-0.2867855580737325
2013-08-08,0.025652778989604497,-0.3543795067031452,0.23086974602912347,-0.09341998305422294
2013-08-09,0.3494657385215779,0.43799891055159224,-0.07225108620200504,-0.45951646735976115
2013-08-12,0.17325686659060413,0.3166714759509114,0.25197836147920083,0.3082811729125279
2013-08-13,0.14872716127362096,0.06562556029741495,-0.42630140959905893,-0.2347830943730126
2013-08-14,0.4046198146415534,-0.1318018612234636,-0.35798201722750067,0.4621710688087707
2013-08-15,0.2832778450605091,0.4940572287765409,-0.27615895879845886,0.3204862822797352
2013-08-16,-0.3789561020264669,0.40776470689288236,-0.4202229803495834,0.18836897711609568
2013-08-19,-0.0036541695806969754,-0.023768092882358482,0.27510247001663635,0.09959153517819941
2013-08-20,0.2831482430591954,0.3803282313304025,-0.05576354899594593,0.34071427873152715
2013-08-21,-0.2604071858170294,-0.05938018581018334,0.4182298283378645,-0.2349172696985985
2013-08-22,-0.10425616376829638,-0.1667179873362451,0.07682241212996233,0.48230382977562936
2013-08-23,-0.42036334399437103,-0.44375096212285337,-0.3301922826549706,-0.28824125818564217
2013-08-26,0.1776467542770005,0.1630622620715585,-0.17797673056915997,0.34249131842869673
2013-08-27,0.2617956727665055,-0.484083044415739,-0.22932672099152673,-0.4108474133700357
2013-08-28,0.29160043013762127,-0.40047986379162814,0.4292774559701198,0.27539073125071234
2013-08-29,0.18577095372010644,0.07427988681673336,-0.40873326854525427,0.13247207563000607
2013-08-30,0.06949919732186272,0.21093040507778615,-0.19228692644010248,0.08398372512650754
2013-09-03,-0.052113879099689564,0.24829364188765846,0.2011882991035172,0.4755988260314846
2013-09-04,0.45488555247894424,-0.40912788195307004,0.14143427675653764,0.06194922007337311
2013-09-05,0.042310124476628075,-0.4259288845398471,0.38172753632985057,-0.34349640075305476
2013-09-06,-0.15178037517353038,-0.03701101685449881,-0.07365856605553667,-0.01018393275403029
2013-09-09,-0.27050429862708236,-0.013070475185459562,0.032380033436547606,-0.08977518999628298
2013-09-10,0.11275555604155274,0.4703306256549433,-0.16843253992473717,0.2670316578098735
2013-09-11,-0.43971226171632083,0.48986600469528385,-0.02815398860220275,-0.3192622790013472
2013-09-12,-0.08647813109382307,-0.06274202835238796,0.013915060820067549,0.17133698333856529
2013-09-13,0.0012285082940871606,-0.430020066450568,0.4617739194435053,0.04383636690859194
2013-09-16,0.20860264881054214,0.0371271025057599,-0.40433305525918417,0.335775394228088
2013-09-17,0.04972452199379973,0.05146795754263911,0.06593958280104673,0.4939635271575963
2013-09-18,-0.05985130291131857,-0.17842517837902938,-0.13725696193071035,0.24797643449243945
2013-09-19,0.3957928379884278,-0.13244522121227575,-0.42097976876385435,-0.1328726439757275
2013-09-20,-0.3750076886183077,-0.2570478940233719,0.4018162421588405,-0.45615769507535087
2013-09-23,-0.17522210872303978,-0.28859839034187273,-0.339261355347383,-0.2846147717774572
2013-09-24,-0.26250751932951866,-0.45339003065842354,0.4480371233696129,-0.21415390642405718
2013-09-25,-0.44745293955235554,-0.04240232379614095,-0.09156485696072159,0.2710590832890296
2013-09-26,-0.07834996381340786,0.32589107282174146,0.20630803741777348,-0.37280894337561776
2013-09-27,-0.2540036691826705,-0.0354754440723235,-0.31895515949819275,0.20182163220668214
2013-09-30,-0.15094230521036234,0.13975379828692824,-0.12766895628298836,0.4318328539913582
2013-10-01,-0.43877981709942016,0.36121495322472474,-0.07529522015541001,0.05873621377876459
2013-10-02,-0.20126312877368846,-0.2087104639223213,0.10995267905915063,0.3666739652200809
2013-10-03,-0.16153617177362867,0.2339914338775546,-0.48693241549980726,-0.11098478920955146
2013-10-04,0.3631867279149038,-0.35237543397886106,0.4794904060641174,0.0015870254052465782
2013-10-07,0.3585063077343563,-0.16062427744561225,0.051595857871697515,-0.11158426826673262
2013-10-08,-0.22626203029583614,-0.23754046990923294,0.17593969320597846,-0.2191697591544568
2013-10-09,-0.11034897702327473,-0.3080754129827806,0.19813562115012662,0.015727867598284484
2013-10-10,0.4418101547272525,-0.2505813605030184,-0.2422065200961595,-0.4731578931152627
2013-10-11,0.2021857946203508,-0.04878786383505129,-0.31338621434641123,0.3302394920916095
2013-10-14,-0.3634840163788816,0.1271973363417348,0.461755149078926,0.3027831941809167
2013-10-15,-0.24144083381931092,0.23474937265802875,0.3484952561986029,0.05214726915237489
2013-10-16,0.03706520140685565,-0.08445040659945291,-0.22321335033476863,0.22088873557269806
2013-10-17,0.06901997463624543,0.18748438844903415,-0.2880028580094254,0.18195256079336963
2013-10-18,0.1346180808715507,-0.3816194085026128,-0.2933385128250824,-0.459544873300206
2013-10-21,0.3524003834148377,0.10866905289190643,-0.2842792972901096,-0.2773181164550016
2013-10-22,-0.1442250461670317,-0.18084633522271554,0.35569578756798503,-0.4840592257103482
2013-10-23,-0.26590740531095014,-0.17131386156503048,-0.38814895363429713,-0.48491502682500265
2013-10-24,-0.16319594365124934,-0.14432668164456774,-0.3743636776466066,0.40722563204016515
2013-10-25,0.11606030384232091,0.2092537970863756,0.2659122770717496,0.2917217340552921
2013-10-28,0.12368721746798972,0.4720285848400656,0.41537230610726694,0.11354302463310018
2013-10-29,0.04840346379088123,0.44817619131672637,-0.1798038527709498,-0.015882920326495742
2013-10-30,0.45521499397491616,0.2752029217615034,0.22931012615176716,0.03321756901373285
2013-10-31,0.36749826357178283,0.3573619370631502,0.4595922960773151,0.2099873269340603
2013-11-01,-0.11235873538069996,-0.39648595169294387,-0.4905624576127501,-0.21383851884819438
2013-11-04,0.2962210598511531,0.3016528834399711,-0.3841265058700727,-0.4621016384247386
2013-11-05,-0.1561034185619895,0.11520035297018894,-0.1831050197775017,0.4278323360745291
2013-11-06,0.24321385881254098,0.2693866514441614,-0.3234320845069709,-0.13464319551454396
2013-11-07,-0.019166108911007784,0.27808976603030033,0.4365637167058596,-0.13689271025455596
2013-11-08,0.003987230890323268,0.41152042778079556,0.41090374999268076,-0.018482635066173647
2013-11-11,0.07464252289594797,0.054388947885146366,0.46385937477045935,0.0006673781465420525
2013-11-12,0.000456642241939198,0.06948161445413026,0.110616816450259,0.10507624529568715
2013-11-13,0.13023080941333753,-0.2535111958456302,0.05234390851949733,-0.254811359793888
2013-11-14,-0.22991572817091854,0.17995370765591345,0.18248840028235613,-0.4877769536753893
2013-11-15,-0.4602681513081386,0.11040244414093703,-0.3918449158270372,-0.09016653768590699
2013-11-18,-0.10709109699827568,-0.43186527889793835,-0.40221994147785944,0.470255028881461
2013-11-19,0.12862449928849262,0.39997185511232314,0.45314484637161023,0.37417214257893305
2013-11-20,-0.28685048804094515,0.4179538218608986,0.4844371211951206,-0.03065784987698894
2013-11-21,0.12226496539327436,0.06997169668188097,-0.01895613794678841,-0.3686342698891818
2013-11-22,-0.08106648263078087,0.137020738165197,-0.24674534388548008,0.2542898228477406
2013-11-25,-0.06719889321068773,-0.3187372046493495,0.12676691104174043,-0.3414291016986626
2013-11-26,-0.15005599448314955,-0.24123034580751457,0.1570150621181211,0.08552781321471581
2013-11-27,0.055454576938893774,-0.24373967410794184,0.2233855018236045,0.27398560053240684
2013-11-29,-0.26188142031015293,0.16481440254490853,0.156979270648117,0.2192621722647079
2013-12-02,-0.13957691422576957,0.49224498253799986,-0.38179640199142373,0.19261275863385674
2013-12-03,-0.025612706169812482,-0.04513732495650613,-0.33899627602714977,-0.1900017554492509
2013-12-04,0.02582207466031694,-0.08986518966820722,-0.2690138713198832,0.013098430819502016
2013-12-05,-0.06667041488401837,0.4767092915414457,0.14615801294763253,-0.06702764214363599
2013-12-06,0.34325508128412974,-0.4629023803333273,0.4379923385833747,-0.08457563860380002
2013-12-09,-0.06788260377373945,-0.03254730973692099,0.44318657678477513,0.3934361586151579
2013-12-10,-0.44974054910885586,0.28033359168754013,-0.19928286598392286,0.2945104114007353
2013-12-11,-0.4327950923887186,-0.43716884596633376,0.30992362142453367,-0.4133893427355697
2013-12-12,0.04976390708372325,0.3624193404430267,0.423539612335776,-0.45872283290976723
2013-12-13,0.3539969154979308,0.09591731955169369,-0.46387518709863274,-0.3228588576848749
2013-12-16,0.13324911778300963,0.10031514757294602,-0.1633427264884626,0.018007592937205108
2013-12-17,-0.39709706222462593,0.21045238298728008,-0.4481863965904125,-0.0786014491429724
2013-12-18,0.19438413644989494,-0.04789236673812369,-0.4661059651127498,-0.379214466243311
2013-12-19,0.3082896344926843,-0.041711445923271806,0.03923671166926379,-0.2818519630924101
2013-12-20,-0.3620766732080696,-0.23119863425624088,0.2881783455080329,0.34174645640198575
2013-12-23,-0.3418945418448103,0.01433632129353668,-0.28548141688791384,-0.32947401425269385
2013-12-24,0.3535619790181713,0.05205091059910272,-0.07269218884960149,0.0876909798900094
2013-12-26,-0.35095231253749726,-0.2403172756140477,0.07503619294857089,-0.4249626336495017
2013-12-27,0.09153606679394466,-0.14719681564703702,0.30468835974740527,-0.16723904521493205
2013-12-30,-0.06316002391288389,-0.2916575435280341,-0.3826371267520705,-0.04457505886792723
2013-12-31,0.3952700185966923,0.44328146701784776,0.2910402922463624,0.3504944486284951
2014-01-02,0.3466878736128888,-0.44219047729533933,0.08239290515218478,-0.07871217763342053
2014-01-03,-0.27972041278666526,0.11828745950829012,0.3048146871716959,-0.06536243664332297
2014-01-06,0.09383783335247797,-0.4614521033347714,0.1936034849934004,0.013229830297773582
2014-01-07,0.09156008707955055,-0.13001729254212024,0.43675967782040126,0.10603436711497394
2014-01-08,0.465571512818284,-0.40106114364249745,-0.23633189438034607,0.4486468540698847
2014-01-09,0.4315875883268683,-0.09434984751085718,-0.15620218297117594,-0.4433770165540526
2014-01-10,0.009563275522420644,0.11985328392190353,-0.4994752415026257,0.2381349619436819
2014-01-13,0.48608301447386715,-0.4131761221826834,0.2708691409506935,0.019313398601960352
2014-01-14,0.15206270063921246,-0.10212262505165492,-0.4753049426114003,0.38042608819423884
2014-01-15,-0.2715026045159661,0.3775659620047608,-0.4136748126822324,0.3351914242229197
2014-01-16,-0.1818548846847492,0.031174004037081038,-0.33816990060584395,0.4688045345264543
2014-01-17,-0.24190390192230882,-0.0989192082656416,0.48285145038694677,-0.19062509401810157
2014-01-21,0.11795706168519238,-0.18002077409905115,0.3510818548422846,-0.17785196116491808
2014-01-22,-0.05891555275125793,-0.4207661598333988,0.3604465326798977,0.024112012129592242
2014-01-23,0.49380122357737544,0.11524004394608456,0.3591087222865297,-0.2935262842372811
2014-01-24,0.20785826128810758,-0.034934777813380835,0.36312151784565994,-0.059298829449123014
2014-01-27,-0.3603889707509851,-0.003070546533423424,0.09977519743059604,-0.28282174050481246
2014-01-28,0.3063960435550529,-0.45416717862740863,-0.40062727794040487,-0.0012616644569546365
2014-01-29,0.18205103382678922,-0.05052355666750952,-0.10858115312731453,-0.3246895517722198
2014-01-30,-0.006853950663898267,-0.3793489460149102,0.23381621810679598,-0.15991819716919664
2014-01-31,0.4410953794010677,-0.08573268320349003,-0.16341436146397337,0.002538292845924661
2014-02-03,0.1831083862673586,-0.08515755592263263,0.47041409736820494,0.1438271821230207
2014-02-04,0.49042435799898665,0.4308811298461316,0.11835128758762692,0.12512277747985778
2014-02-05,0.45088221941044915,0.03990384265183944,-0.29754059311865544,-0.04545040349849705
2014-02-06,0.4737342670036917,-0.3884189923665258,-0.4433366007491879,0.4905947140123237
2014-02-07,-0.030945343220160515,-0.3809383576968218,0.009351322429469677,0.24220544798615617
2014-02-10,0.43244723046735645,-0.33387043542721395,0.36054777403365346,0.3981837461229376
2014-02-11,0.49252436153369616,0.357200097779784,-0.13771445798356174,-0.38982784345471466
2014-02-12,-0.4758284658348626,-0.25819151285276076,0.1005044721727687,-0.21066501199731047
2014-02-13,-0.34568277700702543,0.33746170980875756,-0.40400071034510254,-0.27138467709117897
2014-02-14,-0.418302586319638,-0.40470765365145833,0.4738815779590386,0.2862293195669252
2014-02-18,0.20072907327297052,-0.4066933544746877,-0.26408788782114256,-0.11615603182223122
2014-02-19,-0.10530237226948913,0.12411749474950362,0.2965284632990788,-0.1620222107888044
2014-02-20,-0.04766619064393185,0.20458334974452386,0.23113610056211653,0.13834388002523923
2014-02-21,-0.3633169642911447,-0.33804812379266935,0.3968905289370691,-0.41152646221352696
2014-02-24,0.06103991829138511,0.15318891553492564,0.4066197291400163,0.32555340937991917
2014-02-25,-0.04192312542906451,-0.021332344466996056,-0.17245184324838037,0.15277855038379273
2014-02-26,-0.47572793232529764,-0.33950863288698363,-0.2476034490161857,0.4505916753745307
2014-02-27,0.2748687483659418,-0.3439085967693729,-0.06560648310821582,0.1691068754764452
2014-02-28,-0.3301893728976536,-0.24337954394605132,0.27854206698543726,-0.2788757566449497
2014-03-03,-0.0505416164614777,-0.13189237089500672,0.27747686518347436,0.23891637401395716
2014-03-04,0.4430665383477618,-0.08001945115601139,-0.43349644836119017,0.26400258463883275
2014-03-05,0.15505513269786342,0.031507993456842964,0.11043596834006286,-0.46810543057299026
2014-03-06,0.019138689887577276,-0.19910222078100925,-0.21785233646237168,0.3553494620015478
2014-03-07,0.22555091655849668,0.258651200314334,-0.09101839711934179,0.028454152882385397
2014-03-10,-0.26110466969905666,-0.15786337276179108,-0.16985468636521228,-0.4304239906351939
2014-03-11,0.23186028335480657,-0.30677722646894734,0.1534068584752155,0.24505789649294096
2014-03-12,-0.45290972475976554,-0.4114161110813188,-0.028558030561694703,0.34392436831166573
2014-03-13,-0.3068769215721885,-0.200322170393746,-0.10671281800543875,-0.21256986832613023
2014-03-14,0.49902288339337575,0.05285931337411731,-0.2369407784073616,-0.3334850565252745
2014-03-17,0.32988107079062234,0.0712294443165139,-0.3382224428042271,-0.47759786318046193
2014-03-18,-0.08130594895646548,-0.2830113582083503,0.13392975166595888,0.4490449123659518
2014-03-19,0.3226350641541852,-0.2810288582490127,0.401985637075038,0.36640385843103307
2014-03-20,-0.2654398708364387,0.04525669002526134,-0.2616528976286646,0.007895836592211491
2014-03-21,0.40562230953359646,0.39216101317532537,0.4947650491681903,-0.24742939809518483
2014-03-24,-0.3796284737583796,-0.2769563521621927,-0.3095075492807705,0.4500896705425701
2014-03-25,0.48962197151281506,0.4862008846562661,0.18945413242599574,0.10526272065541908
2014-03-26,0.4982627337629194,-0.3071723851327558,0.2918212532796195,-0.26087768450930093
2014-03-27,0.03385127169307767,0.3905975633122116,-0.2561199991823897,-0.4443490652989738
2014-03-28,0.038344993394290094,-0.14046849916767346,0.016597622328109574,-0.24094079153045456
2014-03-31,0.18475331821348395,-0.32431062071012173,0.13261975736518905,0.017315780138802306
2014-04-01,-0.34771168691488163,-0.017408517491480757,-0.3898005231594699,0.06772922597560438
2014-04-02,-0.09805410265728598,-0.14339986745166167,0.2342840893519793,0.41420664496780835
2014-04-03,-0.48121923451176374,0.2587363084794775,0.15057576355367475,0.11122199640120856
2014-04-04,0.4355002033360108,-0.18112929377889841,0.029243202612264096,0.24365733435817005
2014-04-07,-0.3575832212695458,-0.19474262908159912,0.2447832577113208,-0.17267129498451506
2014-04-08,0.42514661529737174,-0.2637092000542509,-0.07567883420962573,-0.2583094706426743
2014-04-09,0.03450437311850674,-0.366254277666047,-0.1342111635094866,0.21562797412780654
2014-04-10,0.4148945620729153,0.47249614267003603,0.39908808195321,-0.4813303868263311
2014-04-11,-0.18357513585003982,-0.11654753173865007,-0.42787087294648996,0.41027034155237385
2014-04-14,0.2500429050391889,-0.4245183783358717,0.4336521600646204,0.01508149662386038
2014-04-15,-0.2619393783641787,-0.13216117231702806,0.3328504045400128,0.022186906111810845
2014-04-16,-0.4500421380621875,0.2043512992802965,0.48957627741654974,-0.061800523991329404
2014-04-17,0.25005951012148764,-0.048100554259933315,0.3033408912324933,0.16810798429029894
2014-04-21,-0.3016983209181888,-0.4495491473268153,-0.4586913983541855,-0.45669954382383793
2014-04-22,-0.39848818342775216,0.12428391652062054,0.26537680967250876,0.46316782206504126
2014-04-23,0.1373383675674983,0.40245296731388236,0.07647160583273438,0.46743434403233264
2014-04-24,0.04972069802005541,-0.08696214467457641,0.09348840447895335,-0.11037307348738246
2014-04-25,0.23243745290262585,0.03943899083857649,-0.30405689550558623,-0.2922404209010304
2014-04-28,0.4750327882987443,-0.06909834311348206,-0.306761702630432,-0.00259766902052061
2014-04-29,-0.048144580524262515,0.15962817342783808,0.17785781781053667,-0.39611065010418867
2014-04-30,-0.020052905877050664,0.13269675968451067,0.39033207878466747,-0.1354369540445759
2014-05-01,-0.38336017534262234,-0.17810066217349485,-0.14456934451976955,-0.16847966867897834
2014-05-02,-0.07154708592034509,-0.07983732059560622,0.22609865135658958,-0.17010450614204742
2014-05-05,0.3125377296643108,-0.20510377837630067,-0.3380095310298289,-0.07419852802683835
2014-05-06,0.4541477932115425,0.3565897632512659,0.001696282104135527,0.09618007903649495
2014-05-07,0.11979148511397375,-0.2502678150417351,0.1844201241874428,-0.3973032140321163
2014-05-08,0.1359946594604463,-0.3397331174786762,0.2214169644221674,-0.058357997086551316
2014-05-09,0.3290451318238907,0.0011952687192418043,-0.4851514102877186,0.43986983359664844
2014-05-12,0.2024509205029572,-0.04483688536722197,0.22317868567466537,-0.05034252867154243
2014-05-13,0.001003658291407028,0.07767214913275133,-0.4274353458235587,-0.04562594431875333
2014-05-14,-0.11141052693630948,0.26793045035232643,0.14399270549622112,0.4790658437864165
2014-05-15,0.3294579032291083,-0.32266559209749357,0.21865059143928423,-0.4650609096035112
2014-05-16,-0.30393047027289133,0.3275281529903573,0.35648300943459343,-0.49129419771008953
2014-05-19,-0.20682843118390615,-0.12022350881365695,0.35768272403328505,-0.1828229693512735
2014-05-20,0.47646421781381054,-0.23104693955711497,0.3590929409730018,-0.45869241545677286
2014-05-21,-0.4475536129910552,-0.39171279725767205,-0.15724383490963645,0.26095566530635905
2014-05-22,0.33353113251535116,-0.261000174656141,-0.2905671201273081,-0.07597355508481451
2014-05-23,-0.45171820479415037,0.4026197642778022,0.12129017433604072,-0.11256766145432995
2014-05-27,0.3319935262957898,0.44041742735064515,0.42444747255018955,0.3066800629957781
2014-05-28,0.4473374702894405,-0.2926788489407759,0.45726165309176947,-0.037835473505802075
2014-05-29,0.4655632008396041,0.23501326013109058,-0.14167042043350586,0.2663674480263556
2014-05-30,-0.44727824690165185,-0.20775566715339788,0.25201413600772093,-0.3572260497395172
2014-06-02,0.02108667726276703,-0.12446415140248912,0.25529102545253346,0.4282948490510494
2014-06-03,-0.41464857847722103,0.009187473860257978,0.03650995068403429,0.4610819525696854
2014-06-04,-0.0496455645261662,-0.20876172131199167,-0.42857279404453574,0.46913283707567277
2014-06-05,-0.42786032014327147,-0.3859743241803367,0.20769382180762708,0.47512844834319257
2014-06-06,-0.08676972495041657,-0.20211059947282095,-0.12835521954739093,-0.08263616013426167
2014-06-09,-0.36659419860408293,0.16632678895685948,0.05146600732244577,-0.032276285529724835
2014-06-10,0.38959631197360667,-0.11347149926347355,-0.1848416760243612,-0.19227720452860697
2014-06-11,-0.3299870716262545,0.2848678646496893,-0.002151298884965791,-0.3236579643425396
2014-06-12,-0.09114928218859342,0.3961619389147172,0.30075546270962716,0.41936118162649005
2014-06-13,-0.26497216971260273,-0.11321486526477542,-0.4160011786107606,0.33097066892175275
2014-06-16,-0.13297715691235612,0.15614440183773426,0.14036242527512166,0.4210162877151592
2014-06-17,0.35516898514353235,-0.46472484272865955,0.354161152004389,-0.04620243126402357
2014-06-18,0.192311026793907,-0.4756411065156131,0.035070782251169774,-0.14116106501562498
2014-06-19,0.3935379801309038,0.2475826534994544,0.20492040180488857,0.4898500694856741
2014-06-20,-0.43856386550437143,-0.2973760161412222,-0.15359287563808488,-0.09196385066921542
2014-06-23,-0.44225731791391565,-0.16903734168346962,0.26267962445778315,-0.15526134739658337
2014-06-24,0.3792021498375283,0.05378164688973486,0.4260195246974804,-0.19642859411096325
2014-06-25,-0.13438863402453927,0.02858501203048991,0.14486515592944227,0.05069078949242356
2014-06-26,0.4552867791228411,-0.36355881994335015,0.40135159952127486,0.11495819334760526
2014-06-27,-0.26546646643138716,-0.11184863066048367,0.4523799903351269,-0.49474352458077897
2014-06-30,-0.48394799732910043,0.3608650065696817,-0.059089643204811915,0.2110374921005549
2014-07-01,0.08897068019640886,-0.258966187464157,0.3260102209243656,0.04968130041549812
2014-07-02,-0.23190701730466867,0.43254293093252205,0.14578428731079351,-0.4061496666063964
2014-07-03,-0.37654254275503796,-0.4961266833539102,0.4386299337658017,0.3071966963179521
2014-07-07,-0.07882812649981252,-0.046669172101227785,0.4642077729197587,-0.14332692520351253
2014-07-08,-0.3135581548236611,-0.2302957733360388,0.15373128448263818,-0.08914348263375405
2014-07-09,0.22337573211677375,-0.3018986736866963,-0.1561114460625106,-0.33472678166189407
2014-07-10,-0.4484967889024576,-0.09540391285750915,-0.2822503711599609,0.046590370655876456
2014-07-11,-0.35979804408808436,0.1171986925111862,-0.2832418634836288,0.40816002420607267
2014-07-14,-0.41794049044590476,-0.464210490226897,-0.15744387334481713,0.1909877245704069
2014-07-15,-0.05412203935536275,0.12394016705654598,-0.09055311543474165,-0.35794439717060655
2014-07-16,0.24918572142101192,-0.21940070659146815,-0.45564699979211865,0.350707158517644
2014-07-17,0.14985363635564808,-0.004525460380253032,0.19579853725730045,-0.45150978642071826
2014-07-18,0.03896843357174207,0.08693022513969861,0.40293458599033916,0.3198619894886414
2014-07-21,0.009759605695025986,0.22946025631958344,-0.40946233998562864,0.43985147918358825
2014-07-22,0.04637203646990096,-0.18428656689578937,-0.4259824736785641,0.4067002599989301
2014-07-23,-0.0364588890988401,-0.4746164750491646,-0.19581900687376408,-0.4385142110258349
2014-07-24,0.4891297747833504,0.07189107864712141,-0.22893055057283473,0.06603631509311536
2014-07-25,-0.2569657615862524,-0.22886645629429658,-0.0720662829767521,0.34797427086326005
2014-07-28,-0.32951104195416314,-0.027427065527097283,-0.09644434503172639,0.1542389933193794
2014-07-29,0.173067320748719,0.1666249419471889,0.145870160292899,-0.03721951736965845
2014-07-30,-0.26259840680804347,-0.0017256410902765085,-0.4166342800804904,0.34335298528713043
2014-07-31,0.016708395720037683,0.4124778683535878,0.47516776333661603,0.3142917136358221
2014-08-01,0.2577625938372131,0.16269330355614553,0.39132793545211864,-0.3846604943709747
2014-08-04,-0.12937567588343823,-0.22169425837096646,0.06011334895058629,-0.4112318879043301
2014-08-05,0.3632331847057938,0.2796652673920016,0.21164191833523138,-0.030516730749849175
2014-08-06,-0.3566350729461656,-0.25870027154036934,-0.35736888030662595,0.03599933772730157
2014-08-07,0.4702389712370897,-0.4565601256644547,-0.06907069040122937,0.26005033563582436
2014-08-08,0.288275047974652,-0.4641770070271447,-0.23012720908678763,0.05130320389122134
2014-08-11,-0.07259131367017013,0.24864553184770666,-0.04341004458067643,0.20165508631356643
2014-08-12,0.25650026357902733,0.4003553793833603,-0.17417615872597447,-0.04548917757325244
2014-08-13,0.24408051820142795,-0.41912853428381813,0.4217442626770186,0.09528097961416371
2014-08-14,-0.08793481968274686,-0.3610025565868201,-0.21149731038865927,0.23399264237896766
2014-08-15,-0.2959907410301552,0.29758773973803443,-0.02256734050914988,0.06384854299077558
2014-08-18,0.3457682820381348,-0.47213516626786833,0.011461112722567446,0.3474402022818648
2014-08-19,0.10218435853209418,0.49170947530925824,0.38405446998428294,0.45711965188258596
2014-08-20,0.43248341841733395,0.18667539545166711,-0.019583225850830055,0.2128379794365406
2014-08-21,0.14117318919240862,0.040590602061822634,0.09401366243961673,0.1580747968831241
2014-08-22,0.3229626291352321,0.11801895500737558,0.28499369311483047,0.3089052124487002
2014-08-25,0.44522126635017223,0.4429318877431707,0.1463136699341222,0.13743466303505314
2014-08-26,-0.20754859770997325,0.18960989698264996,0.21564401372344266,0.3611330817128169
2014-08-27,0.09141307517748964,0.09206976805686029,0.3471686323101917,-0.36970713544102163
2014-08-28,0.0027908821615405532,0.44757062391339164,-0.1352013217562199,0.13907912493430974
2014-08-29,0.33862512068213746,0.2956068700940476,0.20217038010860733,0.09826245342752193
2014-09-02,-0.4508097782890593,-0.30524662139246383,-0.47564990920044636,0.35646459585972734
2014-09-03,-0.12384878384492404,-0.17798438469586142,-0.1565105002217141,0.02795871188264354
2014-09-04,-0.023144477930288176,-0.0588585720224154,0.20201006357450468,0.3753996575171744
2014-09-05,-0.1680193270029916,0.007999064640093811,-0.3415175148314059,0.16302634065327226
2014-09-08,0.14364279802140578,-0.21217675568562722,0.3128129832878275,-0.40994859206444634
2014-09-09,-0.3732936657711051,-0.1691950128522569,0.14287735769506038,-0.3774349961641106
2014-09-10,-0.36290586714674256,-0.023314424375332043,0.4014590662253923,-0.34478544425481616
2014-09-11,-0.3703870136225085,-0.018719376831349943,0.35796981917383197,0.3996002054750285
2014-09-12,-0.06442923729847827,0.4381242551179525,-0.2766122381499716,0.2047241867145152
2014-09-15,0.0035464630678966325,-0.34776724762215505,0.03700955591359634,-0.37424654147808845
2014-09-16,0.35101096738623383,-0.35737604910655285,-0.4012523244125161,-0.24677866601743326
2014-09-17,-0.20456310796306398,0.3735729319093737,-0.45231526200765815,0.105793628010874
2014-09-18,-0.12679790442326555,0.4713201260782186,-0.41838618392531035,-0.49100325230696285
2014-09-19,0.2700059964949435,0.1303161853111109,-0.4308395140094873,0.18709800443412106
2014-09-22,0.0850520263421537,0.09021816627518908,0.04151452791938881,0.04737782670301871
2014-09-23,0.2487587650346338,0.09769035283249561,-0.2317181469630063,-0.014084447565545277
2014-09-24,-0.3767386480823971,-0.48612505875294154,-0.3687657933351195,0.3734678954870615
2014-09-25,-0.4012606415246339,-0.38800389195285534,0.4540859526110357,-0.23019951208230627
2014-09-26,-0.07286528493396616,0.22903686327560846,-0.48770860739315347,-0.02293985047854541
2014-09-29,-0.36328830940853596,-0.04433427053129557,0.2541561755524683,-0.24995864610941254
2014-09-30,-0.2921464351197878,-0.44248010329016074,-0.037578242231301795,-0.08187573132180292
2014-10-01,0.14880190792377113,-0.19137986867356183,-0.14521796750069238,0.3638672592475881
2014-10-02,0.2534571417612078,-0.39367723325111526,-0.1537383283960535,0.1936348532021499
2014-10-03,0.41077684653353397,0.48459395414137874,-0.06619916557422567,0.3386301159041961
2014-10-06,0.21390488852829437,-0.4849559414572754,-0.05334032385986842,0.3718370378432607
2014-10-07,0.372267683122241,0.2078562512564459,0.4517656113817795,-0.10669566417229759
2014-10-08,0.31441437077493395,-0.30794029108756327,0.11692897197376562,0.08538391932086364
2014-10-09,0.4565051639815899,-0.30664088385458854,-0.40288382098070485,-0.2900754993270712
2014-10-10,0.31829133792767483,-0.3633551296005776,0.20455032592473898,0.32501564923458826
2014-10-13,-0.3968680889089613,0.4949081154253584,0.3657729076246452,-0.3275103249712178
2014-10-14,-0.2563441399340185,-0.47889281918948323,-0.06349787529051698,0.15017572713200977
2014-10-15,0.04050903796144001,-0.27856997194989996,-0.375058066372571,0.49380293955822274
2014-10-16,0.13157832597158692,0.02786232355130125,0.20589408354028682,0.12699933863694035
2014-10-17,0.18987804579091005,-0.37765489104352234,0.38953902165949006,-0.06446072562269922
2014-10-20,-0.12872870443448214,0.4342651927313914,-0.11353859616422834,0.29904632185808355
2014-10-21,0.18609571286393323,-0.16537372714590082,-0.4973673482547636,0.18508745040614727
2014-10-22,0.457829187760012,-0.04074939149166901,-0.14306280897199053,-0.442953119784965
2014-10-23,-0.12581299132665147,0.2820555846736732,-0.23897450827355526,-0.06880898567466487
2014-10-24,0.4830647034955432,-0.10473729760890893,-0.2911468185054702,-0.44672967940243447
2014-10-27,-0.16958941994938526,-0.41214904192282975,-0.1237998182332758,-0.2831610647673105
2014-10-28,0.21021122977651474,-0.23935049479329795,-0.16287325362100236,-0.0962778135315614
2014-10-29,-0.09764598278949632,0.43500384742271836,0.16514587695394067,0.057118196658567544
2014-10-30,0.11296899859327059,0.2600619867962186,-0.14733702824493633,0.24876381264893233
2014-10-31,0.42521677693944315,-0.19223315652525785,0.45256789709237477,0.26818023403674784
2014-11-03,0.33657077434338867,0.2871469529538828,0.44693791685001794,0.2486854215333787
2014-11-04,-0.11713438010694865,-0.3896017417697665,-0.47864742593679677,-0.49892905180613
2014-11-05,-0.2773581159098114,-0.3441473391134544,0.26714958455723725,-0.1808486561827798
2014-11-06,0.05568744253582014,-0.39936669906428557,-0.15200429128368087,0.42886720290370206
2014-11-07,0.36188730917077794,-0.1550718145252401,0.41307743961786336,-0.3731499018159271
2014-11-10,0.29867963026588473,0.4263904524092704,0.33931995524395664,-0.16221055537388485
2014-11-11,0.41636144644055173,-0.19727032104296127,0.04434920152387478,-0.19480956727792453
2014-11-12,0.259398155570843,0.23439101529395934,0.22287738732778228,0.2497513860591858
2014-11-13,0.07723737549005538,-0.2687128696307217,-0.16791845645549774,-0.019496966512660086
2014-11-14,-0.466422220992071,0.13565382479441224,-0.10616248522847194,-0.43410294377329217
2014-11-17,-0.3138990336364812,-0.027954525295932786,-0.44523321459280385,0.48672050875439343
2014-11-18,0.043237388946265276,-0.12941891742756395,-0.2736611253387615,-0.27236166293341924
2014-11-19,0.3761198911138651,0.25011429243102745,0.2440791909669764,0.059749304350573795
2014-11-20,0.015343455751604562,0.37501564755518346,-0.38710752480576005,0.2957728324018465
2014-11-21,-0.4967627951948618,-0.09193597774954487,-0.13411026054896702,-0.13825137469179438
2014-11-24,-0.3204681159264452,0.11510492769964575,0.20841809181622595,-0.1047766998710129
2014-11-25,-0.08802854265833082,-0.32930513715249754,-0.10492116591824407,0.3398628573499668
2014-11-26,0.48817334223241526,-0.28360991925590096,-0.43970925754894463,0.23022533306994375
2014-11-28,0.4253216510786032,0.12420187556165074,0.2677047226342929,-0.20565459210460268
2014-12-01,-0.3473851042562204,-0.4149821128206459,0.3315387700656822,-0.04573885401059252
2014-12-02,0.019161936535805335,-0.3148198799728986,-0.3442562153719001,0.18755367113843013
2014-12-03,-0.4181848633261549,-0.3925284251608976,0.1532971412135946,0.17665045141214275
2014-12-04,0.06597809703918434,0.15901347297608548,0.11180315718276224,0.39843430567433247
2014-12-05,-0.030301240805025165,-0.01622986697902762,-0.3878723608591206,0.31838715784010485
2014-12-08,-0.37900552116541164,0.38764858015591364,0.0943060873733289,-0.19695614611532408
2014-12-09,0.20076713978967275,-0.4549610342667345,0.4833449254048693,-0.4743684651294571
2014-12-10,-0.034515144684593824,0.05844578261772582,0.44520153530523465,-0.35233634804480474
2014-12-11,0.39396097083719106,0.17822700778592482,-0.09913730156772904,0.43595881044814344
2014-12-12,0.06957428258302845,0.478711900712502,-0.18576909535741992,-0.10122299159830761
2014-12-15,0.3349899701307001,-0.04481018271152293,0.005211402699510481,-0.4945725793299188
2014-12-16,0.0185035374248691,0.19424361965585224,0.16283839223266616,-0.43295507430897917
2014-12-17,0.010833214994422913,0.15776263659701906,0.36579721831888434,0.4160007866145258
2014-12-18,-0.27222047047421405,-0.08312312390323162,0.19817531488609574,0.3464062319815199
2014-12-19,-0.4645220972312877,-0.24511573323579916,-0.42131899953417795,0.1441463950687989
2014-12-22,0.2724750216546449,-0.14334553748099588,-0.3413981031386031,-0.057905308570402436
2014-12-23,-0.08166165775169965,-0.11787431197006237,0.2559308946058806,-0.12185289074274785
2014-12-24,-0.49427209997615584,-0.3184828270515594,0.23144101590618749,-0.22399420907969336
2014-12-26,-0.09754499915461545,0.24201859788145985,0.2511720437232615,-0.4980445215612618
2014-12-29,-0.43370423078145426,0.006969389858657027,-0.318569281613602,0.11596292574239553
2014-12-30,0.06778594359070267,0.45702913391824107,-0.18017761538960708,-0.3292994335758199
2014-12-31,0.04755567792344029,0.46305210461318025,0.08734057956987218,-0.3148422272816235
