date,C_MAIN1,C_MAIN2,S_MAIN1,S_MAIN2
2012-01-02,941.0397218428235,-2683.306549628427,1614.3114854827934,1497.3702482039964
2012-01-03,4852.573907780753,2433.5305781507054,250.50569335547058,-403.9522148225216
2012-01-04,4798.730035328807,-6.9231706922145975,-114.8875099488622,-4565.6117429225715
2012-01-05,-159.57482059983374,-462.73425111584163,4082.182104215339,3921.850009819815
2012-01-06,-401.902554037048,657.0679906107634,-4270.938959641783,1344.3903593023233
2012-01-09,-256.05441731711755,1103.832823026849,2105.957716139788,-3171.553376573598
2012-01-10,287.025789967853,-584.6870615847499,-1548.1947362577619,-896.3519250583396
2012-01-11,3026.5684380564085,-4861.400681289294,2730.965178887369,-2924.5745469054673
2012-01-12,1307.5634480473275,3019.714018970352,-510.7153409719556,-2160.466967392298
2012-01-13,843.6735030683773,-4318.318187350804,3198.328089492701,-1431.2706411810238
2012-01-16,2840.080017296319,-2834.3995111008358,2615.2958862500077,-2390.0836399472482
2012-01-17,-789.7679278585434,2639.126252783319,-3710.221760738909,3144.651662448732
2012-01-18,-24.048506933462832,4246.424956742996,2633.411575240525,2395.635753032066
2012-01-19,3786.9198878024067,-4957.838406431785,4613.604685897587,-1277.4123054939623
2012-01-20,1007.369362154299,-3651.6887170095833,923.7215715425573,-713.860744474536
2012-01-23,158.84618148996887,4029.5668106900894,-2711.9617558011687,-797.2048571047907
2012-01-24,-2982.521775870367,3623.4846583701983,-1620.347587707348,3483.9473075388173
2012-01-25,-3541.003859892624,1831.35067677907,-590.7051568972488,373.01159175153197
2012-01-26,1545.1040926955407,-2899.533295311655,1646.2240214787605,35.677663825836035
2012-01-27,-3422.820112810061,2425.462405171821,-2198.8865801216016,-3877.166040188119
2012-01-30,3210.150968430281,-3011.7618871238737,2236.921982636969,-1639.0366345342954
2012-01-31,1086.3866818095103,2557.5332123768135,3250.7453500509587,4250.98273095489
2012-02-01,-1859.545096733627,3366.683868678364,-4764.624112694458,-2457.507730051636
2012-02-02,-1333.1666535796594,3022.2540907976404,-3090.6421612643476,4896.262898825607
2012-02-03,4769.841389510397,-3187.7285449013425,1688.2720706954735,-1723.8703737565609
2012-02-06,-3628.8432099499523,4710.136546425055,1301.6335663576938,529.981170798447
2012-02-07,4041.673235441999,-3561.0390549132676,-718.0777695522555,-2106.633171023199
2012-02-08,4052.1065323242765,-778.375047583757,-2222.910532680159,-419.848528232204
2012-02-09,-839.2861182614841,3590.9685946037807,-955.5161105322285,3670.1027248244154
2012-02-10,-614.9731637634992,-1267.1251469016509,-3224.6347385293416,-3449.687607614822
2012-02-13,-2664.5266613047856,749.4012387367932,194.41420306682832,2716.9289046850245
2012-02-14,455.25057580961925,-729.6956062165505,-2515.231538952758,941.8594469113007
2012-02-15,4845.397460928517,-770.1413230068033,706.2749665435175,4553.108005609767
2012-02-16,-639.696803037686,-2252.2805351290576,-1287.0256058723494,190.64548270657622
2012-02-17,3579.964651399784,1203.1884050882613,-57.1399774774084,2698.0680712918693
2012-02-20,-2311.685994049604,-4120.527992369078,1018.9858583303746,1838.1439536224298
2012-02-21,-1325.1230247731328,1782.1738441947389,-3379.2633071955324,-187.80395487070777
2012-02-22,-292.7654179903849,-4313.511696726927,-951.0518451990368,-4979.481928133713
2012-02-23,1630.3397175198331,-1905.917033795086,-4726.979179047352,-1289.7868308597492
2012-02-24,1932.1570090798878,-4885.257245006098,-780.5334622391291,-236.2121132742756
2012-02-27,-628.4217705546547,-1722.6546867354853,4926.974451944812,-4265.039787173922
2012-02-28,2834.0848161672848,2889.1200491817326,-4250.584754642484,-4784.167346442271
2012-02-29,2496.1716806782783,264.42202777848144,-3203.9082684592113,383.5680007489728
2012-03-01,3685.356774399682,-2853.278957366474,4128.517832977235,-3193.1082355174844
2012-03-02,-2752.230692781452,1343.3769363996673,-1071.9027886226352,3741.1589748671904
2012-03-05,3147.8274729998866,-3629.6661455529434,1289.4904313840539,-4532.9212329321745
2012-03-06,3061.255050939452,1237.6686711673212,-2239.254896517955,-3062.478054143688
2012-03-07,2135.5984649528737,-4827.821181348355,-3544.2869388567055,-4878.119492021777
2012-03-08,1123.8550988915829,1919.9997551239744,2630.0180826079268,1389.7568881783618
2012-03-09,-3696.0156876837104,-3254.244472126321,-626.2698314351001,-4092.5367306505213
2012-03-12,-1719.2626311252423,2224.117843263722,279.5973888991177,-4645.429801318341
2012-03-13,1758.2041016326589,709.5197163103451,3018.045003315285,3937.74528931098
2012-03-14,-4011.2789412777383,-1782.81963185276,-1863.8340266620658,-2840.794874153131
2012-03-15,-4308.308665515427,3035.2314015594993,-455.4011442125916,2191.6666986770374
2012-03-16,3754.2282837077723,-609.5141757329014,1298.3785235037715,1330.2987196259019
2012-03-19,-4676.980270677959,-575.872315426692,4111.888106302546,-2430.7074565223506
2012-03-20,647.6588203330591,-2532.461052628492,3698.448998810814,-3214.81017826327
2012-03-21,-2220.5254155455677,-2176.452346935449,-677.2152417503386,-964.7876511159736
2012-03-22,3149.566169204663,-3399.402952459182,-841.7933494571716,-437.45946516908106
2012-03-23,653.0162725078392,2232.1450756600925,2640.1295234960853,2653.5835454866806
2012-03-26,-4642.566349656841,-3847.3568199107945,-4511.420899110834,-2660.3568942035727
2012-03-27,-626.3269213838818,-3340.277834088077,-714.2169930235143,438.4244467747356
2012-03-28,-1629.8003829179474,-522.3752100770396,885.6491750006778,4741.851255122752
2012-03-29,-3460.644448891301,-2826.5793469374257,2169.2360884614504,2355.793434495108
2012-03-30,3910.2311415639056,-4253.909371373354,382.3043973229734,3746.2270008315813
2012-04-02,-4681.416812132678,-1015.0683457304021,2871.677273182962,631.6439759655135
2012-04-03,-3248.7616894929683,1619.210306239026,-2115.227064584597,-2603.624772003298
2012-04-04,1309.2305378290237,-4712.554541581711,1512.0367593046192,3378.071718154955
2012-04-05,1187.7116521295939,2386.5157895976176,-4825.123227971926,4897.307247635831
2012-04-06,3588.221945400456,-4080.5409128829297,-3387.5493472038174,-4387.351210263127
2012-04-09,-4072.3265259050377,-631.2937337415159,-4120.528903345306,-101.64030749500563
2012-04-10,-3038.648735638194,-1004.5459051543337,534.2530643688215,3419.8392792361456
2012-04-11,-4092.04233583635,-4772.931338238263,-390.40176054685907,4579.497369185925
2012-04-12,4369.566943909348,-2493.1224696044796,-2608.913025936539,-2221.6551258885074
2012-04-13,4984.071082062596,-1807.7177675514622,1724.070922066001,-1126.5785775333447
2012-04-16,1682.7210887417932,-1108.574586226625,221.20396472970484,4650.586221859401
2012-04-17,-4129.868799697868,3530.3435131015003,-353.7683205270914,-1771.9873745882865
2012-04-18,3882.0594160132227,-85.16456195451272,1808.5047182133362,624.1131791817212
2012-04-19,-3871.424040662211,-3235.4513324617296,3455.5206810179684,4858.457781991534
2012-04-20,4879.052193333794,-3314.4076863993587,-1201.374634710084,1076.879817978712
2012-04-23,1674.0863135161055,3150.3978081212326,3361.6411088481213,3403.036973089033
2012-04-24,3240.0527900977304,-4205.857378900577,-4671.4867655575745,3012.1764564174423
2012-04-25,488.94327183009676,562.4641640349448,-1653.0442259259326,2947.684050898711
2012-04-26,3358.6587256143816,1250.2633434343768,-1904.5658275353162,-3826.767776537423
2012-04-27,-1295.008007091082,-2084.716166031636,4134.127231015859,-4162.683826601225
2012-04-30,4545.78757410682,-3768.726098822193,-2477.798145222152,-2059.2662481747648
2012-05-01,-3230.80234364273,-1706.7629697780585,2203.377206203283,-3873.5705567132827
2012-05-02,-4390.0189016316945,1876.705302347398,1368.1341405023072,3207.5811426583623
2012-05-03,-1350.9201436406847,-1628.0230081300672,-2404.05570406921,3487.6332860820303
2012-05-04,-2795.6500462535705,-1530.228320790301,-2874.527155632508,4554.947815908797
2012-05-07,99.23490473692564,2910.631488224026,291.6824559981157,1889.2534865638854
2012-05-08,579.9737417390138,-3226.3835206313106,-881.0033017441154,787.380385957267
2012-05-09,-223.31847283455718,-2808.0116513841213,-4932.093604528699,-4011.736536868836
2012-05-10,4659.768098602317,-2120.2171792800896,-19.07287721590656,694.5064948329771
2012-05-11,-4816.532478291262,-3564.0288023927424,-1098.3501493715298,-1966.5997288980984
2012-05-14,3781.410365289154,2385.122998247294,340.5638739388195,1087.4478004674882
2012-05-15,-4645.532055027264,2119.1826144150473,-92.42764389564617,-3736.7454422397273
2012-05-16,2185.75051371122,3754.328484641013,3937.7962880939986,2851.8537665533995
2012-05-17,-3095.7758923975243,-2457.3372705531438,-2062.504454634879,3953.7166325754047
2012-05-18,1975.6906018262644,-1382.7253859445088,3280.914419254828,-1919.5618845643935
2012-05-21,1450.642749128096,2533.7636665587106,-544.4951505798612,-2902.103833729397
2012-05-22,322.6349838385112,-3719.266966701017,-804.2269556534876,4457.907913179667
2012-05-23,-2095.126232842144,2996.327896984501,-4552.442505084039,1986.9754502276348
2012-05-24,1687.5988224939997,-4617.139128602193,-3136.2073540515667,1903.911501749731
2012-05-25,2747.6191138113604,2407.508780190222,-582.0853678795213,2960.258181209551
2012-05-28,-3710.647577310352,2082.6909296110675,4205.032793249706,1470.2431999417431
2012-05-29,4520.256388257651,3431.449378865602,3179.5060613447667,1146.1077433260102
2012-05-30,-554.7011199574081,-1304.2009999839333,446.86124591161945,3652.5860530085242
2012-05-31,-105.6922961015605,2479.1749604687243,1502.7809276501791,-4895.866161900517
2012-06-01,4576.068684690241,3266.163247235672,3087.4934674929377,-1073.6649270263
2012-06-04,3265.5081364897455,3498.3413890383995,-421.22579156339657,-343.74077134207926
2012-06-05,755.1917903013494,-3602.43396910866,750.4999458425166,-2711.151373520323
2012-06-06,-3861.96180701596,-2361.535935616573,2951.112488868004,-336.6677468409152
2012-06-07,1452.2929308253795,4557.617526111631,-1972.2012877814066,-3356.955077681605
2012-06-08,-495.306122446959,-3720.6763257139974,-2235.965088220464,1695.9685671192137
2012-06-11,-1429.2653322631977,2793.289681298011,4870.2896862126645,2470.2775640450336
2012-06-12,478.32942249496637,28.870146438245705,1351.0777376776873,-1256.5324099696784
2012-06-13,-3648.997678784933,343.6334138968356,3487.7116716803016,2046.9554484923492
2012-06-14,4687.852753870349,-805.6274952377462,1332.9434288964437,3211.921203381498
2012-06-15,3068.6340350006903,3383.868426734157,4640.696663884086,-3143.8390300811716
2012-06-18,-4708.874408761463,4626.60549011623,3287.2255173643825,-1863.4027799096386
2012-06-19,-4026.4332830219587,500.13421009381887,-776.9601313725971,-3129.7698872391434
2012-06-20,3728.946635762247,-1242.3757955966962,3626.3983476329918,-3652.2393877067793
2012-06-21,1572.2273798134968,442.74679511782654,-2260.9977655250877,-4978.766608163564
2012-06-22,-1387.913282744484,1316.921825041093,-500.7783766931606,1821.6290343892904
2012-06-25,3441.116862423259,3661.487435246691,1495.6252000201152,4200.301076301721
2012-06-26,490.381871615132,4771.428896393115,1879.9615484135613,3110.046202717475
2012-06-27,2760.6859963887887,853.9461768862477,-4078.241135856606,3627.842442141125
2012-06-28,566.9999473852727,4110.729670049229,-3361.251930485106,3940.9061050101145
2012-06-29,3877.2889853246306,-1178.55062281911,-885.1102566731817,3635.7889801826827
2012-07-02,-4280.704110138377,4709.51947702514,4022.9254671669023,4841.9120254131385
2012-07-03,-3698.9360436916572,2006.4554337962393,3464.96005600608,-1234.5392909130514
2012-07-04,4532.872448953786,-4200.3085190267,-785.4843067160666,-2067.472570178118
2012-07-05,2886.121526311841,-2509.7283818211604,-1750.3144583729247,2925.5526767923225
2012-07-06,1368.4939778849991,2274.4902720046634,319.1568347357143,-4884.570996775149
2012-07-09,-2257.0845731909385,-1988.260768694645,-1161.51538956361,1694.1815492584944
2012-07-10,-4116.400808620186,-941.4533418718107,3554.5319826614464,660.2548371879891
2012-07-11,1228.8379928327631,307.5254423455853,-2802.501469131331,-2733.813272254895
2012-07-12,1325.0260474776044,-856.234291560628,-2140.296086301685,-3957.0478527402297
2012-07-13,4041.176167747368,-537.5647322990241,-3476.2974366078856,-362.3938813023009
2012-07-16,-2113.514667098796,127.92026710904292,-1521.2923895951214,-254.9892586775615
2012-07-17,410.95152368922027,-1688.1509587038602,2870.4198279688653,-1367.2158085465458
2012-07-18,-3422.013357987833,583.5121169749535,-650.7625446869691,4140.529962050973
2012-07-19,4759.064529385227,4626.897941990297,-3215.6265760396986,-4975.981318376866
2012-07-20,-2830.644811186903,1918.6300978643433,1180.2833369858113,-1092.1128991827377
2012-07-23,2725.2142283864587,1935.8290012565803,1413.6222416750566,-2196.6432954946067
2012-07-24,-1382.2617940114212,-2934.261683391196,2873.5620520899374,-787.2444241511578
2012-07-25,-2823.395431432785,-1474.7757815590458,-4706.582749344769,2909.7744083747225
2012-07-26,4845.92316827548,-4008.5531974626333,-3883.4143295084377,4672.567235724578
2012-07-27,4113.706215959425,136.85402715077566,331.9832317308402,2106.4007086496363
2012-07-30,3526.6703809252576,-431.34999259332506,-1940.8548069360966,-66.42623138035542
2012-07-31,715.8839198953193,-87.52998970766201,-457.2908770265671,1365.7781840363537
2012-08-01,-940.2652541004375,4669.69492432477,4439.556672247241,2083.107672163308
2012-08-02,-1849.471859618762,-363.8631020069627,-3524.6832519836125,364.223768984413
2012-08-03,4822.371725083788,117.75731774970266,-1408.8543633526308,-1567.3728301035383
2012-08-06,-2553.5748594938477,2301.579369133576,2693.5736089501816,-2310.090201230429
2012-08-07,-561.7714663510532,-4498.3116943041605,4350.9391677045915,-1142.8541553882533
2012-08-08,771.804652325081,-2722.103434988288,-3310.856798045693,4841.848646959598
2012-08-09,3525.456351300769,-3000.845766932185,1560.5770967001376,-4013.406957139458
2012-08-10,1962.037487833551,2282.0420264083787,-4508.2147231677645,-2508.8261401806353
2012-08-13,4883.95145445925,-3032.007854262624,-2529.315386552301,2479.278514155755
2012-08-14,4035.9498073223,2864.2886298323187,1863.7409429599861,4847.692680987684
2012-08-15,594.9105082289841,4012.36975195592,-1017.9264648997644,66.61356414777941
2012-08-16,-3797.456511479658,2816.6674232342357,4214.983849149653,4057.3630040655808
2012-08-17,3292.8101668892086,-2944.6662513903443,2503.9325685860204,-3147.1886239221194
2012-08-20,-2066.276588698066,180.2568462229226,1997.924968228454,4891.905908910643
2012-08-21,1476.1698719162575,2222.575447151095,-3025.870348874774,-4487.543249731598
2012-08-22,-4539.4139072180515,4843.547737843956,-2811.436282385372,3424.4881198599587
2012-08-23,-881.7231390945946,537.2160171636531,2980.4334188209436,3751.4716490081037
2012-08-24,-3292.972127378024,-3631.493987478145,-4631.33684452402,-1290.4477178312434
2012-08-27,2016.0456485332668,2128.8190522828822,940.946941006362,-962.6077724807558
2012-08-28,-3133.0115250666313,-897.9750694046329,-670.1260636179562,2875.7757283814444
2012-08-29,915.2571087700234,-3018.00805028157,2986.1364014164737,199.38983754026586
2012-08-30,1585.9791748797868,1338.592861712563,-1023.7776189502367,-1417.3845374806958
2012-08-31,153.69136441760745,723.5711325659045,-2158.933396881406,-3389.0178547542614
2012-09-03,2651.4041973620383,-3610.4379378139606,-2097.549900286223,-1715.0513155371882
2012-09-04,-4558.7987188601755,4785.571695185893,-3288.832935646814,-3773.6708202457535
2012-09-05,4997.391723491283,2136.1735245688574,-1546.0058543110322,4539.17538405063
2012-09-06,-4357.811350118055,3341.3796979352496,-2625.0881971231142,-4377.355536842313
2012-09-07,-2934.910929938738,-2572.2436357189304,4012.3523781777835,-4389.624863964779
2012-09-10,318.3646756407954,-2953.6669842141982,733.8495947248447,-1912.2035609220377
2012-09-11,-1673.439828789428,-238.03205012113193,4878.804390514826,3498.200757122708
2012-09-12,2758.6364410615315,3333.118714170159,4850.92094832539,-3461.823246103777
2012-09-13,-378.75971241381757,-2764.922990224049,2314.8681002471694,3018.1128491755217
2012-09-14,2542.3906412285946,-4391.56602991775,-4139.46321640354,593.8422514745167
2012-09-17,-4193.560008540754,833.476841312819,407.53162520313913,-4685.596449945334
2012-09-18,1452.8140487591368,-3093.588886265922,2598.712540908268,2446.010400672912
2012-09-19,2109.134422509935,21.68818380505977,545.3548777044625,-2413.2758145017506
2012-09-20,4374.454970257629,3307.037388465851,-2471.6416522445097,1103.9445406118252
2012-09-21,-3368.6445796521725,-3101.308093608179,-2607.8381824315798,1588.6812423423669
2012-09-24,-2187.247490977247,4782.940484397357,-2645.827432757355,2618.7594623535715
2012-09-25,-3001.543178156876,483.88020242178254,-4295.517418461517,-2339.0050984400177
2012-09-26,1631.261671793255,-2542.251334657606,-681.1872657512607,4610.657171047602
2012-09-27,4821.779694932773,4616.966043669056,-4862.901371601942,-3230.8934070500673
2012-09-28,-1745.173691195777,-542.3927504352688,1133.1742237908038,3068.2035111998753
2012-10-01,-462.74144515549784,2165.80703358473,886.9691686196701,-4059.1016312980887
2012-10-02,-1159.0531443926366,-701.5279414006959,-3608.6033080982447,-1321.0581892089735
2012-10-03,-1320.5727984790826,-3289.9800644570755,3037.041620132427,-1071.830507438466
2012-10-04,-520.0591988506209,1429.8597407081704,-4410.332267760392,2296.843523021115
2012-10-05,420.4786998769006,3158.449131387502,-1749.7263065506763,-1104.8869555568751
2012-10-08,2201.2563459125213,2885.702884681709,1381.125199317117,3814.288369515443
2012-10-09,4380.162002286354,-3546.5986997043374,3311.551353076154,-4887.6523564642075
2012-10-10,851.665955944686,2039.8320583839325,4113.43708503038,-402.2058188719901
2012-10-11,-1565.7746920113668,-2867.2702710952913,-378.48491192389974,-1016.527430923575
2012-10-12,1577.935561626025,4163.907682721869,-2611.9755400935205,-2454.3952200892327
2012-10-15,940.7567595088495,-2994.676865691761,-3782.024677718554,2237.8500560288508
2012-10-16,386.8559567689089,-283.72319869613636,-2672.6751542760117,-3665.520164200353
2012-10-17,-1066.2905909639608,1819.8873768791434,-439.1224666605087,1483.8368250248702
2012-10-18,-2349.9574708452596,2243.9956308408714,-4798.225639674369,4940.155207958391
2012-10-19,2259.209927595235,-3324.449870633455,-4606.073559500192,-4889.085766528155
2012-10-22,-2034.5021975887566,2020.5067221365248,1434.8502074070534,4440.157218634847
2012-10-23,-556.9979242238521,-749.4563600358506,3637.388826727427,-2581.7201269324696
2012-10-24,-104.02456989457853,1001.056026335676,1800.4430537868786,-3746.3880757957436
2012-10-25,-2497.745749598288,-1520.4129504943687,3872.3542731409043,3272.6262367130853
2012-10-26,-3726.6027729963134,992.2082328059678,-2379.1286812559597,-3816.1103619265514
2012-10-29,-2989.300284369947,-4068.8669399633604,-2993.1880120239953,1937.5113664886735
2012-10-30,892.7864376661665,-4897.030235540267,2236.03204725245,3459.9173764211364
2012-10-31,-1546.1859525676746,-4145.941521743456,-3002.156762856947,-1020.837777304906
2012-11-01,3777.0960418146806,3193.4178657541056,-3359.20325590382,1774.0052445562715
2012-11-02,3776.6013338483094,3695.2306381662816,-3572.829098379038,-4837.887903353596
2012-11-05,-2844.720467359948,547.7619315057169,3032.5850408204456,-2535.8119100029244
2012-11-06,83.61880807032706,3754.8646692005295,376.0690982212267,2433.1224623855296
2012-11-07,-3351.739293953606,-2840.6398181437953,2408.6246059839013,-2801.7385445312225
2012-11-08,-657.2711743531901,-4007.536605686407,1344.900392047448,1386.2567120239212
2012-11-09,3391.3258420302295,-2073.800699505002,-2262.24144988872,903.0319345041304
2012-11-12,4451.770028353171,-3917.706743481688,-3145.0529556537053,315.8161732035336
2012-11-13,2202.6399163508113,-1776.1010800601907,-3078.3320956776947,3055.3740012672292
2012-11-14,-3370.171362987604,2420.3943796226536,-3964.506034785086,-4412.440617673466
2012-11-15,-224.5534426836171,95.7066080948632,2694.7229690006025,-943.1775203519866
2012-11-16,-1657.2751417546338,4356.2897928045895,-2358.4643648077786,-4341.452400833422
2012-11-19,-2579.4554604184505,-4976.366639885834,-367.5995501992835,-444.9492849063064
2012-11-20,-3530.6966509923477,-781.4690608788032,1031.2376186647743,-1924.2082492760026
2012-11-21,2030.9090425308218,636.0525617204438,1856.6264754883432,-3709.1246262583845
2012-11-22,-1169.5214895433958,156.34598861707593,-3968.9479511782133,702.0183484079323
2012-11-23,2810.8428827078646,-2403.47365788827,443.17340033382504,-1776.0905534327997
2012-11-26,-1677.2015526846374,4217.512479807397,2327.5663010225558,-1248.6209908606404
2012-11-27,1253.266993340225,-2344.545615056819,-319.417348090385,-4057.3439340695018
2012-11-28,-1712.2171291672073,-1654.9942351991087,977.539861116008,-3951.0490679988466
2012-11-29,-2059.5904887505567,-3565.985014032803,4111.777627236196,-4756.389686235827
2012-11-30,4374.091141770123,126.28938306897153,3991.3593232815692,2977.85116214518
2012-12-03,-4182.937161729287,-1742.048396870054,2471.852655946388,-3642.5158028837755
2012-12-04,-2826.3617938632988,1779.9120168694972,-2927.5285575838884,-1360.1354908889573
2012-12-05,-1312.4809437280005,847.0304575918053,4427.884363604108,-2641.4183547938233
2012-12-06,-1593.8495119230722,-3664.2390884558563,3785.8170125070687,2959.529861010721
2012-12-07,-1418.2725177143375,520.5775372137666,-1892.9851660490892,4372.249241758397
2012-12-10,623.1847412281188,1432.5941196110414,-3645.706179378995,3488.2330261201723
2012-12-11,-3142.803571198831,1096.6996630361668,2470.3617933086584,-4033.162695525063
2012-12-12,789.0732639403398,-849.6706749300076,-3651.052679319591,-2911.402187169819
2012-12-13,3592.516321692546,-3766.2198071391526,-523.835330731257,2798.8296338477016
2012-12-14,-1759.0750172150715,4506.859862877884,-4080.7029859857325,743.269922194364
2012-12-17,-3705.107874313626,-24.102304302187072,2572.3652124989594,4774.363246379498
2012-12-18,-1992.754702457711,-318.74029994868545,942.7854595754148,113.19380071193486
2012-12-19,-3184.823110387003,-4629.073579801771,2434.00614103807,-3341.9117949959254
2012-12-20,2860.9120732442607,-1234.3139822237104,-813.1192582729552,3431.7643657776366
2012-12-21,4073.372723171822,2120.066456627978,3403.0677555723555,3881.3240668378503
2012-12-24,534.3627610840063,689.8035089897948,-1512.1442166425225,-1820.876434824079
2012-12-25,-4981.143910284756,-4832.0210145651945,3751.039815505407,568.9814178360497
2012-12-26,-353.2219408834803,491.4868443167475,489.123431283931,4411.3210604702235
2012-12-27,-3531.4584665961333,-1549.9637632040685,-602.7726495035035,4612.055824501778
2012-12-28,764.7630096367419,3002.378410448144,-2719.9368208702945,4764.652205351216
2012-12-31,2231.265223724983,-2462.7235425591352,-3383.5933431267063,845.5315580363576
2013-01-02,1203.3152563529281,-2661.5323913640077,-2443.2509249602454,-925.814742911758
2013-01-03,-3210.4807672470024,-3551.1607586045634,4056.3785754847504,-2341.6045784918306
2013-01-04,3011.9023646493683,3858.340952829102,4085.7293268679086,-202.23489376319347
2013-01-07,-1784.230349356556,3536.182513594349,1434.578012583082,2908.9092687091565
2013-01-08,2500.4447282933684,-698.2787443998517,124.54773033660493,206.27408397153047
2013-01-09,-1845.8897707700085,-2437.3749134984914,-3213.667985679003,1831.3258728298276
2013-01-10,-2235.6082124370014,-4526.157436767259,-4632.466210840229,-3247.0478485234567
2013-01-11,1174.4189597880572,-2190.272628576064,1933.7751620334952,3910.080028038945
2013-01-14,-202.39484693475583,993.6653655508243,626.7397278509934,1897.514601855249
2013-01-15,-2566.5967614863193,940.2917774214181,-2188.5408967411304,158.76633803240782
2013-01-16,4805.005658446241,-345.22324943061176,4153.598100048447,632.9487915399901
2013-01-17,3526.7491601900747,16.42770885868061,1069.408456465395,-3365.023556257313
2013-01-18,2155.3626376509783,-4616.447666273527,-1990.548190409518,2549.4803033588396
2013-01-21,-216.7175204722005,3648.455524615841,3274.0203535604996,1562.7273016581166
2013-01-22,-1580.3330023034357,-259.32333488091206,-4384.910402461751,2429.7543119850006
2013-01-23,4879.603168228464,2106.31849696854,1900.0648919863704,-4541.723900352782
2013-01-24,2877.6136826094103,-467.7687250171958,-3090.900130030326,239.38579060062247
2013-01-25,-3562.3180238961204,3023.128944143877,3169.9434564018356,-1798.98831458285
2013-01-28,-2469.3754426497626,-3881.261330272826,-3100.992672897189,3736.058377711844
2013-01-29,498.0383044193981,-139.49737893866887,-224.97201082325446,2974.715216293856
2013-01-30,4702.639052912287,-4730.451319506282,-506.6855015391236,-2758.2384277985707
2013-01-31,-3500.977677779872,1977.2357735509227,4862.756376136607,-4466.933010585905
2013-02-01,-3824.5898827904266,-4733.281622994771,680.2224981672845,767.8575669098531
2013-02-04,-2236.4897827964037,-3099.2090104539516,457.08855777961134,1639.9369535779017
2013-02-05,2549.437191795535,2721.588550812647,2067.951983751677,-2334.3132422047797
2013-02-06,-4435.650051847909,2483.2716190738024,-506.8351872125432,4741.328938480515
2013-02-07,-2211.4924473656706,-3512.304196573145,-3394.676593383453,-2598.8989263550666
2013-02-08,-1112.4167552462993,-679.7895962219402,1825.7671252997366,-2257.4784980719974
2013-02-11,1206.2043219124819,915.6943819867058,3946.44370578491,1842.79744452978
2013-02-12,-1851.9972857183898,1573.9955271170825,3526.7497415368807,-4879.2415346060725
2013-02-13,-1797.6796234323078,-1696.2963381022046,-4878.260337144161,3540.5113299562618
2013-02-14,-4738.385753880167,-3932.888960416807,-3930.805298688503,-3052.014974179834
2013-02-15,-3590.7738101416367,-713.6451661434106,2060.831239453065,-2631.1984757632767
2013-02-18,-3772.9020657885694,4022.772729275985,-1784.9493021687945,3031.9409066513012
2013-02-19,-4275.398657186905,1185.5458549735665,4248.004751929277,-2411.3439936864534
2013-02-20,4214.574076630612,2628.0243559119886,1138.3181416530065,-1862.8821957130215
2013-02-21,-2972.190603329503,2655.700791106287,-89.24782347975002,-3096.904215019691
2013-02-22,-1218.5425962390184,-3735.928999857777,1906.5859427119058,-3104.663195391212
2013-02-25,-4907.413429434514,-99.38784877226325,3667.9877743281786,3212.99232390175
2013-02-26,-3375.1475609995496,-3124.679055995795,4998.734548944612,3946.30224160984
2013-02-27,-1268.585499281777,-2632.8310168044545,-37.1512861543799,-1544.9603278449165
2013-02-28,1560.9224199267735,1766.8227635692679,-467.1520451406763,-1367.4617688675362
2013-03-01,4896.345342855436,2643.6437493531494,1138.7122827885976,83.65765860007812
2013-03-04,2007.4620231724416,2948.720864873926,-4419.666843061201,4982.150473831328
2013-03-05,3971.39129758167,2521.9950860384897,2895.789303813413,842.3414158378695
2013-03-06,-1588.1594354970853,-1891.0217421895247,2611.1156182530735,1815.335135179319
2013-03-07,-3514.579692825318,-3136.226919948427,2843.615978949533,2131.6337384096996
2013-03-08,2595.050652837427,403.7670465856624,-4228.611987208105,1073.2374301348102
2013-03-11,-2886.9654804754873,-3500.466523010427,4221.759129632279,-1832.0382184039718
2013-03-12,-2515.9917274525355,1647.360683130572,1856.911957001295,-4827.643582783804
2013-03-13,754.5407348582333,3116.0187086121496,3288.7323766797326,-1243.9327983148473
2013-03-14,-2372.1697199386504,-2490.18495216056,3923.548287470792,-1301.8608687353694
2013-03-15,524.9010389478904,-2087.777172486122,3402.4197972793713,2513.1974048809193
2013-03-18,-4714.237165067333,-2483.4946720061766,1819.3350676683428,-1863.344972690276
2013-03-19,4637.100966797862,-3372.711232261343,-2416.689489851628,2099.9017531634
2013-03-20,922.7203821876417,3013.509243343323,-3191.0893261341434,-4462.396381799785
2013-03-21,-4539.741160000863,4630.3876306397115,-3532.3648876385096,-4249.370129431421
2013-03-22,4707.148067260549,-3059.330787641019,-2487.048373258569,3143.9773150607584
2013-03-25,-4128.0978188100435,-1132.0355103394863,-2242.9185760833757,-1382.8151494998497
2013-03-26,-3711.228009303039,2184.875610678948,512.8297266161308,4961.237854181721
2013-03-27,-441.3145342407809,-516.7467243986656,-498.7213335546214,1225.9606072167217
2013-03-28,-3522.730225255748,-3689.8932270185815,-2836.6194060267057,1633.0202403950334
2013-03-29,403.43448489126075,-209.38066401104848,-1453.650127948788,2287.503127796826
2013-04-01,1277.8138479165236,2044.2778612601253,-448.33359875434905,2852.744181561222
2013-04-02,4660.994119363935,-307.80491025387823,2595.5917885831946,-2615.2253755378642
2013-04-03,1477.945204351042,-639.9941947605425,4988.878626110614,-254.1729745094856
2013-04-04,-1272.712535564595,427.7516691569927,3947.8686899517147,-2418.8777793705094
2013-04-05,2868.5649937716007,4218.170988337403,-3950.189429526362,-2062.914255919682
2013-04-08,-3604.28147979009,-15.22504517410983,4580.584733275602,4139.060097406243
2013-04-09,-3389.434029338496,2561.5819726850673,4981.527657861431,2558.5957629339027
2013-04-10,3956.1016883221023,4161.050902675929,-12.954319985731821,78.2814208940874
2013-04-11,3540.7908928512197,-383.2883974866619,-4409.687486659708,-1978.81480408045
2013-04-12,1051.9958830153707,-1131.9838323924591,2223.284260127694,-4451.656244806708
2013-04-15,3267.0989120107406,3742.683032780254,-2148.9955751088096,1410.6577341560778
2013-04-16,2454.4170689376974,2777.5316179136776,-1361.5967234367977,-3006.68351223205
2013-04-17,2977.06966949152,4432.482819541181,4702.30018491843,-1054.6242259670369
2013-04-18,-2721.9593358828033,4924.059030215561,-4490.495860154443,4342.742961707176
2013-04-19,4503.572918437263,-3754.7117898297565,-4380.853007733136,4124.134988423526
2013-04-22,1354.6321545067751,-2757.942167133642,-1540.842262946457,-2274.169359239112
2013-04-23,-3630.2585148904454,2178.515323636743,-2745.644705407081,1308.074258260814
2013-04-24,-1921.079505613853,3332.0848130610257,-531.8740384474673,4021.371149762555
2013-04-25,-3195.9996191590635,-4665.661685478064,-2289.5659336912754,-4270.0159064548525
2013-04-26,1162.0343909917574,-4043.4815083092312,4651.845412556659,2797.196405848256
2013-04-29,-3242.034029888882,791.5827222492378,4198.087865639843,-548.6072895773153
2013-04-30,-456.2021780376846,-2906.879860057109,-2434.5309411542557,2561.3560227205535
2013-05-01,-3902.513629216161,3230.8133033355657,-3865.5736027262164,2032.684366746138
2013-05-02,-1587.1934547705214,4801.764699700028,519.9461682577133,2284.0072105236895
2013-05-03,4833.379596226466,4197.5155147676405,-3104.5562053510935,-3465.3431265343247
2013-05-06,4540.205851766237,1615.2129952352645,2633.464872267104,-3905.194787419893
2013-05-07,987.004289780996,3317.65003509084,4757.908385888521,3699.3447734416472
2013-05-08,-2406.8092760401673,1499.4423098390864,1691.9549080339013,1705.1705793521298
2013-05-09,-4655.926540390655,-4366.967742395404,-481.8642808758189,-1384.7954167789921
2013-05-10,-4032.4776602838388,2807.613839610479,4307.5023051264925,1782.4082888908465
2013-05-13,-3145.1903685641946,3803.936456870931,-3833.4206173697385,-112.59509302513071
2013-05-14,-1672.3410084829927,4818.064070578549,-3448.6727071289947,-4272.422166738494
2013-05-15,-2429.646167721451,-3049.779073222426,-1120.2577037146455,-2300.627358499444
2013-05-16,151.24646680523824,1359.0690587680099,399.87685628880223,-3391.542660963629
2013-05-17,3619.050981990262,-2744.57165577212,3092.8937879480422,4981.6675510328305
2013-05-20,1001.2142412623925,-3157.520406014116,1769.7679935764754,4294.186557605723
2013-05-21,1851.9323596987058,2395.0944612881553,-3646.569558403208,-4218.57810715811
2013-05-22,-244.127319972115,-2022.5094890020268,4030.5294047365824,2889.7739809454583
2013-05-23,-4645.200533193197,-2927.2864711707693,1150.1592049207975,486.22288945934787
2013-05-24,1050.3271729659025,3675.5351961993156,2368.2693476842487,3882.4747890740396
2013-05-27,-1568.8763763480583,-2848.611177558692,3974.911573565435,-4126.253522532205
2013-05-28,3362.0078124014954,2403.531416352137,-1726.365765187542,3648.369860386731
2013-05-29,-2378.8885236119027,1603.878115365176,-3811.030640084198,3406.244486103426
2013-05-30,-3001.6594212714685,-4028.054240019625,-2354.468580464364,4419.58741297938
2013-05-31,-3643.1885188525093,-3558.6708496245524,3846.7856054742756,-2744.16435368008
2013-06-03,2715.9263385915588,-3573.748753682717,126.1714592460228,2016.7761108611337
2013-06-04,-4810.193341353874,1603.66693815412,3215.840231371092,-4104.95529494
2013-06-05,310.026579215632,-4137.956428033111,-3251.18331089164,3057.1893696051634
2013-06-06,-4475.671070966605,4985.5078160316325,-191.05758069837054,-1536.5284743492414
2013-06-07,-1542.0252137387413,83.85523837570518,-3160.6503899695404,-1595.3906057380464
2013-06-10,-3523.6574728946525,-2347.9312155825305,3031.4506417359676,-3433.886923406516
2013-06-11,2870.017635133896,4886.481117975939,3431.635483362958,-3606.837353336999
2013-06-12,-2023.3962821416685,-2296.7408069671224,1833.104189057555,-2587.2680481173247
2013-06-13,-3797.8561632990495,-3732.4220572353306,-796.4498676766063,2381.9720814457846
2013-06-14,-697.7356073855245,-172.29481998039864,1447.2209335121,2036.3808458306487
2013-06-17,-211.91863989224237,4432.395319882118,-1279.3773089332062,1915.6174368167067
2013-06-18,2700.14526638075,300.630765117047,38.167590308432196,635.461752435692
2013-06-19,2099.204252859731,-602.99811981399,52.039009088812314,-1009.4850324746418
2013-06-20,-307.9880348543718,2529.4250225829774,2029.9670462748998,1830.0658994334328
2013-06-21,-3369.066217503134,1605.7233724508123,-1142.4307931677836,-4034.1207836203507
2013-06-24,2642.4142289761653,-4062.784874009222,4944.406193090778,1966.8285441446044
2013-06-25,-2181.0848987774734,3106.5056027389915,-1378.733632534399,2333.0766084085076
2013-06-26,4058.867842865067,1779.0886134294115,4408.124294846783,-3701.4239986929942
2013-06-27,-2387.046546532956,2679.553888748458,-927.8408599496968,1628.1568303378767
2013-06-28,4467.020500857867,-1989.4435263151179,-638.4862989795015,-147.19695768790064
2013-07-01,-90.34904696208157,-331.95928938017374,-1992.5620748097617,-3134.7314495600085
2013-07-02,-1274.8205442839644,1483.0454553164552,4180.686020633057,132.98943219829275
2013-07-03,-3939.8126026456825,3256.2311998009473,-4965.653826436047,3525.9775471885323
2013-07-04,-3934.8978581024453,3583.1341540377716,3961.3155217615913,-123.42902751655282
2013-07-05,687.8395772286394,982.5474603471274,-1984.3479902425565,1255.3727518408264
2013-07-08,2225.2872389825475,1854.8711010231932,3713.0946667906173,-4766.391309997235
2013-07-09,32.746602712420135,-1395.9871996652118,4125.337667258445,1110.9704997090985
2013-07-10,4589.562445265938,-4792.7442629702755,-642.4911188114891,-4985.169165825557
2013-07-11,-953.0116139944345,-3822.1102317701716,3427.247277486237,3985.7499045936406
2013-07-12,2569.7229060798386,-2577.837422119662,2484.0117809595954,3186.519089134161
2013-07-15,4852.246431866414,3476.8476943085925,857.4422594758502,-4643.945821182523
2013-07-16,3075.2775261388397,-4543.695175797778,-4843.723149951147,-46.4155534075128
2013-07-17,1996.7324159400912,-140.17091038221795,-3437.2760320428188,3913.096738950831
2013-07-18,-4530.613792492476,795.7842972219897,-4854.067266291789,2711.528862705027
2013-07-19,-98.24263689266255,-344.54118075113007,828.7503859927414,-2631.7541819369517
2013-07-22,-1312.6573454770319,-4973.978182518103,565.4718065441111,-3089.975083783286
2013-07-23,-4121.218295814063,1575.9196921184614,-4576.85860299964,308.7174587543695
2013-07-24,-2882.9481580686656,-4807.53189969497,-4507.49811937741,-2306.9244017668498
2013-07-25,-2412.1554819671633,-725.25232090076,-1500.4272229074911,1173.2807884180875
2013-07-26,669.7499377043858,4520.315638501878,3833.6657777100336,3726.891195691986
2013-07-29,-2604.175635285987,-1061.2079324929446,2660.773072559044,3738.7406821687364
2013-07-30,-3069.3010957092624,1227.5647142933622,3365.1081204722964,-3966.407746934668
2013-07-31,-4773.421317978314,-461.63876189189824,3185.9748123997188,2453.5951373840658
2013-08-01,2099.662932300259,2755.8702182306383,-3059.0937348563107,-3468.236385622746
2013-08-02,4591.873033690491,-1124.958415256938,-2859.7232635656333,4566.900817091725
2013-08-05,-3761.6821466672477,1293.7206170587367,-3611.409602570029,-2606.918866782445
2013-08-06,1869.208294689282,-1559.6006127672035,4454.0659304447845,1378.5426580359206
2013-08-07,1488.364259661673,-4191.941979979196,168.55371428520337,561.6934492105863
2013-08-08,-3452.9415594982183,2595.0648241672448,-1482.6485545686473,2540.4161468234843
2013-08-09,-4797.0131359545585,4550.367588443186,-2584.5257809167833,-177.82563260911655
2013-08-12,-2675.3014708825694,1812.9612025191932,2082.9587952382512,-2217.3314436392657
2013-08-13,974.3257465725952,1840.2997753842842,-3784.3797168053916,4274.388963858057
2013-08-14,802.5536953166268,1687.1204037521015,-4786.20768393131,2009.6556366863606
2013-08-15,-450.5285088228539,-3397.370716724282,3140.716799320932,-3575.771815639238
2013-08-16,2615.909721653461,4172.671825351793,351.55137654812154,-1441.9312741066458
2013-08-19,-256.91111372802,2317.181166579638,140.8976213308011,-3489.7583757235775
2013-08-20,-685.277084023338,843.0584549000341,-95.6408738458947,1237.2478345193206
2013-08-21,-1112.8511234207228,750.5397973294814,-2347.396828254897,3080.3358702446103
2013-08-22,-739.0946166414781,3583.947982531233,2832.01240953291,-3342.078465565642
2013-08-23,-41.52439475120451,3387.052924141447,-3823.57549177894,-2745.646690605944
2013-08-26,4224.012275303627,-375.0044786937379,2566.154631975314,-4409.963410333407
2013-08-27,-3049.646924701099,3136.0358316618954,-1573.8379397947467,4619.973928406006
2013-08-28,1947.5804150214215,1806.181025595933,-1522.248922617836,-517.8507129007181
2013-08-29,1956.845388516486,4455.262056022703,1510.7100788772343,515.8077127065219
2013-08-30,-4109.491576872777,-970.5978985786389,-1496.6277212812317,-3341.9147478247446
2013-09-02,4012.0014072553877,-278.5301546419217,-1736.1000588435315,3482.9345950930892
2013-09-03,-4106.040822374126,-4003.6844709820407,-4871.534421154038,-2184.2164322999324
2013-09-04,-141.90736161559414,3831.699354141237,468.59053724836895,956.8730209564469
2013-09-05,-839.5121887552082,4705.960065349026,1327.5005808322749,4949.831012947079
2013-09-06,-4629.147581957965,-3699.94355810897,-1809.2677885126207,535.2771837391424
2013-09-09,-2400.316730306716,387.8389217929068,3456.8136080731106,-3077.1939633540355
2013-09-10,3293.549552874303,4984.6880999268915,1841.5516293794399,335.7299956512627
2013-09-11,2485.820833134158,1807.800054896791,1191.8072145956037,-4278.07586061343
2013-09-12,-1644.096509977445,4423.061953189616,-2491.9366884301053,-1529.9381490492635
2013-09-13,1087.4620629547205,669.1586175108566,1935.5077120834096,-2176.9500843079936
2013-09-16,-3803.8027575622623,-2503.6561511807686,1235.6580601501964,-1846.190991951826
2013-09-17,-3779.414582331768,2448.752050216082,-4189.577315291134,3057.1708816374053
2013-09-18,-4578.671817204273,2943.805604132651,-4418.312090239498,-4954.770768596404
2013-09-19,2330.871791287171,-164.02359224508834,-1604.5905691375563,-135.77329251958426
2013-09-20,-2596.169845737121,-831.9294633541518,-4979.113426581244,-3591.3151596596635
2013-09-23,4008.2786162466186,2689.483204991584,3609.571180191892,183.96456198977674
2013-09-24,4964.1447125948625,4866.538150703619,2243.990575508602,3558.5963034428937
2013-09-25,-2878.5143830934244,3494.7286291955693,4555.397111573302,-995.8231812976637
2013-09-26,261.9864482108236,3035.6619208823963,1315.7755643130042,-1824.5125931869543
2013-09-27,-3180.6552896770936,-4934.643339321691,-4466.025367463011,-2947.1583790744016
2013-09-30,4094.9776305807027,-1504.8294167730048,-2925.770867155103,1796.0033313514589
2013-10-01,-2348.202269409807,3303.0024348769207,-3669.334139688698,391.92990513727267
2013-10-02,604.7844181484119,-679.1900499369275,-3275.609102761067,-4745.164920000031
2013-10-03,1684.421334940105,-1627.0034400518352,-4943.823942854184,2749.2099403843818
2013-10-04,2114.532713025792,-3370.9430924035823,-54.260344145043995,-1520.4213774319785
2013-10-07,-1105.514513672191,-2734.206804795999,4615.176673839969,-4162.484046147087
2013-10-08,-1076.7056040374346,4957.744769279796,-2470.0414632743696,3567.134575832156
2013-10-09,-2724.9886603854625,181.92385322335468,-4499.118088254154,2867.9902227471352
2013-10-10,299.27611538372645,-999.8233660744205,4699.674969258992,549.9740454721191
2013-10-11,-3727.2536892687212,-1689.3358222134746,3123.517238920017,-3067.1989104000163
2013-10-14,2541.5515683697645,-1388.5375452935277,-4648.412487913499,2920.674418238426
2013-10-15,-4094.332303057717,-2512.3445031147708,-27.838850997309315,4858.5084051177955
2013-10-16,845.7123968299562,3390.000738224428,-4518.061700127611,-3234.7532217328976
2013-10-17,-799.1020015784534,-2710.083843356282,4712.616862730791,-1383.079592351646
2013-10-18,3530.0707883392834,4215.554887725145,967.2074862202529,1009.5851561489255
2013-10-21,-3390.730920779671,-2947.0952431333985,-4966.272503496067,-3399.5249991349865
2013-10-22,-445.72558045584464,-2060.262366419232,-690.7208293648092,3860.5075859235794
2013-10-23,-2883.550075532082,-4635.105087088329,-2685.901017889084,3471.1589704596736
2013-10-24,3466.6721093160013,3143.899341794567,-284.9892389567843,-842.7687780817649
2013-10-25,2270.8413841167676,3981.28479852746,-3871.967605826202,-4836.635576395241
2013-10-28,-2877.971067237315,1296.4348840901175,-502.17582553163555,-3876.4526816727107
2013-10-29,249.9794021050039,2609.118211208169,1679.3155385962532,-2672.2828815819375
2013-10-30,-4721.465984320375,4563.229837416924,1953.75742143839,983.6521593744429
2013-10-31,607.07394554811,2582.843052405418,-4283.556577285101,-1498.1109654824497
2013-11-01,3659.290221799483,-3233.9226861778757,-3190.449143129076,2005.4198079534801
2013-11-04,3873.249641902157,-1830.559970208765,-4739.522371532744,-4817.002859706861
2013-11-05,3269.6989971123626,819.1849822801911,-2893.2086461541076,-3720.654609481553
2013-11-06,-2767.9617264070744,-2093.4599007811785,-3106.427610596267,-2920.8721502986277
2013-11-07,-505.6247041151085,-104.59926585256629,-2363.154799694537,890.9927900230663
2013-11-08,-4850.408130221829,4297.61522795964,375.8120904649076,112.52524835460909
2013-11-11,3584.9764803562603,2749.2720806306493,-1790.9059532624838,-1566.622015646012
2013-11-12,-4425.068495637467,958.8080470295646,-1425.3109303907806,4334.552128085643
2013-11-13,609.0727934776663,-3160.8399717874368,3520.2638362188345,-4141.923541200718
2013-11-14,1843.0993061438173,2695.821491100485,1023.9634154481869,-3742.1103483711904
2013-11-15,3571.576669604404,568.2143869002232,-318.12914455049633,-2707.742926753797
2013-11-18,4917.875123949854,178.4831143245924,-3608.0331993577543,-3528.4668355340086
2013-11-19,-4650.483381836635,3371.858149988095,-542.2784261460234,-1358.382225812379
2013-11-20,-3123.705916480131,-4754.844732426582,-258.98861906683226,1509.9311208854283
2013-11-21,3680.8765675370637,1980.0923690430327,-4927.89116994844,578.172160113688
2013-11-22,3539.4230917240434,123.16004807119585,741.7861685894844,40.922948063302215
2013-11-25,-2875.3531858601054,-648.8432266652134,3630.0466693100952,4201.107034170952
2013-11-26,4976.4800040314085,-1441.0843859575507,2741.2401566833823,4055.268665163715
2013-11-27,-3981.8943262631224,3376.8978667358997,4872.935516689623,3192.462005340523
2013-11-28,1063.710394593671,3898.3232713591974,4868.261938666138,4721.173034165585
2013-11-29,391.16100540700137,4433.047825977143,-1784.254021410925,3780.9728439693745
2013-12-02,1672.1834521212597,3951.369408965545,1407.1585354049078,-4602.3219628425595
2013-12-03,2130.564367630149,4298.344673255102,-2755.223331853054,1196.8635324925924
2013-12-04,3440.6163447435133,-528.6801469125423,-4097.2774291819,-984.5381591851321
2013-12-05,4931.322214161313,-1918.4313792192431,1978.4442039450878,-4707.723799390639
2013-12-06,4341.871616271415,-2813.822253536714,3393.291106971494,-1809.694774321391
2013-12-09,502.64333898511813,2813.7880662880066,-1335.1292963416151,-4251.776009441157
2013-12-10,1980.0163179770925,-321.30460049261677,-1553.4551153897557,-4680.314664799749
2013-12-11,4912.408324798058,-3514.0192757317823,-3308.5945375223137,3976.8202054080703
2013-12-12,-1380.5635007450212,3585.4198142773985,2053.4272190483816,-4634.527154721998
2013-12-13,3398.537617989812,320.2071933322459,-1954.1230154784073,2636.186832698334
2013-12-16,4203.374296170481,2776.0584057987294,4292.736798642639,-4704.186997046065
2013-12-17,446.7658906006655,-814.7947510841891,4398.219383287734,-3824.780718120762
2013-12-18,-843.2648345419802,4247.089922991747,-2675.9855962680567,442.576440370166
2013-12-19,-4131.5386004552465,2109.809232757728,-1296.6456403560978,-1567.231928745232
2013-12-20,-2577.371072488529,3166.610173505563,-672.0630547264394,-920.2867683262006
2013-12-23,3989.9017662962865,4623.5535216501685,-1656.724943996627,3618.0337701800468
2013-12-24,3246.3070962749075,1942.720766953906,-513.2290367629588,-1077.651959981374
2013-12-25,1776.7183523806384,-4874.979269051095,4943.467177944899,-4704.030661932374
2013-12-26,-3698.158927987708,-3590.848310479213,4109.858244941903,-4237.818836004585
2013-12-27,544.0423077703649,3217.858718670067,-313.66325834203843,-4054.545534019924
2013-12-30,-1964.4338465870171,-605.2251252006946,-4326.44234644889,1598.7715205212737
2013-12-31,-2122.4591265057747,-1433.7497892973417,-2843.1664697648116,-1017.4288635434891
2014-01-02,4579.741090834375,63.10620227763963,-1533.0166192256079,-3036.3772091731244
2014-01-03,4009.724282274353,-3043.768185635155,-4343.022032242845,-2724.3234800334417
2014-01-06,2583.705708213938,-244.93143608488975,1413.8813320220845,4216.962949061486
2014-01-07,-3545.1116400056994,-1614.6918025080925,4592.936427924428,-4601.659536406145
2014-01-08,-4148.119810371913,4322.131710026723,2728.118296392361,2563.5236860049613
2014-01-09,-2253.137309603386,-2496.444689866905,-1452.4097344952336,2452.870805045594
2014-01-10,1258.4642818016534,-436.2397475122093,4003.8851336788885,3336.8173401244826
2014-01-13,-4972.691371304783,4274.7759708396725,1953.5998115962927,-375.85023216059943
2014-01-14,-3201.4824572353673,-2548.432079170354,-4593.649143611415,3670.3060388684926
2014-01-15,-4934.593538311861,2219.1482371259253,1477.4295000386394,2118.6281161946517
2014-01-16,3563.5450533997328,288.5688102130257,3596.417542767113,1504.599943603907
2014-01-17,3577.9711302157725,3983.7011754513906,-3062.0699523382377,-4640.474158541927
2014-01-20,-3582.2466035501134,-2300.5244585335504,-249.74763565326242,594.636109744443
2014-01-21,113.15568211559324,-250.44615660780423,4385.2490842654015,-2506.919657979142
2014-01-22,3116.1629856113536,1595.6348764790819,-1953.65181389494,2904.2209613780246
2014-01-23,1959.9544714261351,-438.2629137000105,-3766.794169774459,2588.0055280540614
2014-01-24,4425.354509176066,-866.2267881094942,-587.9076513873649,-4523.345001124314
2014-01-27,-233.61643644107977,-1504.4323859784215,2215.698578000993,529.7352600583393
2014-01-28,3837.560254165621,-573.1635852253203,-885.6369413455134,-7.818628118071436
2014-01-29,1592.3713003790097,3856.3727517446355,-634.0559359784204,1074.4869928569778
2014-01-30,4333.740903473196,1876.3695370743783,3388.64803155284,-3410.7190295910837
2014-01-31,153.49087267325757,1965.2054558099574,-401.3425251463332,786.7968227771971
2014-02-03,1009.7574382045505,-936.0053387598599,-4492.727701963215,-4741.019347644982
2014-02-04,-924.9321934270516,1472.6328433667513,-524.9807720455091,-1251.8846614778502
2014-02-05,-1634.3038360227213,1361.2797896875627,2308.4936343353224,3663.4897796793166
2014-02-06,-336.64172979911086,4578.803165450158,-1210.1424883480038,-914.100596177454
2014-02-07,1937.4860147006445,-3825.9357627689583,-388.522972244435,224.88690752412666
2014-02-10,-1601.1571897763465,-3909.52554537362,-4126.919058401099,734.1419118814163
2014-02-11,-3982.9093847643826,-2127.5530387975596,63.52469413302475,4781.802230258386
2014-02-12,4209.162114530841,-334.44012568487835,-3557.6377054937902,2692.1121269131677
2014-02-13,-2688.3438211005064,-4803.499171321516,3377.8051711874436,-2734.4954398785603
2014-02-14,894.7080771903749,116.75966927178206,3086.3986137804245,1817.1983739504406
2014-02-17,3461.9648304564344,-1210.4313237710962,3598.219258623868,-1416.678991418856
2014-02-18,3803.322868961546,4758.740446898562,-3440.380235011251,11.398715245043434
2014-02-19,-1628.1140348543488,2132.761566466539,1131.614739282454,1842.7033219069788
2014-02-20,2663.562007862379,-3710.805037680924,294.1345053474176,-3338.2279575780126
2014-02-21,2125.687533053642,-4422.708714162153,1828.6824415808455,-1235.0416771391192
2014-02-24,-4972.537039901309,-2867.578104378645,-4872.107895001766,1282.8664705857595
2014-02-25,773.1568903466979,-2474.2064034507393,-1731.8271148598174,3250.3377092004202
2014-02-26,2398.3384078830727,2985.3797677798557,-552.9334433138688,-3189.9795223157334
2014-02-27,637.0215616453356,4716.179446441807,4434.355224446772,2258.562266629304
2014-02-28,3606.2081958052618,2357.8731317696656,-1550.6954235782034,3692.4833100330666
2014-03-03,-3841.483604972241,-1769.4278139456244,-920.319808500819,-214.03634250420356
2014-03-04,3394.0883867387383,2376.3371967618464,1131.009939326123,2629.8443924910166
2014-03-05,3259.636653451273,-25.44007446860008,2374.806843383567,-3550.0907905143076
2014-03-06,1557.1352704377873,-4028.1744053295943,-1965.8913235975017,4442.294423898677
2014-03-07,224.63084745494743,-514.1134499217237,-277.2359757955223,4065.1701362333793
2014-03-10,3223.6101495746007,4471.035858748169,3584.636334022285,3986.53873892184
2014-03-11,4461.634678441408,626.0741593716201,-1598.1529282341323,1040.996340213901
2014-03-12,-4930.857984839567,2696.4039323086854,-3856.0729377291946,3928.5890346978604
2014-03-13,-1404.909434756082,492.90425325450474,-3473.340631165461,738.4829942050596
2014-03-14,3820.8268661894185,-3438.7008014906482,-1156.031630417611,-2088.6717927096574
2014-03-17,-2990.1432549797137,4977.687658277927,1985.2682048806014,-2773.3635675239198
2014-03-18,-2313.680814859236,-4904.187875303681,3732.693741968348,-1959.937962862829
2014-03-19,2974.144463885048,-2734.7401296078733,-2749.901287971004,2554.324529854405
2014-03-20,-2193.5710169885892,-1124.8362604359918,4081.238167860293,3778.574509389697
2014-03-21,4335.073563718879,4446.288351876934,1117.7879525855017,187.64948061266273
2014-03-24,-1008.7075613810148,1313.2573883154864,4399.266963466653,-4420.402212452292
2014-03-25,152.8764861850529,-376.21212503343713,799.0593087585918,-292.63466223033777
2014-03-26,-4263.277525764164,-1758.357015484514,-2819.195591098117,2479.21672407834
2014-03-27,4833.4542858166005,2505.0448961820603,2923.605822900499,150.8542774858501
2014-03-28,-1526.6710003424432,-296.7404840976395,-4188.439185750934,-2804.9797250878273
2014-03-31,-701.0751374015412,913.2719450946403,225.97681037027195,905.3068248615282
2014-04-01,-4088.743773443252,-1113.9243365266816,4907.404381342655,4744.202792477599
2014-04-02,-510.47241960219037,-1840.3182782942972,-4143.385315682399,-3713.7776039239943
2014-04-03,2146.131730403713,-1429.5205058742367,3091.082338023539,-2441.849702077077
2014-04-04,-850.7920163835936,1163.0343158336875,-4906.340227086336,-158.77108528956518
2014-04-07,-257.7458078132688,-2287.496305721928,-634.8503912116943,3340.3166781177483
2014-04-08,2990.8018874388576,-538.5484297094812,4564.335839218242,3889.903744869149
2014-04-09,-932.9025163216431,3525.266930048976,3681.2061467115855,-1456.2521829341867
2014-04-10,3175.858832881132,-4434.641383397127,-535.7679148667005,-379.9039777233459
2014-04-11,-912.3091022658602,3366.251525309175,-2292.998105230242,3077.2060742574135
2014-04-14,-111.32874721033859,-2408.142015562956,-2020.65488213385,4119.966391486079
2014-04-15,2341.21362309781,-3555.003809269526,-3480.912963425845,2319.4909144123053
2014-04-16,-1880.2749010851371,-2598.83521905464,1601.4831031810106,4662.622799698382
2014-04-17,4725.715561845105,-1366.3720842974892,57.710624720209715,2333.9179846607494
2014-04-18,2634.0046749223334,-4854.458012132716,-218.5105826441802,1687.8511119630357
2014-04-21,2015.5404737339666,-3005.17554171854,1336.5469908646467,798.3181046546406
2014-04-22,3292.4593459977636,-728.4606657694293,-2859.092880030445,496.7205615651693
2014-04-23,-1456.1053159358216,4033.2983983601266,3965.3134626124397,1377.1758787626432
2014-04-24,-3774.69530780861,1742.4030693554082,2431.107393960419,-2081.3495420529794
2014-04-25,-981.5087118031274,-3844.325903433303,135.65686491758154,-4103.096204808946
2014-04-28,2569.9427396425444,2002.1077330230773,1966.995850797032,-505.9259798614135
2014-04-29,1727.5720586775456,-4173.368445514496,1212.0050320487196,-1778.5904928831242
2014-04-30,-643.6177489264328,-1852.9512199383769,-1876.4308628195547,3002.238234012121
2014-05-01,636.6594094327893,815.2877197096719,3353.792695216842,-2996.7814714606766
2014-05-02,-4268.892889406739,1293.8839160247517,-248.16524813281228,-1178.8822843967805
2014-05-05,2404.9480826289314,-1250.3824366374938,-544.7753892198103,621.3158099409444
2014-05-06,333.9674749851329,3530.813041498738,-3524.5914151138722,361.08205999890174
2014-05-07,1165.4796974919434,4042.8814261355906,-2214.2436701112765,407.453699144501
2014-05-08,4576.925474016523,1118.7134248485443,1915.985875813887,1861.2550016469743
2014-05-09,-768.1148723918474,-4431.663688177588,-4051.1777225210153,-3983.9539104024525
2014-05-12,4624.556777436588,-3073.9407192033864,105.99395075351347,-1404.7705202825412
2014-05-13,-461.761068572486,-53.13594799700283,-1238.6015236167048,-2154.080944562081
2014-05-14,458.7884808762044,-1482.8883798661009,2650.83971468435,-3958.664639330436
2014-05-15,4398.748864765217,-3567.876952133563,4968.044280688877,4188.024728946303
2014-05-16,-4372.243236849207,-2117.250917820065,443.34395872682285,-2614.4941999764105
2014-05-19,-2162.2092611335343,-2181.0569749982965,1881.8987596566617,-3678.844640024153
2014-05-20,1505.3815482355437,358.3041273444565,2890.225479369125,-4504.790422346127
2014-05-21,523.3545507434367,-3203.3523209295877,1216.0603057389462,-655.5123550266406
2014-05-22,3310.433113610245,3992.971785409705,-834.9671054778063,-3319.824425010317
2014-05-23,-641.1782571333835,3702.8914336005914,-1256.7311388962587,-4555.974510924306
2014-05-26,1713.7531677924521,1107.4865471717721,2495.3384046161377,-60.92789105880847
2014-05-27,-350.6140391759749,218.6724692077191,88.9561843251463,1458.884469256212
2014-05-28,4010.2811568701914,4196.147300396346,-3018.2702958471364,-631.5890787510681
2014-05-29,2260.5739539494684,-535.3138458096284,-1505.4434230950242,2142.265747835271
2014-05-30,-4124.967316667553,595.1452174164463,-3501.251525617809,829.8723255053842
2014-06-02,-1455.4813317121927,192.78422207834157,4587.984469695059,-3592.8216661075053
2014-06-03,-3696.0851146313967,2255.4456533727252,-4200.778837321463,1285.3341383830607
2014-06-04,1156.5543940923972,187.60962218137166,-4357.27364607502,-2028.3751443008425
2014-06-05,-3574.9219254718846,403.3584841196014,959.3720604907918,1375.1680473141903
2014-06-06,2080.042992155754,755.669115340335,-2204.871177346329,-3367.3678192778657
2014-06-09,-3197.9472662090257,3867.3589450417944,-4792.398922820087,-2169.107390397633
2014-06-10,-535.7228943748881,-4470.264936488373,3935.426589497837,-4175.225196207596
2014-06-11,3415.839093586871,-4361.925965967927,-1799.7916022397053,-3757.2048061374985
2014-06-12,3042.018804827372,-2488.995274468915,3849.461111133473,-4980.272472557102
2014-06-13,652.5527798297614,836.2198571463675,-1986.5619749324283,3603.831763551176
2014-06-16,-4023.136872640767,-1770.4470919618898,-1287.6400476725803,-3008.57315729663
2014-06-17,3394.4851995685967,-4557.514329289516,914.9747128091667,2389.7871003468795
2014-06-18,914.6159241436402,-2230.938029882282,1974.1333666010585,-2709.250533843304
2014-06-19,-4117.892733437594,-4874.908356329598,-4269.6236529231255,3514.685832266321
2014-06-20,-353.23032918313623,-1248.7445353393678,1082.0507198210416,383.60928902336667
2014-06-23,-1547.3682534709244,-799.4470184281865,2022.863989952155,-1003.4848539614327
2014-06-24,-2705.0246487261766,-190.08298375494115,772.6937744537032,4164.824353374769
2014-06-25,-3697.814940539029,1608.6332956738481,3959.5367859867415,-2220.8702649649103
2014-06-26,1651.6962258507085,1190.1561702065244,-4996.66513540277,4327.555719753558
2014-06-27,-34.91290909988231,663.2351434846762,2732.8779140962756,3434.2833970033903
2014-06-30,4327.079195478766,-4429.742361409976,-865.7771176947338,-2370.3943466502533
2014-07-01,1068.5740173205127,2524.5546872134914,-4977.189715744269,3887.450396144576
2014-07-02,40.43681215196271,-2665.70487463909,4436.6599713459,2382.431339106971
2014-07-03,-1808.9891233153278,2191.9478024206273,3001.0517184599785,2274.437294873858
2014-07-04,394.8320004784023,3817.13281914148,-1816.5458532162293,2826.3325676564546
2014-07-07,-4788.649235818244,3283.543819457795,324.05257670165446,4513.606680637893
2014-07-08,-4561.795188273464,4046.2829297880053,2778.007079561452,3834.7959339656745
2014-07-09,-929.045241882639,-2057.205911125869,-1918.9621460615524,1154.099421633279
2014-07-10,4858.571584486802,2863.275597701077,-3283.5965631117924,-1800.0754583747591
2014-07-11,2340.248282037395,1707.7024862884994,-2712.710231127751,4455.984956655064
2014-07-14,-2288.7813041921677,-4481.990504825685,3480.1162777713525,2870.684707191332
2014-07-15,4550.39174164668,-4225.060815360165,-1273.0398274557353,-4153.008169733308
2014-07-16,-3160.82405929616,968.4713854013094,918.0872308141174,-4771.742355741766
2014-07-17,868.9930704217908,-1532.0464985015824,3468.9253551416864,1814.1859636775582
2014-07-18,-1954.2675847970659,-2466.3640135769215,1601.776737162457,4179.571322537402
2014-07-21,-3037.6492590615867,4434.878539357791,2260.470273464854,-4624.010813017255
2014-07-22,-3886.587317324942,-4052.615901869975,-57.35259437722573,3953.518404843415
2014-07-23,3675.3543468618423,-4957.70388396655,2127.6387987656585,-3255.920563131477
2014-07-24,-132.61071905937948,-4612.427032672599,3272.4389395157928,-2025.590050901186
2014-07-25,-2254.768921169581,619.6937054812768,853.3234567276094,-3799.697065277061
2014-07-28,4585.175070640194,-1024.3279544038542,3692.7872260598283,-3993.991576541176
2014-07-29,4064.5212761334137,-1353.6708299698107,1880.1938690881514,508.95041261619144
2014-07-30,-3415.8368360179516,-291.9987128365176,1404.3461245993572,-3630.8042339277913
2014-07-31,-2647.5273695427836,-4612.374091084675,-3497.323588331751,3855.1892808456178
2014-08-01,519.1979961359028,-279.3052838774679,1258.4884560667742,-3193.630614304325
2014-08-04,-1425.3552712180074,2441.3689533099937,-2947.881878137255,-101.19154985022583
2014-08-05,121.68140561977681,4426.8402104073275,-3385.246060393927,-2325.194218588008
2014-08-06,1003.6372413551309,-1954.525865905692,-2440.471210009558,-2520.7051476174656
2014-08-07,1482.356524449542,-1045.5523550535695,1343.24763951451,3725.3437295962767
2014-08-08,-3505.216713042878,-977.5256601436865,-2019.5778201435278,-3064.2322451263503
2014-08-11,-186.9660273593765,2492.9732326926,-1604.7535264922662,-604.6668166920089
2014-08-12,1581.291060102673,-804.5327573234939,-3584.414377122858,-1547.456557432929
2014-08-13,4904.937735857674,-4469.43638677883,-1369.2787062969292,-4488.0489101808425
2014-08-14,-2519.9048055614458,3675.237400185285,-789.408104978434,2215.405816636764
2014-08-15,4337.747467643416,-1064.5026000642256,-1452.8919443026477,-2664.8661327992872
2014-08-18,3333.8791587619144,1912.87656918681,-3436.5252254606125,4439.735554519364
2014-08-19,-4205.4050841034805,-4169.046353894141,-422.5265168702463,-2305.9194226309055
2014-08-20,199.43614590158808,-1642.8854716756402,-414.547439726245,2200.7387371748323
2014-08-21,1547.588176567034,2599.623531938252,-136.3260023781987,-2109.377837414378
2014-08-22,-399.89758179240107,-4826.484866739091,76.49233028810932,1783.9696315986753
2014-08-25,-692.3726239740457,-3016.030554030569,4844.261351507503,2104.648020383648
2014-08-26,-586.1019101302834,-3603.515965378882,-2141.181869471199,-863.8594483249673
2014-08-27,-1817.2345260356049,3957.3604664872973,2262.74462424961,-2240.4831669102223
2014-08-28,2115.3360958564526,2172.398945964268,3952.833149784074,-1025.2711070790288
2014-08-29,-2263.6789807170067,1580.88249010229,4236.797695584976,-841.6193388793137
2014-09-01,1618.194555022513,-3044.209526496966,-15.76323803321511,3800.6184217875925
2014-09-02,-2875.3271249343325,645.7206173450492,4297.508453831564,255.68412508413462
2014-09-03,1458.0150391711811,1334.9584806495052,-4300.996502924707,3236.3833197079052
2014-09-04,1807.623969756126,2044.0480534798378,1773.0886787795175,3018.7507607488274
2014-09-05,-2217.5616376933694,1441.8470516341608,1244.0077665065196,-1091.1940813378228
2014-09-08,3046.3665689597365,4444.517494254612,4464.774181635847,-3831.148234826136
2014-09-09,-1961.16316206135,4374.471154824897,4207.613238600261,1514.4073128428215
2014-09-10,260.39133368532254,-2868.3561863200925,1171.4989275628773,4746.167570279932
2014-09-11,-473.6256699022323,3978.8507940880245,-364.42738676406793,2953.2775976192484
2014-09-12,-1033.4700097704708,2521.1295210469343,2827.6356336369745,4802.397126852923
2014-09-15,-3016.183284588173,-119.10862204654093,-3328.305141325838,2691.305962137095
2014-09-16,57.37037326036587,-4570.208906526013,2565.8763120384597,3620.505661487439
2014-09-17,-1343.6116640328955,4572.663900078892,4406.16746190536,-1932.121073883296
2014-09-18,-4752.262504501769,-1830.5438731977597,1571.5415113699116,-3066.7445779446125
2014-09-19,2374.0143888239827,-4190.552761566258,4141.54930108959,-1686.4914813689802
2014-09-22,-3169.436924190332,-3952.2817602045966,4433.334154500358,4892.204360614463
2014-09-23,-516.3102598181713,4573.359747339041,1069.0028537616247,1448.929894670048
2014-09-24,101.20352101786966,1146.4643095628157,531.4502383142683,-55.17803287618528
2014-09-25,205.74650458064724,3168.812893844625,-1257.4707314197954,1234.2778918708052
2014-09-26,-3281.0406708559135,796.6580448175031,535.1590977654374,-2110.5590019694177
2014-09-29,1826.4138712665456,3875.6137867043917,-1528.2674067499424,-1573.483088663601
2014-09-30,4083.524557965814,-2079.2064886126427,3413.8369357994357,-3698.7575321555623
2014-10-01,-1990.5060052275214,4399.5407094848315,-655.795176482239,-2174.810277548901
2014-10-02,-896.098851897148,-2554.510469938951,1603.2016884057387,-2455.165265747243
2014-10-03,1295.48988719,-1754.4515693459562,378.5634586100062,-4996.967873738397
2014-10-06,-1930.0901813414227,-1831.2760729322763,-2449.32184842898,-345.49093392939545
2014-10-07,-4102.3066144933055,4425.780766657011,71.58759300774142,3435.343429390678
2014-10-08,-174.72663208776274,-719.8172587791851,2198.871601831606,105.66251371631586
2014-10-09,1136.2748574127324,3529.536731388745,-3621.1151371303554,3349.370974826934
2014-10-10,2413.6627351459338,-3860.3859406859633,-879.6416958753383,-665.8325644333962
2014-10-13,-3970.4016322553503,1307.1237427740946,-2859.484726442658,3103.538249520773
2014-10-14,-1079.2028013094646,572.8672739537333,14.263418694825392,-2451.748260068257
2014-10-15,2666.5972274892392,435.6948791511872,-4908.142601697194,204.57151562235376
2014-10-16,3360.214208095467,-1697.1907942810726,48.89944562116777,-1706.3098934913812
2014-10-17,1336.0551988331858,-2465.304862416359,-1667.7817189524203,-4016.5031966658116
2014-10-20,3263.0013396081827,4005.615428082708,3845.427686796621,4482.4467400717
2014-10-21,-2375.239122896027,-3806.0057372840683,-2315.4069382369757,-1316.978154884053
2014-10-22,4473.989372602015,1605.5066081762504,-4733.455075810847,3555.704189622747
2014-10-23,3818.858224294942,2571.3759380858824,1725.6103771161368,-294.2215336511378
2014-10-24,-135.6328830535447,3348.422200544343,3299.775955130071,-4444.331880876931
2014-10-27,1335.2098660857548,3936.3041701578404,2435.1932360258143,188.40919851151327
2014-10-28,3248.060829940339,757.9458878086099,2003.3337321910283,2294.6455266995845
2014-10-29,-3496.497042599086,4242.9779446889725,1597.9626956613301,-4551.044012993534
2014-10-30,-3231.4848374551784,-2612.742935863818,2526.2179573547237,-4981.853535219061
2014-10-31,-1218.4448695096728,-812.0272512505644,1019.2259253051184,-4575.886194218627
2014-11-03,3378.187882193894,-3497.780184877892,-3880.5368995588665,-1166.1579983890824
2014-11-04,652.326124327992,-4757.473601663809,562.2031969667274,4016.9130346494153
2014-11-05,1810.9990870432746,910.3871472330716,3.347339918255976,-1334.9877959137657
2014-11-06,2264.6478087077726,-4969.248144686742,2570.4697677902377,-1014.2387046908041
2014-11-07,2945.182306813695,-531.8064885948459,-1140.5667596470992,646.0261710577942
2014-11-10,-549.5438748006898,4850.287957256198,-1540.6174893304437,342.92232711987447
2014-11-11,4796.402713173537,2982.423808874549,524.509232253102,-1159.3463046061404
2014-11-12,2014.9480254002183,4483.892389628181,-4806.628429974221,2367.259119002412
2014-11-13,1026.660554249731,-3172.4898167841443,1212.1031341100818,-1312.141039811926
2014-11-14,3302.069437912232,84.44935156223687,-141.51453423353556,4457.334999830456
2014-11-17,361.99099701697656,-4835.842058872364,-734.6142818399603,-3491.238825497853
2014-11-18,3748.4952611187437,-201.83640398152568,1142.9255708802866,4833.178993986857
2014-11-19,-1869.7658060682188,149.73675959768283,1913.8641049356143,-1484.6368218847683
2014-11-20,3731.464996840893,3010.852573020811,4549.22361920874,-434.4161451978001
2014-11-21,2658.439317424249,-4773.149210948202,3518.616963699185,1738.8371256417622
2014-11-24,2138.0153278860957,2740.9199094632463,2785.1557352178334,-915.4910597301603
2014-11-25,2360.1265410465912,-56.827179962071206,-3082.7408700208025,-4808.878675384851
2014-11-26,144.71433820945623,3067.4362168549387,3081.1392726670606,-4519.450188526156
2014-11-27,657.9126873414642,3039.0687218634594,3019.6441258292493,2972.19221670159
2014-11-28,623.8254282247724,484.2989642285078,1769.7911297688186,-1408.6975723537632
2014-12-01,3684.0279627711393,4444.2129537577575,3337.002874763234,-1605.9090859366577
2014-12-02,-116.02409796684032,-2376.444544831957,-1178.1521289475384,877.2905101253336
2014-12-03,-826.3969256537051,551.9569284311688,-1544.4727556645987,-4301.656499400346
2014-12-04,-4367.116562617297,4577.226566228843,4761.58201390837,2489.6992366721825
2014-12-05,-1009.5066874184255,3089.6393505185215,-660.5163793169711,2611.111692320075
2014-12-08,3501.4508416250833,1681.3490958832788,-801.9851623607343,4940.494719197452
2014-12-09,-1071.5780788357042,-2784.904285271036,-672.7964790134478,-2135.181123997324
2014-12-10,-4266.5224719232765,-2385.8062176331905,-1796.1304048384263,-2455.9765871451646
2014-12-11,2937.4896051336696,639.8210735791765,67.05484121727778,128.6916687061357
2014-12-12,-4236.149240705598,1129.7390344350144,809.4327449181371,435.2085335754108
2014-12-15,3158.586462609819,881.5351176910635,-3981.5613396997774,-4129.015167798874
2014-12-16,-4398.541590092172,-3839.72258799399,-1234.200072533871,-250.7625236543909
2014-12-17,-2841.5797170371825,-874.6741195401609,959.3036926487331,3181.301188450335
2014-12-18,-2732.7646141848704,-584.7237235673431,-2144.2256952031626,429.31562519516797
2014-12-19,-3142.3475065379234,2980.836265803676,-4336.914077807815,-2670.286022018633
2014-12-22,-4448.758301820443,-3052.7022909304,3949.8976013960983,1030.102625596312
2014-12-23,-993.5667199307396,-227.16476548261477,3690.9473242984745,2065.1240823490257
2014-12-24,-1434.8523611290175,-835.4858603564174,4478.363601460202,4220.636019851647
2014-12-25,-877.7543177403679,-4917.389345933491,3926.7352960814783,-1376.4586778102794
2014-12-26,70.94199953477154,4596.889599265266,-2873.8648760786655,3004.726105523935
2014-12-29,2550.992363283976,3031.6878322486286,-1841.054570354369,-1762.54164227868
2014-12-30,1320.9863225533713,357.2979435696022,3149.135315300291,672.030210030613
2014-12-31,2670.596197762426,3950.195768170002,793.5906572507645,-3126.9890285706247
